svm_type c_svc
kernel_type rbf
gamma 0.00390625
nr_class 6
total_sv 340
rho -0.410742 -0.296129 -0.739506 -0.397293 -0.990209 -0.0431777 -0.450092 -1.9093 -0.238431 -0.00863803 0.0911952 -0.0201365 -0.840238 -0.267512 -0.0801836
label 2 5 1 4 6 3
probA -4.73186 -4.87845 -4.48772 -4.63216 -4.35803 -4.82377 -4.55918 -4.99819 -4.60226 -4.98142 -4.57573 -5.03593 -4.31839 -4.66413 -4.52695
probB 0.0221201 -0.4099 0.113839 -0.0175305 0.0987997 -0.19983 -0.0194246 -0.0103415 0.0292548 0.136888 0.0685442 0.229301 0.173075 0.105939 0.0153575
nr_sv 36 93 14 80 62 55
SV
1.972681850567265 0 0.6746068140405576 0 1.208335454854243 1:-1.72147 2:-2.06712 3:-1.76985 4:-3 5:0.0940318 6:-0.569059 7:-0.181481 8:1.36364 9:-1.5 10:0.597783 11:-2.76 12:-0.920767 13:1.81631 14:-1.03646 15:-0.765957 16:-0.745455 17:-0.46823 18:-0.383504 19:-0.651129 20:3 21:0.158417 22:0.752135 23:-0.265083 24:3 25:-0.416771 26:0.89442 27:1.58824 28:-1.42831 29:-1.55043 30:-0.671174 31:2.03201 32:-1.03263 33:-1.43628 34:-0.508835 35:-0.979273 36:-1.42214 37:-0.527925 38:-0.659085 39:0.0180948 40:-0.0875009 41:-0.757435 42:-0.581834 43:0.422317 44:-0.811847 45:-1.28819 46:0.818182 47:1.5 48:-1.23996 49:-1.99559 50:-0.848366 51:-0.328886 52:-0.772583 53:-1.87052 54:-0.944122 55:1.43953 56:-0.380466 57:-0.83187 58:-0.524795 59:-0.397741 60:-0.812864 61:-0.908987 62:-0.736631 63:-0.765464 64:-0.999483 65:-0.432813 66:-0.397864 67:0.537904 68:-0.607715 69:0.422012 70:-0.652699 71:-0.141977 72:0.6 73:-0.14025 74:-0.0617787 75:-0.725801 76:0.753996 77:-0.0589348 78:-0.982809 79:-0.844324 80:-0.687878 81:-2.89278 82:-2.29412 83:0.333333 84:-3 85:-1.31543 86:0.382065 87:-1.66667 88:-2.55663 89:-1.84067 90:-0.313133 91:-0.710894 92:-0.792538 93:-0.37025 94:-0.208886 95:-1.11795 
0 0.02935855854490881 0 0 0 1:-2.77427 2:0.294767 3:0.852282 4:-3 5:-0.374363 6:1.15569 7:1.67677 8:-0.272727 9:-1.5 10:-0.401601 11:2.76 12:-2.04172 13:2.52824 14:-2.5694 15:-2.08511 16:-0.235936 17:0.15504 18:1.09982 19:1.64256 20:3 21:-2.24544 22:-1.8553 23:-0.525936 24:3 25:-2.73717 26:-2.64706 27:-2.64706 28:-1.31284 29:-1.43761 30:1.33286 31:-2.93647 32:-1.79395 33:-2.68347 34:-2.52142 35:-2.84456 36:-2.16954 37:-2.49547 38:-2.00738 39:-1.07383 40:-0.903578 41:0.94954 42:-1.79012 43:-2.26313 44:-2.47734 45:0.491409 46:-1.90909 47:-3 48:-2.87759 49:-2.61359 50:-2.79893 51:-1.60606 52:-2.74079 53:-1.13002 54:-2.84277 55:2.21101 56:-1.63372 57:-2.69134 58:-1.19401 59:2.31379 60:-2.79493 61:-2.83901 62:-2.73669 63:-2.68299 64:-0.90635 65:-2.58681 66:2.31382 67:-1.71018 68:-2.24938 69:-1.75168 70:-2.26392 71:-2.6394 73:-2.52772 74:-2.63605 75:-2.53023 76:3 77:-2.51663 78:-2.70189 79:-0.975629 80:-2.52228 81:0.086053 82:-0.882353 83:-1.66667 84:-1.36364 85:-2.3072 86:1.14434 87:2.33333 88:-0.927253 89:-2.76484 90:0.505531 91:-2.45758 92:-2.02971 93:-2.57803 94:-0.3576 95:-2.2194 
0.1607758340177833 0 0.09761637185283867 0 0.3684937172012357 1:-2.51034 2:-1.91463 3:-1.6673 4:-3 5:0.390163 6:0.477098 7:0.82607 8:0.545455 9:-2 10:-0.0708938 11:2.28 12:-1.81742 13:2.40044 14:-2.44107 15:-1.55319 16:-0.994122 17:-0.123529 18:0.753312 19:0.672733 20:3 21:-2.08016 22:-1.51257 23:-0.179882 24:3 25:-2.1965 26:-1.37019 27:-0.882353 28:-1.4131 29:-1.53562 30:1.74066 31:-2.19159 32:-1.69202 33:-2.47429 34:-2.23162 35:-2.06735 36:-1.96996 37:-1.62096 38:-1.58948 39:-1.38639 40:-0.521877 41:0.324263 42:-1.70988 43:-0.756908 44:-2.20451 45:-0.0860019 46:0.818182 47:-0.75 48:-2.55614 49:-2.33432 50:-1.93459 51:-1.61083 52:-2.04491 53:-1.76973 54:-1.94964 55:2.09456 56:-1.63541 57:-2.33752 58:-1.29972 59:1.63875 60:-1.91896 61:-1.93388 62:-2.03159 63:-2.31959 64:-1.40532 65:-2.13671 66:1.63874 67:-1.52321 68:-2.09024 69:-1.57015 70:-2.10576 71:-2.08395 72:-1.2 73:-2.05756 74:-2.06352 75:-2.24628 76:0.542007 77:-2.0324 78:-2.34546 79:-1.17974 80:-2.23416 81:1.96697 82:0.529412 83:1 84:1.63636 85:-2.09878 86:1.34927 87:1 88:0.59263 89:2.26875 90:1.29847 91:-2.08999 92:-1.64031 93:-2.11837 94:-0.228907 95:-1.88555 
0.5439881286539591 0.06148087768725366 0 0 0 1:-2.94979 2:-0.980126 3:-0.159872 4:-3 5:0.712226 6:1.42805 7:1.33719 8:0.272727 9:-1.5 10:-0.401601 11:2.52 12:-2.47689 13:2.75694 14:-2.94397 15:-1.82979 16:-1.30114 17:0.311418 18:1.86656 19:1.97925 20:3 21:-3 22:-2.37098 23:-0.465117 24:3 25:-2.95494 26:-2.64706 27:-2.64706 28:-1.28373 29:-1.40903 30:-2.74513 31:1.31999 32:-1.93981 33:-2.92194 34:-3 35:-2.84456 36:-2.3116 37:-2.76816 38:-2.21 39:-1.49986 40:-0.962075 41:1.29455 42:-2.08739 43:-2.51473 44:-2.95843 45:1.1444 46:-0.272727 47:-3 48:-3 49:-2.5473 50:-2.9036 51:-2.15917 52:-2.94101 53:-1.03708 54:-2.89945 55:2.26014 56:-2.17842 57:-3 58:-1.73958 59:3 60:-2.90335 61:-2.89935 62:-2.94084 63:-3 64:-1.13791 65:-3 66:3 67:-2.21082 68:-2.76826 69:-2.23582 70:-2.77412 71:-2.93208 72:-0.6 73:-2.92499 74:-2.94013 75:-2.94822 76:-3 77:-2.92682 78:-3 79:-1.06678 80:-2.94688 81:0.086053 82:-0.529412 83:-0.333333 84:0.272727 85:-2.47956 86:1.31156 87:2.33333 88:-0.0120126 89:2.84594 90:1.34624 91:-2.76758 92:-2.29368 93:-3 94:-0.3939 95:-2.43901 
0.5706089594625946 0.7125774428475249 0.3646514728511793 0.6648445462410687 0 1:-2.19401 2:-1.03609 3:-0.204303 4:3 5:-0.562207 6:-0.150115 7:-2.13199 8:-1.09091 9:-2 10:-0.401601 11:1.08 12:-1.02607 13:1.89135 14:-2.09551 15:-1.57447 16:-0.0430461 17:-0.457559 18:-0.267186 19:-2.71154 20:-3 21:-1.62428 22:-1.52817 23:-0.152512 24:-3 25:-1.82103 26:-1.23529 27:3 28:-1.50877 29:-1.62846 30:1.33286 31:-1.87235 32:-1.59074 33:-2.26083 34:-1.65239 35:3 36:-1.7584 37:2.89467 38:-1.30919 39:1.358 40:-0.501081 41:-0.0408737 42:-3 43:2.765 44:-1.50872 45:-1.07251 46:-0.272727 47:3 48:-0.963899 49:-2.25352 50:-2.43436 51:-3 52:-2.45753 53:0.44797 54:-2.25071 55:1.81241 56:-3 57:-1.95358 58:-0.669604 59:1.0109 60:-2.42139 61:-2.23337 62:-2.44736 63:-1.92526 64:2.96063 65:-1.67274 66:1.01079 67:-3 68:-2.93654 69:-3 70:-2.93857 71:-2.97535 72:-1.2 73:-3 74:-2.97894 75:-2.34832 76:-3 77:-3 78:-1.92524 79:1.47185 80:-2.33679 81:0.086053 82:-0.176471 83:0.333333 84:-2.18182 85:-1.91857 86:0.424346 87:-3 88:-0.140053 89:0.53664 90:-1.24853 91:-1.69899 92:-1.04672 93:-1.64453 94:-0.10068 95:-1.35396 
3.65291853725642 0 3.518517928094883 3.386226884613933 0.5821768739857244 1:-2.16704 2:-1.72446 3:-0.750808 4:-3 5:-2.13859 6:-0.247449 7:1.29152 8:-3 9:-1.5 10:-0.401601 11:0.12 12:-0.0220323 13:1.09691 14:-1.24589 15:-0.787234 16:2.25559 17:0.935909 18:-1.23679 19:0.0998226 20:3 21:-1.04262 22:-2.3991 23:-1.18907 24:3 25:-1.52065 26:-0.882353 27:-0.882353 28:0.318628 29:0.212619 30:-1.47075 31:1.31999 32:-0.295805 33:-1.02703 34:-1.34219 35:-2.06735 36:-2.58047 37:-1.37646 38:-1.84181 39:0.161294 40:-1.58575 41:0.688966 42:-1.47897 43:-1.40394 44:-0.885227 45:-1.77967 46:-1.90909 47:-0.75 48:-2.30148 49:-0.480743 50:-1.1382 51:-1.01538 52:-1.37789 53:-0.78102 54:-1.1173 55:0.722055 56:-0.880201 57:-1.93099 58:1.04444 59:0.976826 60:-1.15458 61:-1.11445 62:-1.42125 63:-1.97938 64:-1.84064 65:-1.64616 66:0.976706 67:-0.462641 68:-1.52605 69:-0.410406 70:-1.39394 71:-0.943322 72:0.9 73:-1.02701 74:-0.965707 75:-1.65416 76:-3 77:-1.08837 78:-1.80663 79:-1.47871 80:-1.75592 81:0.547063 82:1.58824 83:-2.33333 84:1.90909 85:-2.70404 86:0.670477 87:1 88:1.74866 89:2.48631 90:-0.57341 91:-2.22093 92:-0.613864 93:-1.70817 94:-1.83712 95:-0.949041 
0 0 1.751709504995829 0 0.4549218236142139 1:-2.68713 2:-2.03975 3:-1.40871 4:-3 5:-0.186133 6:0.691636 7:-0.0616459 9:-2 10:-0.992146 11:-2.76 12:-1.79703 13:2.38846 14:-1.96854 15:-1.40426 16:-0.426548 17:-0.0489044 18:0.723231 19:0.513073 20:3 21:-1.10929 22:-0.341475 23:-0.383753 24:3 25:-1.7985 26:-0.808535 27:-0.529412 28:-1.38118 29:-1.50449 30:-1.83978 31:2.13788 32:-1.50022 33:-2.19313 34:-1.75747 35:-1.91191 36:-1.85959 37:-1.2026 38:-1.45123 39:1.05512 40:-0.445565 41:0.139299 42:-1.33789 43:-0.365227 44:-1.91984 45:-0.00489211 46:-0.818182 47:-0.75 48:-2.27729 49:-2.47154 50:-1.34109 51:-1.46805 52:-1.53499 53:0.141711 54:-1.33143 55:2.06725 56:-1.49888 57:-1.99122 58:-1.11753 59:1.06828 60:-1.31443 61:-1.30285 62:-1.51357 63:-1.96392 64:-1.90005 65:-1.71721 66:1.06824 67:-0.461369 68:-1.92585 69:-0.545356 70:-1.94736 71:-0.851608 72:1.2 73:-1.1565 74:-0.792641 75:-2.00733 76:-2.06425 77:-1.10444 78:-2.08346 79:-1.49973 80:-1.99006 81:1.46908 82:-0.176471 83:-1 84:-2.18182 85:-1.86369 86:0.35856 87:0.333333 88:-1.05713 89:-2.13166 90:-1.47941 91:-1.7747 92:-1.73586 93:-1.68994 94:-0.2705 95:-1.96856 
0 0 0 0 1.250339706609879 1:-1.937 2:-1.61611 3:-0.787424 4:1 5:-1.18738 6:-0.367675 7:-2.31069 8:-1.90909 9:-3 10:-0.229297 11:1.32 12:-0.685695 13:1.64214 14:-1.80129 15:-1.3617 16:0.893565 17:-0.0870487 18:-0.62952 19:-2.17994 20:-1 21:-0.39249 22:0.0184123 23:0.383705 24:-1 25:-0.994994 26:0.0860759 27:3 28:-1.08527 29:-1.21287 30:1.52792 31:-1.01382 32:-0.905518 33:-1.43628 34:-0.66325 35:1.4096 36:-1.78847 37:1.91958 38:-0.534549 39:1.45287 40:0.367576 41:-0.877466 42:-2.20194 43:2.36088 44:-0.783005 45:-1.42899 46:0.272727 47:3 48:-0.433204 49:-1.64257 50:-1.95119 51:-2.304 52:-1.85832 53:0.731676 54:-1.83594 55:2.42809 56:-2.24258 57:-1.20075 58:-0.539648 59:0.00959593 60:-1.92523 61:-1.7885 62:-1.86011 63:-1.19845 64:2.21176 65:-0.823956 66:0.00961237 67:-2.63837 68:-2.21835 69:-2.59832 70:-2.15079 71:-2.6959 72:-2.4 73:-2.50695 74:-2.70222 75:-1.58901 76:-2.80917 77:-2.53847 78:-1.28529 79:2.15282 80:-1.63851 81:0.161931 82:-0.176471 83:-1 84:3 85:-1.75493 86:-0.520389 87:-3 88:0.14978 89:0.889925 90:-2.11929 91:-1.20067 92:-0.923184 93:-0.827674 94:-0.629362 95:-1.23988 
0.052005781310818 0 0 0 0 1:-2.81336 2:-1.31499 3:-0.425727 4:-3 5:-0.611058 6:0.729025 7:1.38379 9:-1.5 10:-0.401601 11:0.6 12:-1.70535 13:2.33395 14:-2.05335 15:-1.40426 16:0.00757888 17:0.511371 18:0.590813 19:1.04976 20:3 21:-2.10784 22:-2.01858 23:-1.03173 24:3 25:-2.36921 26:-1.94118 27:-1.94118 28:-0.824236 29:-0.952011 30:1.33286 31:-2.40441 32:-1.3753 33:-2.25351 34:-2.34247 35:-2.53368 36:-2.36201 37:-1.97088 38:-2.16321 39:-0.797561 40:-1.37824 41:1.21214 42:-1.84069 43:-1.37751 44:-2.22255 45:-0.0906814 46:-1.36364 47:-2.25 48:-2.72527 49:-1.90235 50:-2.57234 51:-1.63074 52:-2.54794 53:-1.08029 54:-2.6109 55:1.22742 56:-1.6586 57:-2.56336 58:-0.843408 59:2.05745 60:-2.56485 61:-2.60333 62:-2.54115 63:-2.55155 64:-1.00202 65:-2.4213 66:2.05738 67:-1.45948 68:-2.19973 69:-1.5098 70:-2.21543 71:-2.30769 72:0.3 73:-2.26301 74:-2.29395 75:-2.4221 76:3 77:-2.24408 78:-2.5464 79:-1.00289 80:-2.41243 81:0.086053 82:-0.882353 83:-1 84:-1.63636 85:-2.48633 86:0.946723 87:1.66667 88:-0.997249 89:-2.477 90:-0.254333 91:-2.45979 92:-1.72908 93:-2.409 94:-0.909587 95:-1.96269 
0.8367200137785289 0.6409778238715074 0 0.6018146930768503 0 1:-1.8812 2:-2.4069 3:-1.29261 4:-2 5:-1.09895 6:-0.513032 7:-0.0958075 8:-2.72727 9:-2.5 10:0.188945 11:2.28 12:-0.337939 13:1.36674 14:-0.420248 15:-0.191489 16:0.699387 17:-0.656237 18:-0.962438 19:-1.47283 20:2.5 21:1.96636 22:2.37659 23:-0.0554199 24:3 25:0.79224 26:2.64706 27:3 28:-1.5369 29:-1.65562 30:1.33286 31:1.05396 32:-0.771148 33:-0.948971 34:0.925121 35:-0.196091 36:-1.0264 37:0.74367 38:0.0424895 39:1.3933 40:0.500103 41:-1.37584 42:-0.141123 43:1.55398 44:0.229755 45:-1.68735 46:-0.818182 47:3 48:0.601085 49:-2.29503 50:-0.896143 51:0.685783 52:-0.639531 53:1.03159 54:-0.900768 55:1.90937 56:0.669392 57:0.176913 58:0.173636 59:-1.3168 60:-0.890881 61:-0.889123 62:-0.638457 63:0.224227 64:0.90635 65:0.569753 66:-1.3169 67:-0.785956 68:0.496639 69:-0.820124 70:0.483336 71:-1.59162 72:-1.5 73:-0.912968 74:-1.58766 75:0.422213 76:-3 77:-0.894757 78:-0.149049 79:2.71308 80:0.430536 81:0.086053 82:-0.176471 83:-1.66667 84:3 85:-0.687671 86:-2.66516 87:-3 88:2.0306 89:1.35458 90:-2.64136 91:0.158525 92:-0.56565 93:0.609015 94:-0.0619237 95:-0.903032 
0.4350709072033163 0 0.05348137014512007 0.4924106056915818 1.082031092375657 1:-1.97433 2:-2.6779 3:-1.50775 4:-3 5:-1.15683 6:-0.297991 7:-0.204029 8:-3 9:-3 10:-3 11:2.28 12:-0.447415 13:1.4558 14:-0.661348 15:-0.404255 16:0.850173 17:-0.532087 18:-0.861346 19:-1.14328 20:3 21:1.53613 22:1.80624 23:-0.113919 24:3 25:0.334168 26:2.29412 27:2.29412 28:-1.45807 29:-1.57936 30:3 31:-0.509058 32:-0.838395 33:-1.11242 34:0.491971 35:-0.668393 36:-1.21809 37:0.433419 38:-0.208052 39:1.18629 40:0.306086 41:-1.17035 42:-0.24388 43:1.17034 44:-0.047566 45:-1.50897 46:-0.818182 47:2.25 48:-0.0764221 49:-2.30029 50:-0.993992 51:0.2516 52:-0.765048 53:0.384168 54:-1.03357 55:1.97227 56:0.234592 57:-0.207026 58:0.177102 59:-0.995822 60:-1.049 61:-1.09461 62:-0.807499 63:-0.185567 64:0.488664 65:0.198724 66:-0.995875 67:-0.898484 68:0.0114335 69:-0.92244 70:0.00286853 71:-1.69701 72:-1.2 73:-1.06948 74:-1.72958 75:-0.0500903 76:1.229 77:-1.07838 78:-0.466261 79:1.50645 80:-0.0530327 81:-2.12679 82:-0.176471 83:-1 84:2.72727 85:-0.966748 86:-2.09973 87:-2.33333 88:2.52365 89:1.53273 90:-2.66168 91:-0.213003 92:-0.696646 93:0.213723 94:-0.169301 95:-1.0276 
0.2746159385413922 0 0.597971577672667 0.0969319198941513 1.573171858750411 1:-1.90238 2:-2.06548 3:-1.02155 4:-3 5:-1.36278 6:-0.400978 7:0.872439 8:-3 9:-1.5 10:-0.401601 11:2.52 12:-0.475407 13:1.47822 14:-1.29657 15:-0.659574 16:1.24071 17:0.535609 18:-0.834974 19:-0.675544 20:3 21:0.556117 22:0.567694 23:0.0696121 24:3 25:-0.386733 26:0.882353 27:0.882353 28:-0.31302 29:-0.43453 30:-0.196383 31:1.31999 32:-0.121123 33:-0.59707 34:-0.200328 35:-1.29015 36:-2.06982 37:-0.350162 38:-0.474971 39:0.498246 40:0.19883 41:-0.933204 42:-0.613078 43:0.503032 44:-0.427575 45:-1.53208 46:-1.36364 47:0.75 48:-1.15401 49:-0.907694 50:-1.33857 51:0.164345 52:-1.12525 53:-0.958543 54:-1.461 55:2.29851 56:0.274194 57:-0.839398 58:0.129089 59:-0.389908 60:-1.34183 61:-1.44685 62:-1.15452 63:-0.858247 64:-0.63048 65:-0.440651 66:-0.389964 67:-0.675437 68:-0.2658 69:-0.627324 70:-0.151457 71:-1.64926 72:-0.3 73:-1.06697 74:-1.67344 75:-0.450812 76:-3 77:-1.11912 78:-0.969476 79:-0.425391 80:-0.540211 81:0.086053 82:0.882353 83:-1.66667 84:2.18182 85:-1.95398 86:-0.771249 87:-1 88:3 89:1.80978 90:-1.97056 91:-1.15874 92:-0.803719 93:-0.46663 94:-1.37654 95:-1.12843 
0.02571790781898399 0 0 0.3658183105309547 0 1:-1.879 2:-2.14617 3:-1.08561 4:-3 5:-1.33175 6:-0.420344 7:0.342622 8:-3 9:-1.5 10:-0.401601 11:2.52 12:-0.402129 13:1.41922 14:-1.07363 15:-0.680851 16:1.2314 17:0.0760272 18:-0.903561 19:-0.809967 20:3 21:0.826488 22:0.880769 23:-0.0134526 24:3 25:-0.191489 26:1.23529 27:1.23529 28:-0.823231 29:-0.951001 30:0.0584912 31:1.31999 32:-0.440838 33:-0.863585 34:0.0317525 35:-1.13471 36:-1.77698 37:-0.166138 38:-0.398931 39:0.835644 40:0.191362 41:-1.00281 42:-0.466806 43:0.662127 44:-0.266539 45:-1.56767 46:-1.36364 47:1.5 48:-0.876626 49:-1.5012 50:-1.09734 51:0.102825 52:-0.904513 53:-0.376959 54:-1.19229 55:2.11182 56:0.15546 57:-0.636136 58:0.16911 59:-0.596514 60:-1.12324 61:-1.20509 62:-0.948096 63:-0.657216 64:-0.244685 65:-0.231013 66:-0.59652 67:-0.679044 68:-0.257971 69:-0.672319 70:-0.190104 71:-1.55633 72:-0.6 73:-0.985298 74:-1.57875 75:-0.371954 76:-3 77:-1.02007 78:-0.795288 79:0.126842 80:-0.438959 81:0.547063 82:1.23529 83:-1.66667 84:2.45455 85:-1.63824 86:-1.2092 87:-1 88:2.75424 89:1.74664 90:-2.27148 91:-0.838473 92:-0.735967 93:-0.258878 94:-0.910606 95:-1.06473 
0 0.2668680504843552 0 0 0 1:-1.91347 2:-2.4453 3:-1.32309 4:-2 5:-0.962786 6:-0.477098 7:-1.01832 8:-2.72727 9:-3 10:-0.401601 11:2.04 12:-0.461651 13:1.46722 14:-0.803692 15:-0.553191 16:0.523537 17:-0.777482 18:-0.847967 19:-1.48177 20:2 21:1.50201 22:2.01145 23:0.192256 24:2 25:0.409262 26:2.29412 27:3 28:-1.67917 29:-1.79184 30:1.33286 31:0.787936 32:-1.01447 33:-1.22281 34:0.591518 35:-0.0217609 36:-0.971007 37:0.787205 38:0.0468913 39:1.33628 40:0.672469 41:-1.37934 42:-0.465003 43:1.57713 44:-0.00381785 45:-1.58668 46:-0.818182 47:3 48:0.311086 49:-2.44704 50:-0.971406 51:-0.203412 52:-0.756873 53:0.794821 54:-0.965644 55:2.20372 56:-0.220606 57:-0.0790464 58:-0.0421271 59:-1.10627 60:-0.976339 61:-0.963959 62:-0.763613 63:-0.0309278 64:0.86063 65:0.323747 66:-1.10636 67:-1.25378 68:-0.275839 69:-1.27074 70:-0.290772 71:-1.81551 72:-1.5 73:-1.25495 74:-1.82101 75:-0.11998 76:-3 77:-1.24761 78:-0.361616 79:2.2533 80:-0.106667 81:0.086053 82:-0.176471 83:-1 84:3 85:-0.688154 86:-2.1316 87:-3 88:1.88575 89:1.34322 90:-2.50214 91:0.0117099 92:-0.639802 93:0.364475 94:0.141464 95:-0.973712 
2.182411957396709 0 0.9895339854319697 1.019044676676677 2.015236715642574 1:-2.70287 2:-2.56447 3:-1.87435 4:-3 5:-1.40199 6:0.574992 7:-0.315625 8:-0.272727 9:-2 10:-1.79382 11:-2.76 12:-1.36977 13:2.12402 14:-1.13643 15:-0.829787 16:0.803907 17:0.32616 18:0.141837 19:0.0326425 20:3 21:-0.140693 22:0.492485 23:-0.903874 24:3 25:-1.1602 26:0.143156 27:0.529412 28:-0.931574 29:-1.05962 30:-1.50631 31:2.69903 32:-0.921084 33:-1.53202 34:-1.0352 35:-1.44559 36:-1.96943 37:-0.584732 38:-1.45402 39:1.41501 40:-0.769768 41:0.142927 42:-1.03267 43:0.120298 44:-1.31583 45:-0.517501 46:-0.818182 47:0.75 48:-1.80299 49:-1.96474 50:-0.225123 51:-1.08004 52:-0.703492 53:0.588762 54:-0.0447044 55:1.35143 56:-1.11805 57:-1.55458 58:-0.658085 59:0.447875 60:-0.179502 61:0.00625445 62:-0.666576 63:-1.50773 64:-2.61872 65:-1.21375 66:0.447915 67:0.496794 68:-1.4897 69:0.381112 70:-1.5185 71:0.49741 72:1.8 73:-0.157098 74:0.59826 75:-1.56041 76:-1.51673 77:-0.0759371 78:-1.70558 79:-2.1834 80:-1.53606 81:2.74278 82:0.176471 83:-1.66667 84:-2.45455 85:-1.86759 86:-0.369608 87:-0.333333 88:-1.41009 89:-1.9554 90:-2.45242 91:-1.51263 92:-1.55282 93:-1.16715 94:-0.798173 95:-1.80892 
0 0 1.512151386429163 0 4.583069670462406 1:-2.78248 2:-1.77019 3:-0.801721 4:-3 5:-0.435734 6:0.971772 7:1.0703 8:-0.272727 9:-2 10:-0.56618 11:-2.28 12:-1.91159 13:2.45494 14:-2.10908 15:-1.44681 16:-0.173126 17:0.394907 18:0.895188 19:0.968868 20:3 21:-1.83639 22:-1.34609 23:-0.809034 24:3 25:-2.27159 26:-1.59627 27:-1.58824 28:-1.0282 29:-1.15608 30:-2.11053 31:1.57952 32:-1.45692 33:-2.2962 34:-2.23898 35:-2.37823 36:-2.22749 37:-1.64618 38:-1.97504 39:0.0253327 40:-1.04874 41:0.897202 42:-1.72887 43:-0.859933 44:-2.25069 45:0.25361 46:-1.36364 47:-1.5 48:-2.60794 49:-2.17309 50:-1.97735 51:-1.58741 52:-2.12346 53:-0.591926 54:-1.96974 55:1.6225 56:-1.61448 57:-2.45044 58:-1.13111 59:1.84301 60:-1.96045 61:-1.95128 62:-2.11058 63:-2.43557 64:-1.36002 65:-2.27785 66:1.84298 67:-0.924107 68:-2.14234 69:-0.991482 70:-2.15832 71:-1.53448 72:0.6 73:-1.7312 74:-1.49695 75:-2.33833 76:-2.6537 77:-1.69691 78:-2.4836 79:-1.15278 80:-2.32751 81:1.0383 82:0.176471 83:-1.66667 84:-1.63636 85:-2.3031 86:0.779072 87:1.66667 88:-0.99589 89:-2.30341 90:-0.784832 91:-2.30318 92:-1.90558 93:-2.2625 94:-0.693375 95:-2.11426 
0 0.2322113359308308 0 0 0 1:-2.18632 2:-1.44654 3:-0.530162 4:-3 5:-1.04223 6:-0.528592 7:2.33528 8:-3 9:-1.5 10:-0.401601 11:0.36 12:-0.393134 13:1.41193 14:-1.97366 15:-1.3617 16:0.462312 17:-0.675309 18:-0.911875 19:-0.0412335 20:3 21:-1.14688 22:-2.04499 23:-0.16915 24:3 25:-1.62578 26:-0.882353 27:-0.882353 28:-1.55537 29:-1.67341 30:-1.47075 31:1.31999 32:-1.57741 33:-2.21081 34:-1.42966 35:-2.06735 36:-1.67883 37:-1.40267 38:-1.23648 39:-0.862034 40:-0.634459 41:-0.129466 42:-1.43547 43:-0.962034 44:-1.0978 45:-1.63489 46:-0.272727 47:-0.75 48:-2.26106 49:-2.47848 50:-1.11323 51:-0.3263 52:-1.31473 53:-1.96187 54:-1.11639 55:2.04009 56:-0.379704 57:-1.83312 58:0.512819 59:0.8323 60:-1.08403 61:-1.08512 62:-1.29105 63:-1.80155 64:-1.71025 65:-1.53184 66:0.832244 67:0.0206566 68:-0.913442 69:-0.0790775 70:-0.953593 71:-0.810223 72:0.6 73:-0.799956 74:-0.750689 75:-1.37139 76:-3 77:-0.738393 78:-1.73748 79:-1.41682 80:-1.3449 81:0.547063 82:1.23529 83:-0.333333 84:1.90909 85:-1.91578 86:0.801762 87:1 88:2.04135 89:2.33866 90:-0.16289 91:-1.57151 92:-0.564284 93:-1.50064 94:-0.0362289 95:-0.901726 
0 0 0.5115086861686488 0 0 1:-1.99472 2:-2.72921 3:-1.54849 4:-3 5:-1.58004 6:0.0373888 7:0.0218623 8:-3 9:-3 10:-0.401601 11:2.28 12:-0.635375 13:1.60362 14:-0.811577 15:-0.297872 16:1.41378 17:0.0983115 18:-0.679886 19:-0.92525 20:3 21:1.27348 22:1.79171 23:-0.174487 24:3 25:0.116395 26:1.94118 27:1.94118 28:-0.911449 29:-1.03948 30:0.56824 31:1.31999 32:-0.433061 33:-0.810534 34:0.2972 35:-0.823833 36:-1.67427 37:0.390543 38:-0.390578 39:1.0324 40:0.24022 41:-1.01034 42:-0.350158 43:1.03417 44:-0.24424 45:-1.31896 46:-0.818182 47:2.25 48:-0.383483 49:-1.69279 50:-0.955201 51:0.116062 52:-0.801758 53:0.0178474 54:-0.977418 55:2.01801 56:0.120904 57:-0.462986 58:-0.115849 59:-0.763366 60:-1.02428 61:-1.04696 62:-0.863575 63:-0.463918 64:0.323142 65:-0.0555866 66:-0.763355 67:-0.831873 68:-0.186273 69:-0.824535 70:-0.170629 71:-1.60595 72:-0.9 73:-1.03855 74:-1.65963 75:-0.277527 76:-3 77:-1.07674 78:-0.723818 79:1.00081 80:-0.302639 81:0.547063 82:0.176471 83:-1 84:2.72727 85:-1.42376 86:-2.02163 87:-1.66667 88:2.96844 89:1.59214 90:-3 91:-0.65126 92:-0.98392 93:-0.0627664 94:-0.81946 95:-1.29611 
0.34232982764055 0 2.044626822731845 0.4175919855814165 3.851165489270158 1:-2.89276 2:-1.34708 3:-0.507536 4:-3 5:0.650976 6:1.52079 7:1.0033 8:0.272727 9:-1.5 10:-0.331437 11:2.52 12:-2.49836 13:2.76758 14:-2.80186 15:-1.91489 16:-1.24328 17:0.213581 18:1.90809 19:1.91517 20:3 21:-2.81647 22:-1.79336 23:-0.430439 24:3 25:-2.83479 26:-2.31974 27:-2.29412 28:-1.38654 29:-1.50972 30:1.5016 31:-2.76569 32:-1.93192 33:-2.86156 34:-2.82835 35:-2.68912 36:-2.19196 37:-2.59468 38:-2.08016 39:-1.49708 40:-0.806378 41:1.06998 42:-1.91016 43:-1.96818 44:-2.86229 45:1.25671 46:0.272727 47:-2.25 48:-2.93609 49:-2.55942 50:-2.54192 51:-2.05889 52:-2.639 53:-1.20061 54:-2.54338 55:2.12369 56:-2.0775 57:-2.84944 58:-2.03475 59:2.65239 60:-2.53399 61:-2.53474 62:-2.63347 63:-2.84536 64:-1.22935 65:-2.79586 66:2.65241 67:-1.98464 68:-2.64824 69:-2.01692 70:-2.6552 71:-2.6096 72:-0.6 73:-2.64729 74:-2.60533 75:-2.81724 76:2.61929 77:-2.63971 78:-2.88078 79:-1.09351 80:-2.81383 81:1.0948 82:0.176471 83:-0.333333 84:0.818182 85:-2.31963 86:1.33722 87:2.33333 88:0.149735 89:2.67048 90:1.4232 91:-2.59272 92:-2.32935 93:-2.79152 94:-0.26356 95:-2.46827 
0.5736517387360738 0 2.468876289868454 0 4.863142151211275 1:-2.41583 2:-2.37953 3:-1.30862 4:-3 5:-0.735537 6:0.629004 7:1.03359 8:2.18182 9:-1.5 10:0.188947 11:1.08 12:-1.67035 13:2.31282 14:-2.35726 15:-1.21277 16:0.939138 17:1.66488 18:0.541425 19:1.07774 20:3 21:-2.08528 22:-1.58596 23:-0.416053 24:3 25:-2.15144 26:-1.25882 27:-1.23529 28:0.402932 29:0.299439 30:-1.90128 31:1.63243 32:-0.572961 33:-1.43628 34:-2.1513 35:-2.22279 36:-2.74692 37:-2.09669 38:-1.75609 39:-2.31151 40:-0.748343 41:0.560881 42:-1.63505 43:-1.53398 44:-2.09153 45:-0.143573 46:-0.272727 47:-1.5 48:-2.70429 49:-0.392957 50:-2.24947 51:-1.66684 52:-2.26308 53:-2.3593 54:-2.30592 55:1.89998 56:-1.50886 57:-2.4128 58:-1.23642 59:1.77388 60:-2.30924 61:-2.34255 62:-2.34838 63:-2.49742 64:-1.15315 65:-2.23055 66:1.77381 67:-1.28469 68:-2.21133 69:-1.16911 70:-2.04341 71:-1.91205 73:-1.93599 74:-2.00179 75:-2.26608 76:-1.229 77:-2.06497 78:-2.42078 79:-1.06119 80:-2.40538 81:-1.75799 82:-0.882353 83:-1 84:-1.36364 85:-2.77376 86:1.46535 87:1 88:-0.223309 89:-2.52855 90:1.73925 91:-2.67001 92:-1.87561 93:-2.34033 94:-1.89081 95:-2.08869 
0.1983724602897002 0 0 0 0 1:-2.41583 2:-1.70115 3:-1.83701 4:-3 5:0.559238 6:0.229146 7:1.06666 8:0.545455 9:-1.5 10:0.311594 11:2.28 12:-1.72027 13:2.3429 14:-2.46552 15:-1.65957 16:-1.1562 17:-0.183766 18:0.61206 19:0.571536 20:3 21:-2.19813 22:-1.9793 23:-0.255425 24:3 25:-2.30914 26:-1.57315 27:-0.882353 28:-1.41705 29:-1.53947 30:1.55981 31:-2.24628 32:-1.73209 33:-2.53467 34:-2.33815 35:-2.06735 36:-1.99687 37:-1.67866 38:-1.67917 39:-1.14119 40:-0.694531 41:0.449702 42:-1.84535 43:-0.805105 44:-2.22636 45:-0.300971 46:0.272727 47:-0.75 48:-2.60102 49:-2.36573 50:-2.0175 51:-1.63973 52:-2.12971 53:-1.485 54:-2.02757 55:2.02256 56:-1.66434 57:-2.4128 58:-1.00715 59:1.77388 60:-2.00229 61:-2.01161 62:-2.11741 63:-2.39691 64:-1.38274 65:-2.23055 66:1.77381 67:-1.54829 68:-2.12828 69:-1.59355 70:-2.14349 71:-2.11531 72:-0.9 73:-2.09924 74:-2.09705 75:-2.29417 76:0.475001 77:-2.07666 78:-2.38395 79:-1.16485 80:-2.28316 81:1.85562 82:1.23529 83:1 84:1.36364 85:-2.17512 86:1.39665 87:1 88:0.381231 89:2.28527 90:1.49108 91:-2.16059 92:-1.50462 93:-2.2142 94:-0.223718 95:-1.76644 
0.579599805098496 0.2672472482119748 1.455753408554599 0.3998875374240911 0.9824573467399018 1:-1.93964 2:-2.03068 3:-1.0862 5:-0.924318 6:-0.517174 7:-1.92966 8:-2.18182 9:-3 10:-0.0521263 11:1.56 12:-0.442587 13:1.45192 14:-1.46921 15:-1.14894 16:0.633803 17:-0.273581 18:-0.86588 19:-1.87136 21:0.10602 22:0.23759 23:0.272334 25:-0.596996 26:0.804352 27:3 28:-1.17102 29:-1.29789 30:1.77532 31:-0.668914 32:-0.839067 33:-1.29051 34:-0.342985 35:0.841598 36:-1.6362 37:1.33405 38:-0.386968 39:1.47169 40:0.315488 41:-1.01361 42:-1.68808 43:2.03565 44:-0.489757 45:-1.59036 46:0.272727 47:3 48:-0.326608 49:-1.72606 50:-1.67258 51:-1.74286 52:-1.52457 53:0.862473 54:-1.60804 55:2.22172 56:-1.68492 57:-0.877039 58:-0.119617 59:-0.350349 60:-1.67127 61:-1.59667 62:-1.53779 63:-0.873711 64:1.64055 65:-0.479929 66:-0.350354 67:-2.24539 68:-1.69346 69:-2.22198 70:-1.63404 71:-2.456 72:-2.1 73:-2.14184 74:-2.46792 75:-1.17729 76:-2.5994 77:-2.16504 78:-0.970438 79:2.09859 80:-1.2213 81:0.260354 82:-0.176471 83:-1.66667 84:2.72727 85:-1.58599 86:-0.926584 87:-3 88:0.555509 89:1.09829 90:-2.25116 91:-0.89733 92:-0.646144 93:-0.482778 94:-0.530153 95:-0.97974 
0 0 1.923408012777243 0 2.790415625245835 1:-2.67561 2:-0.264938 3:0.407925 4:-3 5:0.463321 6:1.35926 7:1.24735 8:0.272727 9:-1.31481 10:-0.401601 11:2.52 12:-2.37373 13:2.70496 14:-2.7923 15:-1.87234 16:-1.06446 17:0.14517 18:1.67223 19:1.94953 20:3 21:-2.64625 22:-1.91981 23:-0.407749 24:3 25:-2.79725 26:-2.64706 27:-2.64706 28:-1.4037 29:-1.52646 30:-2.74513 31:1.31999 32:-1.93266 33:-2.85424 34:-2.78085 35:-2.84456 36:-2.17254 37:-2.78167 38:-2.05294 39:-1.81955 40:-0.81416 41:1.02449 42:-1.86885 43:-2.9862 44:-2.77925 45:1.00232 46:-1.90909 47:-3 48:-2.96678 49:-2.66483 50:-2.84615 51:-1.93578 52:-2.82383 53:-1.40255 54:-2.87674 55:2.29447 56:-1.95685 57:-2.82685 58:-1.68219 59:2.60245 60:-2.84287 61:-2.87353 62:-2.82088 63:-2.82216 64:-1.00146 65:-2.76567 66:2.60241 67:-2.01359 68:-2.54635 69:-2.04489 70:-2.55524 71:-2.82075 72:-0.3 73:-2.75682 74:-2.82299 75:-2.75547 76:-3 77:-2.75244 78:-2.84549 79:-1.01843 80:-2.75108 81:0.086053 82:-0.882353 83:-1 84:-0.545455 85:-2.31663 86:1.33469 87:2.33333 88:-0.297994 89:2.99619 90:1.40137 91:-2.56597 92:-2.22547 93:-2.76069 94:-0.241216 95:-2.38278 
0 1.380633575292448 0 1.445735354307103 0 1:-1.64901 2:-1.96201 3:-1.72951 4:-3 5:-0.128903 6:-0.821097 7:-0.454907 8:1.36364 9:-1.5 10:0.0692379 11:-3 12:-0.508798 13:1.50477 14:-1.08838 15:-0.680851 16:-0.445272 17:-0.799916 18:-0.803217 19:-0.774908 20:3 21:0.478494 22:0.658446 23:0.0613946 24:3 25:-0.138924 26:1.18265 27:1.94118 28:-1.64706 29:-1.76127 30:-0.630406 31:2.27055 32:-1.15814 33:-1.47897 34:-0.182966 35:-0.823833 36:-1.16111 37:-0.555364 38:-0.324865 39:0.0339068 40:0.212499 41:-1.069 42:-0.363214 43:0.417991 44:-0.434435 45:-1.63432 46:1.36364 47:2.25 48:-1.05048 49:-2.25827 50:-0.220783 51:-0.221679 52:-0.26923 53:-2.09852 54:-0.26146 55:1.82478 56:-0.275706 57:-0.583438 58:-0.049746 59:-0.648215 60:-0.185154 61:-0.221628 62:-0.239421 63:-0.525773 64:-0.972672 65:-0.177322 66:-0.648172 67:0.939361 68:-0.450596 69:0.811625 70:-0.497292 71:0.516244 72:0.9 73:0.3578 74:0.612218 75:-0.52764 76:0.630821 77:0.447838 78:-0.714308 79:-0.779107 80:-0.492078 81:-2.34982 82:-1.94118 83:0.333333 84:-3 85:-1.08023 86:0.372378 87:-1.66667 88:-2.8915 89:-1.84234 90:-0.189047 91:-0.419318 92:-0.469476 93:-0.125145 94:0.094454 95:-0.810732 
1.622466279686035 0 1.844065058749797 1.395084478611962 5.46155966499277 1:-2.52449 2:-2.15075 3:-1.08925 4:-3 5:-0.440743 6:0.199705 7:0.680212 8:2.18182 9:-2 10:-0.401601 11:1.32 12:-1.49159 13:2.20215 14:-1.62981 15:-1.34043 16:0.089411 17:0.802677 18:0.298695 19:0.362731 20:3 21:-1.07155 22:-0.433577 23:-0.641532 24:3 25:-1.62578 26:-0.529412 27:-0.529412 28:-0.400193 29:-0.523259 30:1.33286 31:-1.34029 32:-0.695815 33:-1.40091 34:-1.54431 35:-1.91191 36:-2.30943 37:-1.39222 38:-1.48713 39:-1.57603 40:-0.707378 41:0.18639 42:-1.21783 43:-0.631332 44:-1.65673 45:-0.623851 46:-1.90909 47:-0.75 48:-2.26137 49:-1.11173 50:-1.99657 51:-1.04656 52:-1.88044 53:-2.7296 54:-2.1045 55:1.41198 56:-1.02552 57:-1.84065 58:-0.98487 59:0.843267 60:-2.03031 61:-2.13429 62:-1.91407 63:-1.84794 64:-0.920179 65:-1.54059 66:0.843127 67:-0.682734 68:-1.51639 69:-0.688372 70:-1.47501 71:-1.52274 73:-1.43062 74:-1.55322 75:-1.67582 76:3 77:-1.46585 78:-1.91464 79:-0.895534 80:-1.71896 81:0.086053 82:-0.176471 83:-1.66667 84:-2.18182 85:-2.28199 86:1.34215 87:0.333333 88:-1.13911 89:-2.22487 90:1.17136 91:-1.94808 92:-1.53006 93:-1.55434 94:-1.30366 95:-1.78889 
0 0 0 0 5.318555033018101 1:-2.7452 2:0.388042 3:0.926334 4:-3 5:-0.439746 6:1.34208 7:1.3998 8:-0.272727 9:-1.5 10:-0.401601 11:2.76 12:-2.12922 13:2.57623 14:-2.62512 15:-2.14894 16:-0.169064 17:0.103636 18:1.24337 19:1.75671 20:3 21:-2.28316 22:-1.58065 23:-0.407836 24:3 25:-2.73717 26:-2.64706 27:-2.64706 28:-1.40363 29:-1.5264 30:1.33286 31:-2.93647 32:-1.85043 33:-2.72616 34:-2.48683 35:-2.84456 36:-2.10746 37:-2.50883 38:-1.93586 39:-1.31958 40:-0.739885 41:0.834756 42:-1.71896 43:-2.22881 44:-2.49479 45:0.695602 46:-1.36364 47:-3 48:-2.8746 49:-2.66867 50:-2.77863 51:-1.65898 52:-2.71658 53:-1.3053 54:-2.82707 55:2.30074 56:-1.68559 57:-2.66876 58:-1.50922 59:2.26758 60:-2.77432 61:-2.82305 62:-2.71214 63:-2.65979 64:-0.906209 65:-2.55737 66:2.26747 67:-1.73336 68:-2.28806 69:-1.77408 70:-2.30186 71:-2.63728 73:-2.5332 74:-2.63386 75:-2.54513 76:3 77:-2.52228 78:-2.70079 79:-0.973625 80:-2.5374 81:0.086053 82:-0.882353 83:-1 84:-1.36364 85:-2.2246 86:1.14035 87:2.33333 88:-0.939774 89:-2.75383 90:0.494938 91:-2.41119 92:-2.13548 93:-2.54796 94:-0.241302 95:-2.30805 
0.2527759414900821 0 0 0 0 1:-2.59989 2:-1.28867 3:-0.404831 4:-3 5:-0.440093 6:0.341816 7:1.52916 8:0.272727 9:-1.5 10:-0.401601 11:0.84 12:-1.48208 13:2.19612 14:-2.25417 15:-1.51064 16:-0.168667 17:0.107626 18:0.286207 19:0.968837 20:3 21:-2.23524 22:-2.46326 23:-0.765018 24:3 25:-2.39925 26:-1.94118 27:-1.94118 28:-1.11705 29:-1.24442 30:-2.23538 31:1.31999 32:-1.5781 33:-2.44196 34:-2.35828 35:-2.53368 36:-2.22202 37:-2.1759 38:-2.02567 39:-1.02461 40:-1.23709 41:0.979451 42:-1.86213 43:-1.87619 44:-2.13707 45:-0.479498 46:-0.818182 47:-2.25 48:-2.76932 49:-2.16504 50:-2.65057 51:-1.58269 52:-2.59107 53:-1.24038 54:-2.70185 55:1.51558 56:-1.61082 57:-2.55583 58:-0.56892 59:2.04276 60:-2.6443 61:-2.69579 62:-2.58487 63:-2.54381 64:-0.85047 65:-2.41166 66:2.04274 67:-1.55152 68:-2.15212 69:-1.59835 70:-2.16851 71:-2.44421 73:-2.33745 74:-2.43484 75:-2.39029 76:-3 77:-2.3208 78:-2.49678 79:-0.940771 80:-2.38011 81:0.086053 82:-0.882353 83:-1 84:-1.36364 85:-2.41527 86:1.06087 87:1.66667 88:-0.912296 89:-2.64013 90:0.209584 91:-2.37924 92:-1.46785 93:-2.39916 94:-0.593033 95:-1.73393 
0 0 0.2518462899768759 0 0 1:-1.80626 2:-1.6469 3:-1.89973 4:-3 5:0.138499 6:-0.678651 7:-0.628281 8:1.36364 9:-1.5 10:0.098092 11:-2.76 12:-0.801371 13:1.729 14:-1.19296 15:-0.87234 16:-0.830358 17:-0.55998 18:-0.510727 19:-0.698379 20:3 21:0.00316738 22:0.328948 23:-0.151671 24:3 25:-0.536921 26:0.505279 27:1.58824 28:-1.4727 29:-1.59355 30:-0.883242 31:1.95823 32:-1.10583 33:-1.52166 34:-0.610258 35:-0.979273 36:-1.41254 37:-0.549575 38:-0.64434 39:0.0423696 40:-0.0729061 41:-0.7719 42:-0.730714 43:0.431834 44:-0.809005 45:-1.38121 46:0.272727 47:1.5 48:-1.31707 49:-2.03808 50:-0.910484 51:-0.689297 52:-0.843116 53:-1.7436 54:-1.00266 55:1.58787 56:-0.736849 57:-0.91468 58:-0.331877 59:-0.310203 60:-0.863112 61:-0.956879 62:-0.796933 63:-0.842784 64:-1.01105 65:-0.519354 66:-0.310303 67:0.219806 68:-0.908383 69:0.109113 70:-0.952987 71:-0.332431 72:0.6 73:-0.355477 74:-0.248876 75:-0.923285 76:0.753995 77:-0.269732 78:-1.02043 79:-0.866852 80:-0.879724 81:-2.78639 82:-2.29412 83:0.333333 84:-3 85:-1.36469 86:0.440626 87:-1.66667 88:-2.37582 89:-1.83698 90:-0.277031 91:-0.759629 92:-0.658682 93:-0.450507 94:-0.149661 95:-0.991641 
0 0 0 0 3.063855872895886 1:-2.55249 2:-1.63072 3:-0.67639 4:-3 5:-2.14915 6:1.47714 7:1.80705 8:-2.45455 9:-1.5 10:-0.401601 11:0.6 12:-1.65536 13:2.30372 14:-2.26481 15:-1.48936 16:1.97512 17:1.22175 18:0.520482 19:1.61657 20:3 21:-2.23429 22:-1.78651 23:-0.889914 24:3 25:-2.48936 26:-1.94118 27:-1.94118 28:-0.238095 29:-0.358137 30:-2.23538 31:1.31999 32:-1.06767 33:-1.98699 34:-2.21811 35:-2.53368 36:-2.62002 37:-2.18649 38:-2.15474 39:-2.66015 40:-1.20886 41:1.19741 42:-1.7487 43:-2.12053 44:-2.1252 45:0.254744 46:-0.818182 47:-2.25 48:-2.80161 49:-1.30768 50:-1.96463 51:-1.56527 52:-2.1988 53:-2.16146 54:-1.92995 55:1.53943 56:-1.51276 57:-2.6537 58:-1.24561 59:2.23683 60:-1.96991 61:-1.9261 62:-2.21672 63:-2.67526 64:-1.85602 65:-2.5378 66:2.23681 67:-1.16651 68:-2.19981 69:-1.16074 70:-2.14332 71:-1.78455 72:0.6 73:-1.93415 74:-1.79338 75:-2.44951 76:-3 77:-1.95967 78:-2.66652 79:-1.33122 80:-2.49305 81:0.086053 82:1.23529 83:-2.33333 84:1.09091 85:-2.68259 86:1.16497 87:1.66667 88:1.43685 89:2.7196 90:0.605837 91:-2.7007 92:-2.05334 93:-2.568 94:-1.43718 95:-2.23928 
0 0.1427692962060162 0 0 0 1:-2.85319 2:-1.23237 3:-0.417016 4:-3 5:0.782566 6:1.40907 7:1.08193 8:0.272727 9:-1.5 10:-0.331437 11:2.52 12:-2.47212 13:2.75456 14:-2.90463 15:-2 16:-1.36732 17:0.0400377 18:1.85737 19:1.84742 20:3 21:-2.81647 22:-1.79891 23:-0.216522 24:3 25:-2.83479 26:-2.31974 27:-2.29412 28:-1.51566 29:-1.63512 30:1.5016 31:-2.76569 32:-2.01292 33:-2.92194 34:-2.81125 35:-2.68912 36:-2.10091 37:-2.58767 38:-1.96137 39:-1.59496 40:-0.619627 41:0.875299 42:-1.89185 43:-1.9481 44:-2.84049 45:1.15759 46:0.272727 47:-2.25 48:-2.9277 49:-2.67801 50:-2.51488 51:-1.99882 52:-2.60758 53:-1.28888 54:-2.52136 55:2.3755 56:-2.01709 57:-2.81932 58:-2.02959 59:2.586 60:-2.50625 61:-2.512 62:-2.60145 63:-2.81443 64:-1.24304 65:-2.75563 66:2.58589 67:-1.92774 68:-2.58918 69:-1.96125 70:-2.59633 71:-2.57118 72:-0.6 73:-2.59819 74:-2.56558 75:-2.77019 76:2.61929 77:-2.5893 78:-2.84727 79:-1.09821 80:-2.76638 81:1.0948 82:0.176471 83:-0.333333 84:0.818182 85:-2.24291 86:1.32977 87:2.33333 88:0.209466 89:2.66399 90:1.37413 91:-2.52862 92:-2.27512 93:-2.75044 94:-0.0912267 95:-2.42374 
0 0.1607388583822191 0 0 0 1:-2.74979 2:-0.638075 3:0.111687 4:-3 5:0.512367 6:1.33877 7:1.51026 8:0.545455 9:-1.35185 10:-0.401601 11:2.76 12:-2.37532 13:2.70578 14:-2.98256 15:-2.19149 16:-1.11142 17:0.0167248 18:1.67517 19:1.93889 20:3 21:-2.99523 22:-2.23443 23:-0.258789 24:3 25:-3 26:-2.64706 27:-2.64706 28:-1.51326 29:-1.6328 30:-2.74513 31:1.31999 32:-2.06164 33:-3 34:-2.88614 35:-2.84456 36:-2.1446 37:-2.78308 38:-2.0552 39:-1.53538 40:-0.755012 41:1.02825 42:-1.99222 43:-2.90068 44:-2.84456 45:0.991965 46:-0.272727 47:-3 48:-2.98583 49:-2.70605 50:-2.9634 51:-1.98032 52:-2.94421 53:-1.14433 54:-2.97754 55:2.36223 56:-2.0005 57:-2.91719 58:-1.86484 59:2.80573 60:-2.96191 61:-2.97596 62:-2.94295 63:-2.91495 64:-0.985654 65:-2.88709 66:2.8056 67:-2.12293 68:-2.60613 69:-2.15055 70:-2.61389 71:-2.9448 72:-0.6 73:-2.87654 74:-2.95087 75:-2.82553 76:-3 77:-2.87566 78:-2.91918 79:-1.01857 80:-2.82225 81:0.086053 82:-1.23529 83:-1.66667 84:-0.272727 85:-2.32697 86:1.32983 87:2.33333 88:-0.28679 89:2.96896 90:1.41369 91:-2.62672 92:-2.2179 93:-2.88469 94:-0.0945302 95:-2.37652 
0 0.09411250521942217 0 0 0 1:-2.77402 2:0.0149055 3:0.630096 4:-3 5:-0.573504 6:1.13498 7:1.63217 8:-0.272727 9:-1.5 10:-0.401601 11:2.76 12:-1.9718 13:2.48914 14:-2.70393 15:-2 16:-0.0313558 17:0.0611728 18:0.988602 19:1.60975 20:3 21:-2.40405 22:-2.1338 23:-0.432517 24:3 25:-2.77472 26:-2.64706 27:-2.64706 28:-1.38496 29:-1.50819 30:1.33286 31:-2.93647 32:-1.88317 33:-2.78654 34:-2.5717 35:-2.84456 36:-2.15549 37:-2.46403 38:-2.01374 39:-1.17805 40:-0.882478 41:0.959921 42:-1.89114 43:-2.28599 44:-2.47787 45:0.40009 46:-1.90909 47:-3 48:-2.88853 49:-2.70125 50:-2.863 51:-1.7387 52:-2.81533 53:-1.12168 54:-2.89327 55:2.3543 56:-1.76371 57:-2.7591 58:-1.13926 59:2.45597 60:-2.85998 61:-2.89032 62:-2.81227 63:-2.75258 64:-0.884478 65:-2.67576 66:2.4558 67:-1.83688 68:-2.36491 69:-1.87412 70:-2.37726 71:-2.73085 72:-0.3 73:-2.63355 74:-2.73032 75:-2.6184 76:3 77:-2.62556 78:-2.7525 79:-0.973862 80:-2.61184 81:0.086053 82:-1.23529 83:-2.33333 84:-1.36364 85:-2.32522 86:1.12349 87:2.33333 88:-0.896698 89:-2.77217 90:0.386201 91:-2.50439 92:-1.99628 93:-2.66887 94:-0.265607 95:-2.19121 
0 0.8032053419847741 0 0 0.2475994078245748 1:-2.26569 2:-0.511627 3:0.212075 4:3 5:-0.703189 6:-0.0160637 7:-2.0491 8:-1.36364 9:-2 10:-0.401601 11:1.32 12:-1.08889 13:1.93526 14:-2.03132 15:-1.68085 16:0.103578 17:-0.534049 18:-0.195878 19:-2.64107 20:-3 21:-1.15644 22:-0.912583 23:-0.014806 24:-3 25:-1.68586 26:-1.23529 27:3 28:-1.6129 29:-1.72863 30:1.33286 31:-1.87235 32:-1.60568 33:-2.21814 34:-1.42948 35:3 36:-1.61463 37:2.90239 38:-1.12294 39:1.3335 40:-0.233214 41:-0.263209 42:-2.87366 43:2.70084 44:-1.40561 45:-0.96091 46:-1.90909 47:3 48:-0.753802 49:-2.48522 50:-2.30124 51:-2.81431 52:-2.31775 53:0.448233 54:-2.12006 55:2.15429 56:-2.81668 57:-1.78043 58:-0.645062 59:0.756707 60:-2.28814 61:-2.10278 62:-2.30644 63:-1.74742 64:2.69929 65:-1.47085 66:0.75656 67:-2.89159 68:-2.73235 69:-2.89351 70:-2.73634 71:-2.87849 72:-0.9 73:-2.8699 74:-2.88171 75:-2.15287 76:-3 77:-2.86818 78:-1.8017 79:1.58145 80:-2.13996 81:0.086053 82:-0.176471 83:-2.33333 84:-2.45455 85:-1.71505 86:0.213953 87:-3 88:0.00151127 89:0.605992 90:-1.53367 91:-1.503 92:-1.13812 93:-1.43835 94:0.0451493 95:-1.43759 
0 0 0 0 1.664472746791346 1:-2.70425 2:-0.420421 3:0.284485 4:-3 5:0.207048 6:1.54161 7:1.35086 8:0.272727 9:-1.5 10:-0.401601 11:2.28 12:-2.40782 13:2.72228 14:-2.83282 15:-1.78723 16:-0.81629 17:0.269972 18:1.73551 19:2.01823 20:3 21:-2.81754 22:-1.87743 23:-0.407584 24:3 25:-2.80476 26:-2.64706 27:-2.64706 28:-1.32905 29:-1.45351 30:-2.74513 31:1.31999 32:-1.89797 33:-2.83655 34:-2.79106 35:-2.84456 36:-2.2308 37:-2.73074 38:-2.08118 39:-1.64351 40:-0.804718 41:1.07169 42:-1.89765 43:-2.56595 44:-2.80026 45:1.14213 46:-0.818182 47:-3 48:-2.96512 49:-2.50954 50:-2.8535 51:-1.94155 52:-2.84707 53:-1.26114 54:-2.87404 55:2.19751 56:-1.96658 57:-2.86449 58:-1.95763 59:2.68608 60:-2.85029 61:-2.87095 62:-2.84429 63:-2.86082 64:-0.965193 65:-2.81604 66:2.686 67:-1.95706 68:-2.5666 69:-1.99283 70:-2.5777 71:-2.77044 72:-0.3 73:-2.73565 74:-2.77032 75:-2.78627 76:-3 77:-2.72936 78:-2.89042 79:-1.00895 80:-2.78134 81:0.086053 82:-0.176471 83:-1.66667 84:-0.545455 85:-2.36139 86:1.27463 87:2.33333 88:-0.442275 89:-2.86171 90:1.11083 91:-2.6224 92:-2.31206 93:-2.81214 94:-0.33717 95:-2.45411 
0 0.2337855100514642 0 0 0 1:-1.95678 2:-2.41913 3:-1.35614 4:-1 5:-1.30617 6:-0.405287 7:-0.356799 8:-2.45455 9:-2.5 10:0.995291 11:2.04 12:-0.406285 13:1.4226 14:-1.00372 15:-0.425532 16:0.74813 17:-0.896681 18:-0.899718 19:-1.60103 20:1.5 21:1.12453 22:1.52923 23:0.204698 24:2 25:0.198999 26:1.88729 27:3 28:-1.79058 29:-1.89701 30:2.21281 31:-0.23796 32:-1.21684 33:-1.45396 34:0.379687 35:0.167099 36:-0.932931 37:1.02531 38:-0.095353 39:1.35867 40:0.567102 41:-1.26471 42:-0.889752 43:1.73642 44:-0.0847869 45:-1.60071 46:-0.272727 47:3 48:0.151364 49:-2.5895 50:-1.18723 51:-0.171713 52:-1.00358 53:0.785392 54:-1.1512 55:2.24658 56:-0.225575 57:-0.335006 58:-0.059688 59:-0.88165 60:-1.15906 61:-1.12005 62:-0.976215 63:-0.262887 64:1.17897 65:0.0722961 66:-0.881576 67:-1.21572 68:-0.271583 69:-1.27112 70:-0.322305 71:-1.84614 72:-1.8 73:-1.32428 74:-1.81915 75:-0.222868 76:-2.28105 77:-1.28001 78:-0.563161 79:2.35835 80:-0.178867 81:0.469386 82:-0.176471 83:-1.66667 84:3 85:-0.725942 86:-1.90961 87:-3 88:1.54485 89:1.26276 90:-2.6539 91:-0.133551 92:-0.637728 93:0.137596 94:0.309628 95:-0.971739 
0 0 0 0 0.1546168980391273 1:-2.04397 2:-2.37495 3:-1.26724 4:-3 5:-1.55932 6:0.0301125 7:0.659951 8:-3 9:-1.5 10:-0.401601 11:2.52 12:-0.738995 13:1.68244 14:-1.23464 15:-0.659574 16:1.07169 17:-0.450052 18:-0.575311 19:-0.543742 20:3 21:0.327909 22:0.789263 23:-0.17032 24:3 25:-0.529412 26:0.882353 27:0.882353 28:-1.4881 29:-1.60846 30:-0.196383 31:1.31999 32:-1.15742 33:-1.5924 34:-0.324649 35:-1.29015 36:-1.4307 37:-0.18407 38:-0.695853 39:0.443906 40:0.0145968 41:-0.721044 42:-0.690267 43:0.521574 44:-0.623547 45:-1.23317 46:-0.272727 47:0.75 48:-1.19144 49:-2.35013 50:-1.50695 51:-0.0425869 52:-1.30479 53:-0.974278 54:-1.60314 55:1.96591 56:-0.103805 57:-0.982434 58:-0.352062 59:-0.236961 60:-1.49806 61:-1.59489 62:-1.29301 63:-0.935567 64:-0.388758 65:-0.590695 66:-0.23705 67:-0.941748 68:-0.448819 69:-1.00497 70:-0.496409 71:-1.94087 72:-0.9 73:-1.39272 74:-1.92735 75:-0.711248 76:-3 77:-1.35758 78:-1.14283 79:-0.214877 80:-0.679111 81:0.086053 82:0.882353 83:-0.333333 84:2.18182 85:-1.31851 86:-0.904605 87:-1 88:2.84518 89:1.8025 90:-2.388 91:-0.833193 92:-1.00902 93:-0.547612 94:-0.12885 95:-1.31927 
-0.4370360978891706 0 6.998467764628711 5.986155033192143 3.530091191518279 1:-1.6317 2:-2.20273 3:-2.51793 4:-2 5:-0.985817 6:0.616075 7:-0.190748 8:-0.545455 9:-1.5 10:-0.322397 11:2.04 12:-1.53354 13:2.22854 14:0.551624 15:0.510638 16:0.48698 17:2.00465 18:0.354278 19:-1.65472 20:2 21:0.597789 22:2.28481 23:-1.86623 24:2 25:-0.0413016 26:0.875986 27:3 28:1.01721 29:0.934352 30:2.20299 31:-0.907536 32:0.813201 33:0.365922 34:-0.364366 35:-0.0217609 36:-2.49131 37:1.96415 38:-1.69605 39:0.571961 40:-1.42812 41:0.473795 42:-1.5315 43:1.8733 44:-1.04651 45:-0.260558 46:-0.818182 47:3 48:-0.044353 49:0.585715 50:-0.647395 51:-0.848466 52:-0.851773 53:-0.786221 54:-0.472009 55:-0.662818 56:-0.899679 57:-0.907152 58:-1.30832 59:-0.318232 60:-0.618241 61:-0.433836 62:-0.830904 63:-0.865979 64:-1.68175 65:-0.511458 66:-0.318368 67:-1.19471 68:-0.926565 69:-1.26088 70:-0.964185 71:-1.14963 72:-3 73:-1.15301 74:-1.10212 75:-0.822597 76:-1.47776 77:-1.10711 78:-1.22486 79:-1.6038 80:-0.801163 81:-0.809932 82:-0.882353 83:-1 84:1.36364 85:-2.19238 86:2.60844 87:-3 88:-0.474356 89:1.18998 90:2.9399 91:-1.494 92:-1.65147 93:-0.474701 94:-2.238 95:-1.89528 
-0 0 0 8 0 1:-0.708526 2:-2.00462 3:-0.973229 4:-3 5:-1.66389 6:-0.468759 7:-0.686714 8:-2.18182 9:-1.16667 10:-0.401601 11:-1.56 12:-0.0751724 13:1.14367 14:1.1774 15:0.744681 16:1.28697 17:2.08882 18:-1.19235 19:0.201398 20:3 21:-0.209756 22:-0.995218 23:-2.5413 24:3 25:-0.349186 26:0.176471 27:0.176471 28:2.19385 29:2.15809 30:-0.706132 31:1.31999 32:1.26106 33:0.775166 34:-0.677732 35:-1.60103 36:-2.81685 37:-1.71391 38:-2.35909 39:1.55943 40:-2.55935 41:1.56895 42:-0.558255 43:-2.5667 44:-0.508189 45:-1.83369 46:-0.272727 48:-2.10712 49:1.90066 50:-0.75366 51:-0.878008 52:-0.829971 53:0.863005 54:-0.864889 55:-2.01713 56:-0.891012 57:-1.29862 58:0.680111 59:0.125922 60:-0.709603 61:-0.81378 62:-0.804085 63:-1.27577 64:-1.58001 65:-0.930267 66:0.12579 67:-0.156442 68:-1.30686 69:-0.231867 70:-1.31224 71:-0.655831 72:0.9 73:-0.692938 74:-0.593017 75:-1.36259 76:-3 77:-0.64253 78:-1.27419 79:-1.41774 80:-1.36209 81:0.086053 82:1.23529 83:-0.333333 84:0.545455 85:-2.78642 86:0.434245 87:-0.333333 88:0.84874 89:-2.86195 90:-0.54855 91:-2.01672 92:-0.458364 93:-0.911494 94:-2.74039 95:-0.800018 
-0.487884292903694 0 0 0 0 1:-1.01846 2:-0.847971 3:-0.0549526 4:-3 5:-0.0212364 6:-0.253773 7:-1.69658 8:-1.36364 9:-1.16337 10:-0.401601 11:-1.8 12:-1.09902 13:1.94229 14:-0.833775 15:-0.893617 16:-0.44755 17:0.51498 18:-0.184238 19:0.708423 20:3 21:-1.21409 22:-0.762679 23:-1.29174 24:3 25:-1.25031 26:-0.882353 27:-0.882353 28:-0.460192 29:-0.584225 30:-1.47075 31:1.31999 32:-0.611463 33:-1.25818 34:-1.37076 35:-2.06735 36:-2.2159 37:-2.28866 38:-1.71737 39:2.22209 40:-1.37632 41:0.504481 42:-0.701488 43:-2.81631 44:-1.37627 45:-1.02004 46:0.272727 47:-0.75 48:-2.48032 49:-0.755939 50:-1.85681 51:-1.58857 52:-1.648 53:1.57488 54:-2.06078 55:-0.128015 56:-1.58996 57:-1.62233 58:-0.862642 59:0.537959 60:-1.84091 61:-2.04135 62:-1.64084 63:-1.60825 64:-0.87968 65:-1.29017 66:0.537962 67:-1.51997 68:-2.00639 69:-1.55665 70:-2.00189 71:-2.1372 72:-0.6 73:-1.91202 74:-2.11835 75:-1.92272 76:-3 77:-1.89344 78:-1.64783 79:-0.83839 80:-1.92663 81:0.547063 82:-0.50961 83:-0.333333 84:-0.545455 85:-2.23184 86:0.72508 87:1 88:-0.630205 89:2.9421 90:-0.204179 91:-1.73097 92:-1.03073 93:-1.27998 94:-1.252 95:-1.33926 
-0.0915458029732258 0 0 3.187733014097125 0 1:-1.07245 2:-2.83271 3:-1.63067 4:-3 5:-3 6:-0.177037 7:0.0655188 8:-2.45455 9:-1.2 10:-0.401601 11:-0.84 12:0.240757 13:0.857011 14:1.2046 15:1.7234 16:3 17:2.55214 18:-1.44719 19:0.141861 20:3 21:-0.235206 22:-1.71174 23:-2.78013 24:3 25:-0.349186 26:0.176471 27:0.176471 28:2.90942 29:2.9053 30:-0.706132 31:1.31999 32:1.37402 33:0.835543 34:-0.811707 35:-1.60103 36:-3 37:-1.37989 38:-2.69451 39:1.26725 40:-2.86194 41:2.26085 42:-1.08504 43:-2.36549 44:-0.446861 45:-2.03335 46:-0.818182 48:-2.15556 49:2.02294 50:-1.03509 51:-1.03902 52:-1.17991 53:0.388061 54:-1.07853 55:-2.06553 56:-1.07486 57:-1.64492 58:1.40399 59:0.56851 60:-0.995668 61:-1.02751 62:-1.16541 63:-1.64691 64:-1.8793 65:-1.31577 66:0.568456 67:-0.292491 68:-1.49951 69:-0.387149 70:-1.50928 71:-0.824523 72:0.9 73:-0.930736 74:-0.753227 75:-1.59917 76:-3 77:-0.881935 78:-1.5679 79:-1.58095 80:-1.61238 81:0.086053 82:1.58824 83:-1 84:0.545455 85:-3 86:0.458333 87:-0.333333 88:1.2731 89:-2.79764 90:-0.806882 91:-2.39407 92:-0.542084 93:-1.32372 94:-2.97346 95:-0.880478 
-0 0 0 8 0 1:-0.636526 2:-1.63468 3:-0.679528 4:-3 5:-1.65613 6:-0.697793 7:-1.15886 8:-1.36364 9:-1.34 10:-0.401601 11:2.28 12:0.129774 13:0.960119 14:1.13719 15:1.17021 16:1.31045 17:1.83571 18:-1.36018 19:-0.220791 20:3 21:0.44322 22:-0.394468 23:-2.25268 24:3 25:0.206508 26:0.529412 27:0.529412 28:1.92743 29:1.88038 30:-0.451257 31:1.31999 32:1.37846 33:0.97398 34:-0.19498 35:-1.44559 36:-2.68628 37:-1.27738 38:-1.95942 39:1.6758 40:-2.21145 41:0.872196 42:-0.294345 43:-1.1694 44:-0.136645 45:-2.04682 46:-1.36364 47:0.75 48:-1.66818 49:1.67216 50:-1.3969 51:-0.693479 52:-1.11034 53:1.23202 54:-1.59894 55:-1.50502 56:-0.697106 57:-0.892095 58:0.918033 59:-0.334291 60:-1.39347 61:-1.59424 62:-1.1095 63:-0.865979 64:-0.450564 65:-0.495682 66:-0.334389 67:-1.07964 68:-1.04454 69:-1.10204 70:-1.03952 71:-1.79311 72:-0.6 73:-1.34749 74:-1.80105 75:-1.01839 76:-3 77:-1.34862 78:-0.910954 79:-0.243043 80:-1.03066 81:0.547063 82:-0.882353 83:-1 84:-0.818182 85:-2.61986 86:0.16019 87:-0.333333 88:-0.720805 89:2.4084 90:-0.676311 91:-1.67262 92:-0.285571 93:-0.474701 94:-2.6414 95:-0.632224 
-2.190542608710909 0 8 0 0 1:-1.84426 2:-1.08169 3:-0.240508 4:-3 5:-0.257009 6:0.615515 7:-1.73922 8:-1.63636 9:-1.5 10:-0.401601 11:-2.04 12:-1.75828 13:2.36557 14:-1.03297 15:-0.702128 16:-0.56267 17:0.953125 18:0.666733 19:1.2717 20:3 21:-1.37753 22:-0.328925 23:-1.44606 24:3 25:-1.52816 26:-1.23529 27:-1.23529 28:-0.308 29:-0.429415 30:-1.72563 31:1.31999 32:-0.665601 33:-1.38626 34:-1.72038 35:-2.22279 36:-2.36195 37:-2.39705 38:-2.00976 39:2.692 40:-1.44287 41:0.953419 42:-0.907859 43:-2.17634 44:-1.88078 45:-0.0633139 46:0.272727 47:-1.5 48:-2.63994 49:-0.859591 50:-1.69084 51:-1.84056 52:-1.68904 53:1.78747 54:-1.81993 55:0.0507357 56:-1.87814 57:-1.96863 58:-1.47129 59:1.03381 60:-1.63739 61:-1.77115 62:-1.63531 63:-1.90979 64:-1.42803 65:-1.6905 66:1.03366 67:-1.2996 68:-2.31295 69:-1.37669 70:-2.34593 71:-1.779 72:0.6 73:-1.83985 74:-1.72232 75:-2.283 76:-3 77:-1.77929 78:-2.0607 79:-1.21884 80:-2.24688 81:0.086053 82:0.529412 83:0.333333 84:-0.818182 85:-2.3192 86:0.834293 87:1 88:0.352459 89:-2.73697 90:-0.169159 91:-2.02303 92:-1.66802 93:-1.62642 94:-1.38066 95:-1.90969 
-0 0 0 5.200921999976299 0 1:-0.173285 2:-1.53832 3:-1.32393 4:-2 5:-0.262321 6:-1.51749 7:0.833619 8:1.63636 10:-0.325943 11:1.32 12:0.630603 13:0.472802 14:1.03307 15:0.148936 16:0.206215 17:1.31076 18:-1.73322 19:-1.81881 20:2.5 21:1.14608 22:0.387127 23:-1.4892 24:3 25:0.889862 26:1.92485 27:3 28:1.6079 29:1.54773 30:0.244181 31:1.70718 32:1.76869 33:1.56006 34:0.6806 35:-0.196091 36:-2.42863 37:0.414593 38:-0.916175 39:0.284338 40:-1.35955 41:-0.493302 42:-0.599626 43:1.76408 44:0.588327 45:-2.39777 46:-0.272727 47:3 48:0.32895 49:2.0146 50:0.178938 51:0.886205 52:0.162147 53:-2.23844 54:0.202705 55:-0.874297 56:0.818535 57:0.154329 58:1.02747 59:-1.29878 60:0.169209 61:0.212728 62:0.119467 63:0.115979 64:-1.03151 65:0.548257 66:-1.29883 67:1.86123 68:0.758903 69:1.70512 70:0.735653 71:1.26555 72:1.8 73:1.14525 74:1.36513 75:0.60616 76:1.84306 77:1.21402 78:0.0887181 79:-0.765545 80:0.572873 81:0.643858 82:-0.176471 83:-0.333333 84:-1.36364 85:-2.31103 86:2.8292 87:-3 88:0.015794 89:-1.24778 90:2.3666 91:-0.909216 92:0.391969 93:0.505894 94:-2.51225 95:0.0481232 
-0 0 0 4.07730991039252 0 1:-0.195215 2:-1.7221 3:-0.937493 4:-3 5:-0.459233 6:-1.23316 7:-1.91624 8:-1.09091 9:-1.28008 10:0.224618 11:2.28 12:0.222058 13:0.874577 14:1.14835 15:0.638298 16:0.0824761 17:0.57525 18:-1.43272 19:-1.1694 20:3 21:1.61376 22:1.62466 23:-1.39541 24:3 25:1.34043 26:2.4551 27:2.64706 28:0.236872 29:0.128505 30:1.68585 31:0.578861 32:0.954079 33:0.760516 34:1.04794 35:-0.512952 36:-1.96666 37:-0.314016 38:-0.717015 39:1.63749 40:-1.04925 41:-0.699895 42:0.598626 43:0.761972 44:0.581752 45:-2.14891 46:0.272727 47:3 48:0.0790985 49:0.452393 50:-0.288488 51:0.106917 52:0.00937776 53:1.92516 54:-0.421467 55:-0.681729 56:0.076691 57:0.432873 58:0.429804 59:-1.51459 60:-0.275917 61:-0.396655 62:0.008127 63:0.471649 64:0.017921 65:0.810655 66:-1.51456 67:-0.741002 68:-0.0216576 69:-0.786533 70:-0.0405963 71:-1.14215 72:-1.8 73:-0.605696 74:-1.12438 75:0.156363 76:2.3328 77:-0.579251 78:0.206099 79:1.35818 80:0.161161 81:0.704858 82:-0.645106 83:0.333333 84:-0.272727 85:-1.73457 86:0.40212 87:-2.33333 88:-2.18707 89:1.70618 90:0.220609 91:-0.303841 92:0.0687714 93:0.841407 94:-1.78347 95:-0.28086 
-0 0 0 3.837430222907953 0 1:-0.0973099 2:-2.25489 3:-1.27171 4:-2 5:-1.10445 6:-1.02192 7:-0.768639 9:-0.098669 10:-2.17324 11:2.04 12:0.289125 13:0.811245 14:1.55472 15:1 16:0.954593 17:1.12281 18:-1.4843 19:-1.53199 20:2.5 21:1.47165 22:1.34467 23:-1.84238 24:3 25:1.22778 26:2.54047 27:3 28:0.956923 29:0.871889 30:2.22709 31:0.187431 32:1.35615 33:1.1301 34:0.944173 35:-0.196091 36:-2.25375 37:0.403957 38:-1.15694 39:1.03452 40:-1.55155 41:-0.223739 42:-0.196764 43:1.49872 44:0.561484 45:-2.19713 46:-0.272727 47:3 48:0.365971 49:1.10914 50:-0.353875 51:0.183538 52:-0.192444 53:-0.0349725 54:-0.371088 55:-1.26725 56:0.162238 57:0.19197 58:0.516526 59:-1.32874 60:-0.409259 61:-0.409082 62:-0.258764 63:0.185567 64:0.120649 65:0.584062 66:-1.32883 67:-0.636648 68:0.104028 69:-0.629905 70:0.104773 71:-0.85 72:-2.4 73:-0.484013 74:-0.907894 75:0.221683 76:-0.753996 77:-0.525856 78:-0.00219863 79:1.31861 80:0.195542 81:-2.219 82:-0.309508 83:-1 84:-1.63636 85:-2.04781 86:1.77961 87:-3 88:-2.60468 89:1.38138 90:1.39596 91:-0.708302 92:-0.0707772 93:0.572289 94:-2.20701 95:-0.420407 
-0 0 0 8 0 1:-0.989177 2:-1.42943 3:-0.516584 4:-3 5:-1.42012 6:-0.540234 7:-1.37631 8:-1.63636 9:-1.5 10:-0.401601 11:2.52 12:-0.155311 13:1.21313 14:1.48003 15:0.851064 16:1.21485 17:2.10165 18:-1.12406 19:-0.0857675 20:3 21:0.497935 22:0.145458 23:-2.40089 24:3 25:0.18398 26:0.529412 27:0.529412 28:2.16395 29:2.12691 30:-0.451257 31:1.31999 32:1.55783 33:1.18012 34:-0.142683 35:-1.44559 36:-2.71705 37:-1.3461 38:-2.02608 39:1.78804 40:-2.27812 41:0.980135 42:-0.0423166 43:-1.09782 44:-0.241783 45:-1.7696 46:-1.36364 47:0.75 48:-1.64542 49:1.95484 50:-1.30092 51:-0.659935 52:-1.0047 53:1.49423 54:-1.52159 55:-1.85555 56:-0.663504 57:-0.801757 58:0.456224 59:-0.429075 60:-1.36238 61:-1.57819 62:-1.06139 63:-0.804124 64:-0.612559 65:-0.401517 66:-0.429187 67:-1.11856 68:-1.03152 69:-1.13001 70:-1.0204 71:-1.80428 72:-0.6 73:-1.3467 74:-1.84621 75:-0.992498 76:-3 77:-1.37585 78:-0.880633 79:-0.392356 80:-1.01725 81:0.547063 82:-0.176471 83:-1 84:-0.818182 85:-2.60228 86:0.297799 87:-0.333333 88:-0.609022 89:2.38442 90:-0.414088 91:-1.66999 92:-0.513338 93:-0.410304 94:-2.72965 95:-0.852914 
-0 0 8 0 0 1:-1.78863 2:-1.14726 3:-0.292565 4:-3 5:-0.422609 6:0.466968 7:-1.7811 8:-1.90909 9:-1.5 10:-0.401601 11:-2.04 12:-1.52178 13:2.22116 14:-0.337393 15:-0.531915 16:0.0636527 17:1.41097 18:0.338617 19:0.979828 20:3 21:-0.846154 22:-0.0804931 23:-1.83634 24:3 25:-1.22778 26:-0.882353 27:-0.882353 28:0.314067 29:0.207923 30:-1.47075 31:1.31999 32:-0.150437 33:-0.820893 34:-1.419 35:-2.06735 36:-2.51324 37:-2.08699 38:-2.10508 39:2.42331 40:-1.77097 41:1.1121 42:-0.698145 43:-1.65561 44:-1.60031 45:-0.365349 46:-1.36364 47:-0.75 48:-2.44855 49:-0.273786 50:-0.923955 51:-1.69677 52:-1.12028 53:1.72686 54:-0.976158 55:-0.572148 56:-1.71434 57:-1.72773 58:-1.02051 59:0.68229 60:-0.913373 61:-0.9553 62:-1.1264 63:-1.73196 64:-1.65056 65:-1.41025 66:0.682313 67:-0.699638 68:-2.14415 69:-0.766871 70:-2.1485 71:-0.883812 72:1.2 73:-1.19073 74:-0.836527 75:-2.06673 76:-3 77:-1.15755 78:-1.83007 79:-1.39639 80:-2.07137 81:0.547063 82:1.23529 83:-0.333333 84:-0.818182 85:-2.43381 86:0.745425 87:1 88:0.553063 89:-2.56837 90:-0.227743 91:-2.01787 92:-1.55503 93:-1.42063 94:-1.83417 95:-1.81086 
-0 0 0 8 0 1:-0.594497 2:-1.44654 3:-0.530162 4:-3 5:-1.40232 6:-0.891453 7:-1.54593 8:-1.90909 9:-1.5 10:-0.401601 11:2.04 12:0.342151 13:0.760458 14:1.52808 15:0.893617 16:1.08586 17:1.39059 18:-1.52444 19:-0.526276 20:3 21:1.06205 22:0.424946 23:-2.12181 24:3 25:0.702128 26:1.23529 27:1.23529 28:1.39028 29:1.32149 30:0.0584912 31:1.31999 32:1.40295 33:1.10206 34:0.448358 35:-1.13471 36:-2.45479 37:-0.985018 38:-1.58819 39:1.8131 40:-1.96891 41:0.322483 42:0.297279 43:-0.47082 44:0.322054 45:-2.09588 46:-0.818182 47:1.5 48:-1.07618 49:1.37815 50:-0.97735 51:-0.264127 52:-0.632638 53:1.8976 54:-1.19889 55:-1.51914 56:-0.312205 57:-0.297365 58:0.886931 59:-0.91553 60:-0.972852 61:-1.18421 62:-0.638945 63:-0.270619 64:-0.420931 65:0.10963 66:-0.915606 67:-0.862457 68:-0.558325 69:-0.940984 70:-0.594971 71:-1.60679 72:-0.9 73:-1.05481 74:-1.57107 75:-0.518163 76:-3 77:-1.01081 78:-0.387638 79:0.0724541 80:-0.501877 81:0.547063 82:-0.529412 83:-0.333333 84:-1.09091 85:-2.332 86:-0.252707 87:-1 88:-0.508721 89:2.16948 90:-0.751108 91:-1.13676 92:-0.0545434 93:0.129955 94:-2.41702 95:-0.404247 
-0 0 0 8 0 1:-1.02515 2:-1.87859 3:-0.873178 4:-3 5:-2.1879 6:-0.469039 7:-1.04565 8:-2.45455 9:-1 10:-0.401601 11:-0.84 12:0.0950585 13:0.991817 14:1.01559 15:0.957447 16:1.36999 17:1.35604 18:-1.33242 19:0.17493 20:3 21:0.0314892 22:-0.908111 23:-2.41229 24:3 25:-0.221527 26:0.176471 27:0.176471 28:1.12593 29:1.04707 30:-0.706132 31:1.31999 32:0.721277 33:0.217126 34:-0.499234 35:-1.60103 36:-2.57733 37:-1.6747 38:-2.24152 39:1.84528 40:-2.42993 41:1.35104 42:-0.499852 43:-2.59346 44:-0.327099 45:-1.8907 46:-0.818182 48:-2.06276 49:0.783166 50:-1.0541 51:-0.879602 52:-0.995405 53:1.31922 54:-1.22033 55:-1.65903 56:-0.95685 57:-1.24592 58:0.907525 59:0.0628631 60:-0.964664 61:-1.13552 62:-0.904372 63:-1.1366 64:-1.46345 65:-0.872885 66:0.0627567 67:-0.523929 68:-1.28522 69:-0.64827 70:-1.3619 71:-1.19468 72:0.6 73:-1.0424 74:-1.0977 75:-1.37037 76:-3 77:-0.932509 78:-1.22767 79:-1.3196 80:-1.29212 81:0.086053 82:0.957983 83:-0.333333 84:0.818182 85:-2.56726 86:0.252747 87:-0.333333 88:0.949626 89:2.87106 90:-0.828283 91:-1.72062 92:-0.328298 93:-0.761102 94:-2.29237 95:-0.673927 
-0 0 0 0.9219235893195136 0 1:-0.78475 2:-1.37814 3:-0.475862 4:-3 5:-0.778758 6:-0.850426 7:-1.48157 8:-1.90909 9:-2 10:-0.401601 11:-1.56 12:-0.0150573 13:1.09073 14:0.704625 15:0.148936 16:0.940723 17:1.99608 18:-1.24257 19:-0.200577 20:3 21:0.255743 22:-0.297646 23:-1.88549 24:3 25:-0.0413016 26:0.529412 27:0.529412 28:2.15533 29:2.11792 30:-0.451257 31:1.31999 32:1.51759 33:1.12707 34:-0.262123 35:-1.44559 36:-2.72618 37:-1.43585 38:-1.64591 39:1.8337 40:-1.85168 41:0.402656 42:-0.110041 43:-1.39364 44:-0.242234 45:-1.90686 46:-1.90909 47:0.75 48:-1.67844 49:2.07462 50:-0.920626 51:-0.802162 52:-0.730263 53:1.59724 54:-1.12706 55:-1.11722 56:-0.816669 57:-0.779172 58:0.582148 59:-0.452379 60:-1.11073 61:-1.31603 62:-0.899821 63:-0.858247 64:-0.861336 65:-0.378106 66:-0.452445 67:-0.914149 68:-1.14821 69:-0.91531 70:-1.12916 71:-1.43971 72:-0.3 73:-1.08742 74:-1.54468 75:-1.0365 76:-3 77:-1.17251 78:-0.803007 79:-0.676058 80:-1.09907 81:0.547063 82:-0.529412 83:-0.333333 84:-0.818182 85:-2.64793 86:0.140327 87:-0.333333 88:0.0396979 89:2.48291 90:-0.618807 91:-1.70732 92:-0.331293 93:-0.46663 94:-2.72653 95:-0.676846 
-0 0 8 0 0 1:-0.894737 2:-1.8836 3:-0.900467 4:-3 5:-1.43083 6:-0.698688 7:-1.76693 8:-1.63636 9:-2 10:-0.364945 11:2.52 12:-0.0641905 13:1.13406 14:1.30137 15:0.723404 16:0.965391 17:1.46402 18:-1.20159 19:-0.552396 20:3 21:0.863283 22:0.605442 23:-2.11882 24:3 25:0.416771 26:1.21492 27:1.23529 28:1.2528 29:1.17872 30:1.51556 31:-0.176468 32:1.19642 33:0.845902 34:0.188848 35:-1.13471 36:-2.46372 37:-0.784051 38:-1.68968 39:1.83125 40:-1.93961 41:0.464691 42:-0.0631384 43:-0.110307 44:-0.0163132 45:-1.88247 46:-0.818182 47:1.5 48:-1.13317 49:1.13579 50:-1.2401 51:-0.625647 52:-0.914451 53:1.77206 54:-1.41896 55:-1.39828 56:-0.671293 57:-0.523212 58:0.470126 59:-0.706182 60:-1.23706 61:-1.4149 62:-0.908436 63:-0.471649 64:-0.0982126 65:-0.116285 66:-0.706233 67:-1.32349 68:-0.891129 69:-1.36437 70:-0.921363 71:-1.94367 72:-1.2 73:-1.43282 74:-1.94698 75:-0.783845 76:2.77557 77:-1.41788 78:-0.645354 79:0.386326 80:-0.767814 81:0.572497 82:-1.23529 83:-0.333333 84:-0.545455 85:-2.32331 86:0.0133593 87:-1 88:-0.767162 89:2.04081 90:-0.601513 91:-1.25276 92:-0.379739 93:-0.0705446 94:-2.35348 95:-0.723952 
-0 0 0 1.687019932280254 0 1:-2.10768 2:-2.42812 3:-1.42025 4:-3 5:-1.84553 6:0.786619 7:-2.1111 8:1.90909 9:-1.5 10:-0.2959 11:-1.8 12:-1.3898 13:2.13702 14:0.80674 15:0.255319 16:1.24507 17:2.49105 18:0.16718 19:0.764327 20:3 21:-0.474358 22:0.165684 23:-2.64501 24:3 25:-0.987484 26:-0.259733 27:-0.176471 28:1.69361 29:1.6369 30:-1.14482 31:1.52173 32:0.681645 33:0.0640391 34:-1.1989 35:-1.75647 36:-2.82417 37:-1.49713 38:-2.65582 39:2.37854 40:-2.51038 41:2.1752 42:-0.881905 43:-0.894142 44:-1.41529 45:-0.366341 46:-0.818182 48:-2.25931 49:0.93713 50:-0.726293 51:-1.86246 52:-1.05119 53:1.64191 54:-0.679404 55:-1.78345 56:-1.85265 57:-1.76537 58:-0.776799 59:0.735165 60:-0.680696 61:-0.630679 62:-1.01181 63:-1.71649 64:-2.10607 65:-1.4535 66:0.735181 67:-0.593991 68:-2.2617 69:-0.643983 70:-2.24837 71:-0.563199 72:1.5 73:-1.06084 74:-0.510886 75:-2.12173 76:-2.76158 77:-1.02557 78:-1.8938 79:-1.70317 80:-2.12071 81:0.609845 82:1.23529 83:0.333333 84:-1.09091 85:-2.70022 86:0.703144 87:0.333333 88:0.950478 89:-2.31505 90:-0.353558 91:-2.2651 92:-1.65825 93:-1.40293 94:-2.54809 95:-1.90119 
-0 0 0 1.853957892140028 0 1:-0.432281 2:-1.78859 3:-0.801721 4:-3 5:-1.89299 6:-0.682905 7:-1.01278 8:-2.72727 9:-1.5 10:-0.401601 11:-0.84 12:0.280187 13:0.819739 14:1.06263 15:0.382979 16:1.45133 17:1.37098 18:-1.47748 19:-0.123795 20:3 21:-0.070295 22:-1.21467 23:-2.41536 24:3 25:-0.386733 26:0.176471 27:0.176471 28:1.25646 29:1.18251 30:-0.706132 31:1.31999 32:0.783296 33:0.277503 34:-0.519656 35:-1.60103 36:-2.61367 37:-1.4094 38:-2.22581 39:1.39385 40:-2.47368 41:1.32278 42:-0.667684 43:-1.81755 44:-0.25541 45:-2.12013 46:-0.818182 48:-1.92473 49:0.963167 50:-0.0896816 51:-0.991186 52:-0.412541 53:0.637465 54:-0.0659298 55:-1.78706 56:-1.03366 57:-1.20828 58:1.0924 59:0.0184085 60:-0.0424335 61:-0.0145241 62:-0.37693 63:-1.16753 64:-2.19412 65:-0.832094 66:0.0183961 67:0.256746 68:-1.34413 69:0.147775 70:-1.36965 71:0.116285 72:0.9 73:-0.240295 74:0.205147 75:-1.33247 76:-3 77:-0.166123 78:-1.15062 79:-2.01299 80:-1.31774 81:0.086053 82:2.01176 83:-0.333333 84:0.272727 85:-2.62659 86:0.634929 87:-0.333333 88:1.59177 89:-2.62111 90:-0.133057 91:-1.76985 92:-0.187238 93:-0.794335 94:-2.35521 95:-0.535692 
-0 0.1360880239707295 0 0 0 1:-1.87167 2:-1.1778 3:-0.316804 4:-3 5:-1.52625 6:1.36122 7:-1.33956 8:-1.36364 9:-1.5 10:-0.401601 11:2.76 12:-1.79163 13:2.38529 14:-0.00474335 15:-0.787234 16:0.990853 17:2.50697 18:0.715307 19:1.66098 20:3 21:-1.52161 22:-0.582166 23:-2.53256 24:3 25:-1.85106 26:-1.58824 27:-1.58824 28:1.39048 29:1.3217 30:-1.9805 31:1.31999 32:0.149827 33:-0.614754 34:-1.84949 35:-2.37823 36:-2.89242 37:-2.35008 38:-2.83219 39:2.16074 40:-2.49827 41:2.57956 42:-1.16801 43:-2.28813 44:-1.96965 45:0.355848 46:-0.272727 47:-1.5 48:-2.72074 49:0.637508 50:-2.57602 51:-2.05189 52:-2.4096 53:1.06844 54:-2.68624 55:-1.58294 56:-2.05714 57:-2.26223 58:-1.42807 59:1.50793 60:-2.56216 61:-2.67202 62:-2.3973 63:-2.24227 64:-0.696802 65:-2.04385 66:1.50787 67:-2.27241 68:-2.55236 69:-2.2907 70:-2.55391 71:-2.91923 72:-0.9 73:-2.73817 74:-2.9197 75:-2.52702 76:-3 77:-2.73176 78:-2.34958 79:-0.829533 80:-2.52107 81:0.547063 82:-2.29412 83:-1 84:-0.545455 85:-2.82128 86:0.899365 87:1.66667 88:-0.661446 89:2.77343 90:-0.185156 91:-2.62728 92:-2.00715 93:-2.02353 94:-2.4171 95:-2.20038 
-1.136243293435094 0 1.853557710297208 0 0 1:-1.08073 2:-1.04038 3:-0.207705 4:-3 5:-0.447884 6:-0.412676 7:-1.06559 8:-1.09091 9:-1.5 10:-0.401601 11:2.28 12:-0.829385 13:1.7497 14:-0.604258 15:-0.723404 16:-0.258821 17:0.681883 18:-0.4813 19:0.494439 20:3 21:-1.23761 22:-1.22943 23:-1.57349 24:3 25:-1.25782 26:-0.882353 27:-0.882353 28:-0.135515 29:-0.253364 30:-1.47075 31:1.31999 32:-0.397499 33:-1.05204 34:-1.37169 35:-2.06735 36:-2.34637 37:-2.10342 38:-1.92352 39:1.73648 40:-1.71545 41:0.815295 42:-0.932472 43:-2.21171 44:-1.25465 45:-1.26053 46:-0.818182 47:-0.75 48:-2.43923 49:-0.374254 50:-2.14807 51:-1.44938 52:-1.88781 53:0.942543 54:-2.33277 55:-0.505398 56:-1.48832 57:-1.69009 58:-0.445127 59:0.630198 60:-2.10596 61:-2.29244 62:-1.84743 63:-1.63918 64:-0.649671 65:-1.36719 66:0.630163 67:-1.67615 68:-1.86286 69:-1.73562 70:-1.89686 71:-2.42286 72:-0.9 73:-2.10717 74:-2.38634 75:-1.86535 76:-3 77:-2.05929 78:-1.67061 79:-0.682474 80:-1.83156 81:0.547063 82:-2.29412 83:-1 84:-0.545455 85:-2.39465 86:0.909469 87:1 88:-0.904542 89:2.74892 90:0.16851 91:-1.83898 92:-0.812288 93:-1.31495 94:-1.51738 95:-1.13646 
-0.1465791873255281 0.5792625192216285 0 4.463241340920105 0 1:-0.376183 2:-1.99311 3:-1.36843 4:-1 5:-0.324825 6:-1.14562 7:-1.28727 8:0.272727 9:-1.5 10:-2.59213 11:1.56 12:0.132822 13:0.957326 14:0.257323 15:-0.0851064 16:0.389198 17:1.36262 18:-1.3626 19:-1.98854 20:1 21:0.204061 22:-0.282215 23:-1.38178 24:1 25:0.0788486 26:1.21519 27:3 28:1.3261 29:1.25482 30:1.87043 31:-0.448267 32:1.14473 33:0.760516 34:-0.131033 35:0.372382 36:-2.51613 37:0.980217 38:-1.20335 39:0.953566 40:-1.37405 41:-0.169073 42:-1.5218 43:2.0272 44:-0.0990718 45:-2.02512 46:-1.36364 47:3 48:-0.164874 49:1.52651 50:-0.91118 51:-1.25448 52:-0.856582 53:-0.141449 54:-0.87025 55:-0.568894 56:-1.2438 57:-0.57591 58:0.501119 59:-0.655461 60:-1.08719 61:-1.04601 62:-1.0136 63:-0.641753 64:-0.0563029 65:-0.169674 66:-0.655465 67:-1.53192 68:-1.18996 69:-1.47294 70:-1.14783 71:-1.43532 72:-2.7 73:-1.2745 74:-1.58215 75:-0.75 76:-1.14943 77:-1.39819 78:-0.589557 79:0.404784 80:-0.824714 81:-1.73598 82:-0.882353 83:-1 84:-1.36364 85:-2.45514 86:1.92102 87:-3 88:-1.37764 89:1.10323 90:1.77082 91:-1.39275 92:-0.0794915 93:-0.24306 94:-2.38769 95:-0.429065 
-1.268858452198661 1.139987333631374 0 0 0.3047845752475794 1:-0.347859 2:-1.86565 3:-0.874835 4:-2 5:-0.22278 6:-1.23075 7:-1.40437 8:-0.818182 9:-2 10:0.71002 11:2.28 12:0.100607 13:0.986771 14:1.10695 15:0.404255 16:-0.0629592 17:0.272731 18:-1.33688 19:-1.34848 20:2.5 21:1.60263 22:1.80449 23:-1.33304 24:3 25:1.30288 26:2.63476 27:3 28:-0.220866 29:-0.340556 30:1.74556 31:0.653884 32:0.586321 33:0.390931 34:1.03606 35:-0.196091 36:-1.77845 37:-0.0451351 38:-0.650795 39:1.57558 40:-0.953021 41:-0.76558 42:0.41656 43:1.08564 44:0.513607 45:-2.08425 46:1.36364 47:3 48:0.347747 49:-0.0917898 50:-0.427706 51:0.332089 52:-0.114377 53:1.7487 54:-0.540399 55:-0.637893 56:0.300462 57:0.478043 58:0.256024 59:-1.54808 60:-0.461928 61:-0.56368 62:-0.155551 63:0.494845 64:0.0976482 65:0.85266 66:-1.5482 67:-0.791423 68:0.208688 69:-0.81179 70:0.195479 71:-1.20404 72:-2.1 73:-0.6415 74:-1.22029 75:0.346909 76:2.06425 77:-0.647251 78:0.227766 79:1.56337 80:0.338395 81:0.330118 82:-1.58824 83:-0.333333 84:-0.272727 85:-1.52608 86:0.542123 87:-3 88:-2.13292 89:1.56989 90:0.345343 91:-0.141642 92:-0.00439983 93:0.862964 94:-1.45088 95:-0.35422 
-0 0 8 0 0.82636009089426 1:-1.33628 2:-1.58433 3:-1.08756 4:-3 5:-0.222614 6:-0.0955428 7:-1.2787 8:-0.545455 9:-1.5 10:0.331882 11:2.76 12:-1.20811 13:2.01688 14:-0.255273 15:-0.319149 16:-0.434969 17:0.865829 18:-0.0564142 19:0.220791 20:3 21:-0.530703 22:0.174885 23:-1.58257 24:3 25:-0.784731 26:-0.152825 27:0.176471 28:-0.0983691 29:-0.215375 30:1.84432 31:-1.38895 32:-0.191588 33:-0.767841 34:-1.03764 35:-1.60103 36:-2.26951 37:-1.42898 38:-1.74584 39:1.36535 40:-1.4862 41:0.545868 42:-0.63261 43:-0.59528 44:-1.23937 45:-0.872711 46:-0.272727 48:-2.01888 49:-0.421326 50:-1.87999 51:-1.20682 52:-1.61177 53:0.562253 54:-2.05599 55:-0.431271 56:-1.21333 57:-1.35885 58:-0.855432 59:0.199164 60:-1.83875 61:-2.01274 62:-1.57517 63:-1.3067 64:-0.576294 65:-0.99625 66:0.199153 67:-1.78065 68:-1.57297 69:-1.80937 70:-1.58048 71:-2.41102 72:-1.5 73:-2.03078 74:-2.39266 75:-1.54163 76:1.90736 77:-2.00328 78:-1.46837 79:-0.534759 80:-1.52385 81:0.188825 82:-1.58824 83:-1 84:-1.09091 85:-2.18337 86:1.32116 87:-0.333333 88:-1.15919 89:2.21294 90:1.06673 91:-1.57693 92:-1.1402 93:-0.945214 94:-1.54565 95:-1.43949 
-0 0 0 8 0 1:-1.08842 2:-1.35653 3:-0.458706 4:-3 5:-1.70993 6:-0.557473 7:-0.969268 8:-1.36364 9:-1.5 10:-0.401601 11:2.52 12:0.110675 13:0.977585 14:1.46068 15:0.829787 16:1.42151 17:1.68538 18:-1.34495 19:-0.166561 20:3 21:0.17599 22:-0.641274 23:-2.52869 24:3 25:-0.048811 26:0.176471 27:0.176471 28:1.64636 29:1.58774 30:-0.706132 31:1.31999 32:1.11704 33:0.664772 34:-0.344255 35:-1.60103 36:-2.66215 37:-1.2402 38:-2.2243 39:1.71566 40:-2.50228 41:1.32008 42:-0.445244 43:-1.15646 44:-0.230568 45:-1.98428 46:-0.818182 48:-1.73666 49:1.39472 50:-1.8059 51:-0.780783 52:-1.45467 53:1.23229 54:-2.00405 55:-2.05764 56:-0.828721 57:-1.0276 58:0.823211 59:-0.187414 60:-1.83364 61:-2.03266 62:-1.47765 63:-1.01289 64:-0.407385 65:-0.638526 66:-0.187386 67:-1.40999 68:-1.14609 69:-1.45498 70:-1.17712 71:-2.21425 72:-0.9 73:-1.72661 74:-2.22907 75:-1.15191 76:-3 77:-1.72068 78:-1.02543 79:-0.254071 80:-1.14274 81:0.086053 82:-1.23529 83:-1 84:-0.818182 85:-2.61931 86:0.3279 87:-0.333333 88:-0.836664 89:2.40407 90:-0.523689 91:-1.72863 92:-0.325865 93:-0.629214 94:-2.52845 95:-0.67156 
-0 0 0 4.329437704502901 0 1:-0.844104 2:-2.45575 3:-1.81386 4:-3 5:-1.34126 6:-0.867553 7:-0.623272 8:2.45455 9:-1.5 10:0.36596 11:0.12 12:0.273794 13:0.825804 14:0.460354 15:0.617021 16:1.46976 17:1.83537 18:-1.4726 19:-0.484647 20:3 21:-0.174037 22:-1.14822 23:-1.92724 24:3 25:-0.176471 26:0.790981 27:1.23529 28:2.00536 29:1.96158 30:-0.585535 31:1.78768 32:1.24286 33:0.7782 34:-0.488865 35:-1.13471 36:-2.75724 37:-1.02695 38:-1.82418 39:0.43355 40:-2.02235 41:0.662249 42:-0.771755 43:-0.498117 44:-0.240181 45:-2.08369 46:-0.272727 47:1.5 48:-1.66979 49:1.87473 50:-0.32187 51:-0.946757 52:-0.510166 53:-0.93439 54:-0.347105 55:-1.13079 56:-0.885464 57:-1.0803 58:0.885126 59:-0.128468 60:-0.37613 61:-0.378177 62:-0.591483 63:-1.14433 64:-2.0104 65:-0.69461 66:-0.128552 67:0.304947 68:-1.22454 69:0.312266 70:-1.14997 71:0.153602 72:0.9 73:-0.156953 74:0.137055 75:-1.12195 76:-1.83163 77:-0.203293 78:-1.02029 79:-1.89173 80:-1.20566 81:-0.428375 82:0.882353 83:-1 84:-0.818182 85:-2.74646 86:1.68906 87:-1 88:1.70865 89:-2.17847 90:1.63938 91:-1.8891 92:-0.196653 93:-0.769401 94:-2.67113 95:-0.544971 
-0 0 0 8 0 1:-0.923924 2:-2.25587 3:-1.33125 4:-3 5:-1.33133 6:-0.494226 7:-0.971621 8:1.90909 9:-1.5 10:-0.0270612 11:-0.36 12:-0.21667 13:1.26546 14:0.574567 15:0.446809 16:0.821838 17:1.62841 18:-1.07071 19:-0.0435707 20:3 21:-0.434361 22:-0.812113 23:-2.1356 24:3 25:-0.409262 26:0.399131 27:0.529412 28:1.42579 29:1.35839 30:-0.75029 31:1.62678 32:0.857338 33:0.348238 34:-0.694793 35:-1.44559 36:-2.66023 37:-1.37029 38:-2.05226 39:0.828851 40:-2.16232 41:1.02337 42:-0.671493 43:-1.05974 44:-0.582479 45:-1.70253 46:0.818182 47:0.75 48:-1.93373 49:1.38146 50:-0.317948 51:-1.0576 52:-0.568677 53:-0.233601 54:-0.326125 55:-1.47283 56:-1.16618 57:-1.25345 58:0.201307 59:0.0716757 60:-0.26645 61:-0.267207 62:-0.532156 63:-1.21392 64:-1.97709 65:-0.881062 66:0.0717061 67:0.238828 68:-1.38425 69:0.0656596 70:-1.47867 71:0.00652944 72:0.9 73:-0.368834 74:0.136726 75:-1.42013 76:-2.3328 77:-0.24762 78:-1.24695 79:-1.79124 80:-1.35814 81:0.27324 82:1.23529 83:-1 84:-0.545455 85:-2.63239 86:1.26767 87:-0.333333 88:1.55067 89:-2.37105 90:0.962745 91:-1.83716 92:-0.483508 93:-0.844384 94:-2.43299 95:-0.824244 
-0 0 2.92140993761893 0 0 1:-0.55545 2:-1.04749 3:-0.213351 4:-3 5:-0.566598 6:-0.81662 7:-1.17704 8:1.36364 9:-1.5 10:-0.401601 11:-0.12 12:-0.268463 13:1.30906 14:-0.263493 15:-0.276596 16:0.0496838 17:0.353286 18:-1.02493 19:0.0939163 20:3 21:-0.571491 22:-0.836078 23:-1.40545 24:3 25:-0.574468 26:-0.176471 27:-0.176471 28:-0.303494 29:-0.424824 30:-0.961006 31:1.31999 32:-0.249181 33:-0.785525 34:-0.74789 35:-1.75647 36:-2.14523 37:-1.84621 38:-1.52874 39:0.956239 40:-1.49423 41:0.241786 42:-0.438175 43:-2.09119 44:-0.636831 45:-1.76378 46:0.818182 48:-2.09666 49:-0.420895 50:-0.251592 51:-0.976639 52:-0.458548 53:-0.0512792 54:-0.319758 55:-0.452856 56:-0.950118 57:-1.16311 58:0.0459907 59:-0.0340753 60:-0.23553 61:-0.301461 62:-0.44666 63:-1.12887 64:-1.80734 65:-0.78336 66:-0.0341405 67:0.144759 68:-1.33166 69:0.114977 70:-1.3065 71:-0.0698229 72:0.9 73:-0.319272 74:-0.0486 75:-1.3015 76:-3 77:-0.301857 78:-1.14723 79:-1.66183 80:-1.31344 81:0.547063 82:1.94118 83:-1 85:-2.17673 86:1.14706 87:0.333333 88:1.86957 89:-2.70958 90:0.756296 91:-1.37888 92:-0.360279 93:-0.752811 94:-1.38435 95:-0.705057 
-0 0 0 8 0 1:-1.54394 2:-1.16863 3:-0.309531 4:-3 5:-0.761258 6:0.398739 7:-1.62451 8:-1.90909 9:-1.5 10:-0.401601 11:-2.04 12:-1.40383 13:2.14609 14:0.472159 15:0.12766 16:0.26536 17:2.07288 18:0.185037 19:1.02427 20:3 21:-0.774914 22:-0.190161 23:-2.42338 24:3 25:-1.0025 26:-0.882353 27:-0.882353 28:1.25666 29:1.18272 30:-1.47075 31:1.31999 32:0.434011 33:-0.202476 34:-1.3671 35:-2.06735 36:-2.73907 37:-2.21063 38:-2.48872 39:2.07722 40:-2.34445 41:1.8233 42:-0.683551 43:-2.12141 44:-1.51564 45:-0.553376 46:-0.272727 47:-0.75 48:-2.49503 49:0.732187 50:-1.3165 51:-1.61023 52:-1.354 53:1.31834 54:-1.44176 55:-1.6046 56:-1.62653 57:-1.73526 58:-0.830433 59:0.692865 60:-1.31693 61:-1.44161 62:-1.35493 63:-1.71649 64:-1.37399 65:-1.41888 66:0.692809 67:-0.964666 68:-2.06712 69:-1.02057 70:-2.07338 71:-1.37386 72:0.6 73:-1.45809 74:-1.34786 75:-2.0273 76:-3 77:-1.43311 78:-1.8271 79:-1.20103 80:-2.02444 81:0.547063 82:0.529412 83:0.333333 84:-0.818182 85:-2.65071 86:0.657465 87:1 88:0.154724 89:-2.71931 90:-0.437435 91:-2.19039 92:-1.47862 93:-1.40293 94:-2.35531 95:-1.74347 
-0.12830376965821 0 1.726708687596148 0 0 1:-1.89326 2:-1.05563 3:-0.219818 4:-3 5:-0.711591 6:1.05439 7:-1.63149 8:-1.63636 9:-1.5 10:-0.401601 11:-1.8 12:-1.86546 13:2.42839 14:-0.53068 15:-0.638298 16:0.169262 17:1.96587 18:0.825058 19:1.59939 20:3 21:-1.56296 22:-0.657096 23:-2.13143 24:3 25:-1.76095 26:-1.58824 27:-1.58824 28:0.744484 29:0.652019 30:-1.9805 31:1.31999 32:-0.187445 33:-0.966655 34:-1.93857 35:-2.37823 36:-2.75036 37:-2.51632 38:-2.56119 39:2.46473 40:-2.13589 41:1.97242 42:-1.13875 43:-2.7224 44:-2.0547 45:0.270484 46:-1.36364 47:-1.5 48:-2.75449 49:0.0386668 50:-2.20821 51:-2.11574 52:-2.13532 53:1.34963 54:-2.32549 55:-0.892168 56:-2.1306 57:-2.22459 58:-1.41343 59:1.44409 60:-2.20322 61:-2.31913 62:-2.1322 63:-2.21134 64:-0.974365 65:-1.99778 66:1.44396 67:-2.00329 68:-2.60397 69:-2.03051 70:-2.60929 71:-2.50997 72:-0.3 73:-2.44764 74:-2.50707 75:-2.54411 76:-3 77:-2.43926 78:-2.30262 79:-0.965557 80:-2.53964 81:0.547063 82:0.176471 83:-1 84:-0.545455 85:-2.69974 86:0.904453 87:1.66667 88:-0.525092 89:2.91218 90:-0.141704 91:-2.4935 92:-1.92507 93:-1.98587 94:-2.09276 95:-2.13084 
-0 0 0 7.556664013259607 0 1:-0.791798 2:-0.842947 3:-0.050964 4:-3 5:-1.04756 6:-0.783765 7:-0.555805 8:-2.72727 9:-1 10:-0.401601 11:-0.84 12:-0.157046 13:1.21463 14:0.559827 15:-0.255319 16:0.191156 17:1.0918 18:-1.12256 19:0.101054 20:3 21:-0.599234 22:-1.24453 23:-2.19711 24:3 25:-0.754693 26:-0.529412 27:-0.529412 28:0.754896 29:0.662785 30:-1.21588 31:1.31999 32:0.411815 33:-0.134775 34:-0.86781 35:-1.91191 36:-2.51542 37:-1.82926 38:-2.14296 39:1.12338 40:-2.28073 41:1.17701 42:-0.705954 43:-2.35807 44:-0.656476 45:-1.8266 46:-0.818182 47:-0.75 48:-2.18227 49:0.703509 50:-0.648705 51:-0.859094 52:-0.785247 53:0.214179 54:-0.738605 55:-1.57928 56:-0.929683 57:-1.35132 58:0.419646 59:0.18996 60:-0.581705 61:-0.677282 62:-0.713875 63:-1.26031 64:-1.6833 65:-0.987978 66:0.189872 67:0.017958 68:-1.2608 69:-0.105294 70:-1.32907 71:-0.459392 72:0.6 73:-0.583016 74:-0.369808 75:-1.38205 76:-3 77:-0.483529 78:-1.30197 79:-1.49865 80:-1.31671 81:0.086053 82:2.29412 83:-0.333333 84:0.272727 85:-2.54356 86:0.798339 87:0.333333 88:1.21154 89:-2.79526 90:0.0893893 91:-1.73869 92:-0.291597 93:-0.894676 94:-2.09855 95:-0.638108 
-0 0 3.730436019990979 0 0 1:-1.63682 2:-0.444857 3:0.265085 4:-3 5:-0.766706 6:0.88205 7:-1.37716 8:-1.09091 9:-1.5 10:-0.401601 11:2.76 12:-1.7391 13:2.35416 14:-0.734125 15:-0.744681 16:0.388604 17:1.97705 18:0.639053 19:1.37422 20:3 21:-1.29801 22:-0.349737 23:-1.78824 24:3 25:-1.61076 26:-1.58824 27:-1.58824 28:0.82807 29:0.738482 30:-1.9805 31:1.31999 32:-0.0274473 33:-0.760516 34:-1.71299 35:-2.37823 36:-2.7253 37:-2.3257 38:-2.2487 39:2.51139 40:-1.76835 41:1.36403 42:-0.959254 43:-2.31662 44:-1.86764 45:-0.0526788 46:-0.818182 47:-1.5 48:-2.64054 49:0.189672 50:-2.25703 51:-1.83325 52:-2.09429 53:1.54638 54:-2.40127 55:-0.35837 56:-1.88105 57:-2.03639 58:-1.35106 59:1.13839 60:-2.29417 61:-2.43833 62:-2.12635 63:-2.04124 64:-0.800659 65:-1.77085 66:1.13835 67:-1.98789 68:-2.33576 69:-2.02186 70:-2.36222 71:-2.61438 72:-0.6 73:-2.42655 74:-2.63723 75:-2.32141 76:-3 77:-2.43336 78:-2.13061 79:-0.848234 80:-2.31651 81:0.547063 82:-1.94118 83:-1 84:-0.272727 85:-2.65149 86:0.836784 87:1.66667 88:-0.601723 89:2.78257 90:-0.209368 91:-2.37032 92:-1.83862 93:-1.78142 94:-2.13868 95:-2.05705 
-0.02270129200836148 0 2.640920624653816 0 4.68072068310306 1:-2.06352 2:-1.88212 3:-1.29391 4:-3 5:-1.14497 6:1.12743 7:-1.15763 8:-0.818182 9:-1.19103 10:0.222637 11:2.76 12:-1.84007 13:2.41365 14:-0.454778 15:-0.319149 16:0.402969 17:1.97831 18:0.786987 19:1.23838 20:3 21:-1.24763 22:-0.376228 23:-2.14115 24:3 25:-1.59574 26:-1.14791 27:-0.882353 28:0.745082 29:0.652636 30:1.5825 31:-1.94848 32:-0.131281 33:-0.888594 34:-1.8069 35:-2.06735 36:-2.72812 37:-1.91695 38:-2.53776 39:1.95351 40:-2.10411 41:1.92364 42:-1.22911 43:-1.33107 44:-1.9679 45:0.265521 46:-1.36364 47:-0.75 48:-2.56997 49:-0.0777036 50:-2.31384 51:-1.92369 52:-2.20826 53:0.940286 54:-2.40722 55:-0.736349 56:-1.9642 57:-2.17189 58:-1.26274 59:1.35616 60:-2.29256 61:-2.39149 62:-2.17966 63:-2.12629 64:-0.585325 65:-1.93367 66:1.35606 67:-2.18494 68:-2.39515 69:-2.23053 70:-2.43031 71:-2.75094 72:-1.2 73:-2.58408 74:-2.73935 75:-2.39773 76:2.3328 77:-2.55647 78:-2.272 79:-0.753912 80:-2.36653 81:0.542422 82:-1.11452 83:-0.333333 84:-1.09091 85:-2.65628 86:1.13141 87:1 88:-0.895367 89:2.4622 90:0.589407 91:-2.42412 92:-1.94435 93:-1.88309 94:-2.09309 95:-2.14722 
-0 0 0 8 0 1:-0.428764 2:-1.75259 3:-0.773141 4:-3 5:-1.75012 6:-0.61434 7:-0.805874 8:-2.45455 9:-1.25281 10:-0.401601 11:-1.08 12:0.213713 13:0.882391 14:1.21673 15:0.319149 16:1.33482 17:1.56188 18:-1.42623 19:0.0270521 20:3 21:-0.197329 22:-1.14494 23:-2.49558 24:3 25:-0.394243 26:0.176471 27:0.176471 28:1.53544 29:1.47238 30:-0.706132 31:1.31999 32:0.957429 33:0.465958 34:-0.533183 35:-1.60103 36:-2.67105 37:-1.57653 38:-2.27656 39:1.4404 40:-2.53709 41:1.41477 42:-0.532946 43:-2.31786 44:-0.293226 45:-2.02711 46:-0.818182 48:-1.99089 49:1.37811 50:-0.431821 51:-0.850629 52:-0.594966 53:0.714265 54:-0.503076 55:-2.05209 56:-0.878304 57:-1.19322 58:0.850846 59:0.000783341 60:-0.417591 61:-0.488327 62:-0.583518 63:-1.15979 64:-1.87507 65:-0.815824 66:0.000828653 67:0.0675789 68:-1.23929 69:-0.0173829 70:-1.26014 71:-0.306588 72:0.6 73:-0.446686 74:-0.251701 75:-1.27832 76:-3 77:-0.394252 78:-1.14274 79:-1.7172 80:-1.26324 81:0.086053 82:1.39392 83:-0.333333 84:0.545455 85:-2.67068 86:0.453689 87:-0.333333 88:1.328 89:-2.78238 90:-0.435705 91:-1.81706 92:-0.218758 93:-0.786017 94:-2.48124 95:-0.56672 
-0 0 0 8 0 1:-0.63663 2:-2.16173 3:-1.52586 4:-3 5:-1.81312 6:-0.735406 7:-0.807905 8:2.45455 9:-1.5 10:0.120804 11:-0.12 12:0.376387 13:0.727339 14:1.15223 15:0.319149 16:1.59092 17:1.42328 18:-1.55005 19:-0.272147 20:3 21:-0.304483 22:-1.21596 23:-2.41905 24:3 25:-0.334168 26:0.516339 27:0.882353 28:1.3791 29:1.30988 30:-0.650218 31:1.59789 32:0.882408 33:0.390931 34:-0.447073 35:-1.29015 36:-2.63179 37:-1.23248 38:-2.19289 39:0.251267 40:-2.47719 41:1.26421 42:-0.676467 43:-1.18007 44:-0.169536 45:-2.14636 46:-0.818182 47:0.75 48:-1.79938 49:1.34328 50:-0.428005 51:-0.94679 52:-0.585188 53:-1.19968 54:-0.487146 55:-2.05662 56:-0.896432 57:-1.133 58:0.782372 59:-0.0687382 60:-0.415722 61:-0.463476 62:-0.59132 63:-1.12887 64:-2.15673 65:-0.750998 66:-0.0687782 67:0.18116 68:-1.24644 69:0.153182 70:-1.19064 71:-0.0875472 72:0.6 73:-0.313836 74:-0.0539716 75:-1.1866 76:-2.246 77:-0.306908 78:-1.06896 79:-2.01361 80:-1.23041 81:-0.570001 82:0.882353 83:-1 84:-0.545455 85:-2.64252 86:1.38264 87:-1 88:1.71625 89:-2.41138 90:1.15017 91:-1.76448 92:-0.135934 93:-0.752811 94:-2.41195 95:-0.485036 
-0.8890605227861053 0 8 5.105304639237961 1.05956847586843 1:-1.31941 2:-2.28265 3:-1.19396 4:-3 5:-2.19092 6:-0.0506539 7:-0.178902 8:-2.18182 9:-1.5 10:-0.401601 11:-1.32 12:-0.396501 13:1.41466 14:1.22777 15:0.978723 16:1.74953 17:2.209 18:-0.908764 19:0.518569 20:3 21:-0.437129 22:-1.12877 23:-2.79697 24:3 25:-0.619524 26:-0.176471 27:-0.176471 28:2.03612 29:1.99364 30:-0.961006 31:1.31999 32:0.939339 33:0.362888 34:-0.99321 35:-1.75647 36:-2.86201 37:-1.83496 38:-2.71027 39:1.08129 40:-2.80844 41:2.29622 42:-0.863613 43:-2.7174 44:-0.83774 45:-1.50883 46:-0.818182 48:-2.32586 49:1.40841 50:-1.05602 51:-1.02466 52:-1.17382 53:0.160577 54:-1.13175 55:-2.23438 56:-1.07188 57:-1.65245 58:0.516526 59:0.578693 60:-1.01715 61:-1.08939 62:-1.14379 63:-1.61598 64:-1.47474 65:-1.32432 66:0.578676 67:-0.464469 68:-1.51015 69:-0.553444 70:-1.5422 71:-1.01102 72:0.9 73:-1.05075 74:-0.951432 75:-1.64993 76:-3 77:-0.992351 78:-1.64082 79:-1.28094 80:-1.62734 81:0.547063 82:0.882353 83:-1 84:1.09091 85:-2.83671 86:0.570563 87:0.333333 88:0.6498 89:2.91059 90:-0.565844 91:-2.24392 92:-0.837552 93:-1.28871 94:-2.68268 95:-1.1601 
-0 0 0 3.046307087159679 0 1:-1.64851 2:-2.01031 3:-1.46551 4:-3 5:-1.05486 6:0.56279 7:-1.37845 8:-0.818182 9:-1.01351 10:0.288154 11:2.76 12:-1.39074 13:2.13764 14:-0.133251 15:-0.0851064 16:0.947361 17:2.61223 18:0.168377 19:0.711171 20:3 21:-0.786236 22:-0.23297 23:-2.04823 24:3 25:-1.13016 26:-0.529201 27:-0.176471 28:1.92652 29:1.87943 30:1.6778 31:-1.55601 32:0.733221 33:0.0994069 34:-1.37479 35:-1.75647 36:-2.8894 37:-1.60618 38:-2.2706 39:2.09448 40:-1.99545 41:1.40386 42:-0.945846 43:-0.99907 44:-1.51381 45:-0.468863 46:-0.272727 48:-2.30787 49:1.25952 50:-2.05397 51:-1.72513 52:-1.88781 53:1.30298 54:-2.18011 55:-0.815332 56:-1.74016 57:-1.78795 58:-0.805445 59:0.767282 60:-2.11064 61:-2.22562 62:-1.95097 63:-1.82474 64:-0.422484 65:-1.47954 66:0.767277 67:-2.08797 68:-2.15256 69:-2.09176 70:-2.14707 71:-2.57907 72:-1.2 73:-2.34128 74:-2.62216 75:-2.06368 76:2.31301 77:-2.37728 78:-1.87859 79:-0.551172 80:-2.08942 81:0.742533 82:-1.32114 83:0.333333 84:-1.09091 85:-2.79163 86:1.16503 87:0.333333 88:-1.34713 89:2.35118 90:0.737705 91:-2.38486 92:-1.60142 93:-1.52745 94:-2.64104 95:-1.85156 
-0 0.1477744243178921 8 0 2.495970301842035 1:-1.4268 2:-0.0783694 3:0.556044 4:-3 5:0.160004 6:0.683912 7:-1.58051 8:-1.09091 9:-1.33696 10:-0.401601 11:1.32 12:-1.8809 13:2.43731 14:-0.994187 15:-0.957447 16:-0.513135 17:1.10401 18:0.848394 19:1.41396 20:3 21:-1.34865 22:-0.117844 23:-1.43733 24:3 25:-1.57322 26:-1.58824 27:-1.58824 28:-0.218052 29:-0.337683 30:-1.9805 31:1.31999 32:-0.617216 33:-1.34356 34:-1.73765 35:-2.37823 36:-2.40071 37:-2.55152 38:-1.97802 39:2.43166 40:-1.39765 41:0.901993 42:-0.761098 43:-2.64754 44:-1.94806 45:0.0689859 46:-0.272727 47:-1.5 48:-2.67445 49:-0.805447 50:-2.13514 51:-1.76224 52:-1.9521 53:1.56369 54:-2.31422 55:0.0126584 56:-1.76169 57:-1.92346 58:-1.62184 59:0.965468 60:-2.15362 61:-2.32788 62:-1.976 63:-1.93299 64:-0.985936 65:-1.63732 66:0.965381 67:-1.80833 68:-2.26488 69:-1.82119 70:-2.25054 71:-2.4444 72:-0.3 73:-2.25247 74:-2.46301 75:-2.22191 76:-3 77:-2.26742 78:-2.03297 79:-0.946264 80:-2.24104 81:0.547063 82:-0.966752 83:-0.333333 84:-0.272727 85:-2.33392 86:0.91254 87:1.66667 88:-0.301566 89:2.88832 90:0.0649613 91:-2.06404 92:-1.80556 93:-1.65359 94:-1.45311 95:-2.02866 
-0 0 1.680649398947065 0 0 1:-1.91423 2:-0.933488 3:-0.122846 4:-3 5:-1.01961 6:1.14428 7:-1.45807 8:-1.36364 9:-1 10:-0.401601 11:2.76 12:-1.84336 13:2.41556 14:-0.541205 15:-0.595745 16:0.381272 17:1.78109 18:0.791896 19:1.56082 20:3 21:-1.30104 22:-0.465747 23:-2.08857 24:3 25:-1.70839 26:-1.58824 27:-1.58824 28:0.496794 29:0.396206 30:-1.9805 31:1.31999 32:-0.297633 33:-1.06972 34:-1.84521 35:-2.37823 36:-2.67589 37:-2.38326 38:-2.51411 39:2.70425 40:-2.06792 41:1.87495 42:-1.09923 43:-2.19003 44:-1.99117 45:0.299553 46:-1.36364 47:-1.5 48:-2.70624 49:-0.355962 50:-2.36564 51:-1.9895 52:-2.23022 53:1.58816 54:-2.48948 55:-0.654112 56:-2.01508 57:-2.18695 58:-1.24987 59:1.38103 60:-2.34007 61:-2.46441 62:-2.20648 63:-2.15722 64:-0.868674 65:-1.95194 66:1.38098 67:-2.12329 68:-2.49292 69:-2.16059 70:-2.51045 71:-2.72897 72:-0.6 73:-2.57349 74:-2.7139 75:-2.4705 76:-3 77:-2.55007 78:-2.27989 79:-0.906659 80:-2.45265 81:0.547063 82:-0.529412 83:-1 84:-0.545455 85:-2.61656 86:0.91221 87:1.66667 88:-0.684684 89:2.74195 90:-0.0915511 91:-2.40294 92:-1.94353 93:-1.92033 94:-1.94873 95:-2.14652 
-0 0 0 0.556849412729581 0 1:-0.256296 2:-1.32053 3:-0.430126 4:-3 5:-0.824124 6:-0.969925 7:-1.03905 8:-2.45455 9:-1.28571 10:-0.401601 11:-1.08 12:0.0476263 13:1.03474 14:0.743506 15:-0.0638298 16:0.846012 17:1.61941 18:-1.29405 19:-0.0602789 20:3 21:-0.161191 22:-0.879662 23:-2.07797 24:3 25:-0.349186 26:0.176471 27:0.176471 28:1.59802 29:1.53745 30:-0.706132 31:1.31999 32:1.05376 33:0.586711 34:-0.521423 35:-1.60103 36:-2.66387 37:-1.74544 38:-1.8937 39:1.7955 40:-2.11925 41:0.768683 42:-0.337255 43:-3 44:-0.361564 45:-2.05533 46:-0.272727 48:-1.9711 49:1.54739 50:-0.635939 51:-0.806182 52:-0.624623 53:1.37816 54:-0.805668 55:-1.4757 56:-0.827439 57:-1.01255 58:0.62608 59:-0.20406 60:-0.657529 61:-0.809934 62:-0.676004 63:-1.06701 64:-1.56816 65:-0.622558 66:-0.204014 67:-0.210294 68:-1.20306 69:-0.27129 70:-1.18986 71:-0.709119 72:0.9 73:-0.630912 74:-0.684166 75:-1.16561 76:-3 77:-0.626963 78:-0.980329 79:-1.45867 80:-1.21649 81:0.086053 82:1.66387 83:-0.333333 84:0.545455 85:-2.64147 86:0.349006 87:-0.333333 88:1.20942 89:-3 90:-0.479805 91:-1.75967 92:-0.255775 93:-0.686712 94:-2.50807 95:-0.603051 
-0 0 8 0 0 1:-1.48296 2:-1.31479 3:-0.733828 4:-3 5:-1.08624 6:0.482808 7:-1.26304 8:-1.09091 9:-1.5 10:-0.251609 11:2.76 12:-1.40621 13:2.14763 14:-0.609941 15:-0.510638 16:0.887918 17:1.98331 18:0.188055 19:1.0026 20:3 21:-1.11464 22:-0.556355 23:-1.78732 24:3 25:-1.41552 26:-1.06878 27:-0.882353 28:1.0266 29:0.944082 30:1.38849 31:-1.77985 32:0.148511 33:-0.554377 34:-1.52703 35:-2.06735 36:-2.74623 37:-2.10765 38:-2.18395 39:1.98302 40:-1.8006 41:1.24844 42:-0.982883 43:-1.86174 44:-1.6073 45:-0.469997 46:-1.36364 47:-0.75 48:-2.53214 49:0.402379 50:-2.21631 51:-1.75796 52:-2.02952 53:1.09942 54:-2.36339 55:-0.391421 56:-1.74611 57:-1.92346 58:-0.926687 59:0.965468 60:-2.24378 61:-2.38021 62:-2.06783 63:-1.94845 64:-0.646425 65:-1.63732 66:0.965381 67:-2.005 68:-2.22595 69:-1.99825 70:-2.19519 71:-2.59389 72:-0.9 73:-2.35648 74:-2.62561 75:-2.15913 76:2.84729 77:-2.39141 78:-1.99072 79:-0.734069 80:-2.19772 81:0.708341 82:-1.94118 83:-1 84:-0.272727 85:-2.68767 86:0.964051 87:1 88:-1.06324 89:2.63603 90:0.199207 91:-2.33184 92:-1.60486 93:-1.67175 94:-2.24277 95:-1.85458 
-2.277394735287898 0 0 0 1.058043903582772 1:-1.70548 2:-1.59162 3:-0.929501 4:-3 5:-0.537197 6:0.415922 7:-1.49683 8:-0.545455 9:-1.5 10:0.121569 11:2.76 12:-1.52966 13:2.22611 14:-0.665348 15:-0.595745 16:-0.0184766 17:1.00983 18:0.349094 19:0.754663 20:3 21:-0.996386 22:-0.117956 23:-1.58947 24:3 25:-1.28786 26:-0.716411 27:-0.529412 28:-0.169322 29:-0.287917 30:1.67108 31:-1.6865 32:-0.476219 33:-1.15511 34:-1.44167 35:-1.91191 36:-2.36258 37:-1.79444 38:-1.97573 39:1.73415 40:-1.54227 41:0.89832 42:-0.887524 43:-1.20702 44:-1.6167 45:-0.457094 46:-0.272727 47:-0.75 48:-2.3623 49:-0.738584 50:-2.23966 51:-1.66141 52:-1.99955 53:0.907208 54:-2.39159 55:-0.204272 56:-1.69287 57:-1.76537 58:-1.17646 59:0.735165 60:-2.24612 61:-2.40136 62:-1.99973 63:-1.73969 64:-0.578833 65:-1.4535 66:0.735181 67:-2.13687 68:-2.08368 69:-2.15858 70:-2.10058 71:-2.73972 72:-1.5 73:-2.44264 74:-2.75823 75:-2.03187 76:2.3328 77:-2.44413 78:-1.86608 79:-0.651528 80:-2.02341 81:0.095335 82:-1.94118 83:-1 84:-1.36364 85:-2.29892 86:1.22273 87:0.333333 88:-1.26241 89:2.42096 90:0.876707 91:-1.91397 92:-1.54625 93:-1.42948 94:-1.49131 95:-1.80314 
-0 0 0 8 0 1:-0.330022 2:-1.41397 3:-0.50431 4:-3 5:-0.59482 6:-1.26366 7:-1.56835 8:-2.18182 9:-1.5 10:-0.401601 11:-0.84 12:0.403339 13:0.701065 14:0.707871 15:0.0851064 16:0.0296716 17:0.397648 18:-1.57006 19:-0.326883 20:3 21:0.309381 22:-0.495216 23:-1.71675 24:3 25:0.176471 26:0.882353 27:0.882353 28:0.0829556 29:-0.0295945 30:-0.196383 31:1.31999 32:0.369688 33:-0.0213464 34:-0.0270157 35:-1.29015 36:-2.12648 37:-1.59512 38:-1.41087 39:1.85218 40:-1.72488 41:0.0871204 42:0.135397 43:-1.97329 44:0.0859258 45:-2.22095 46:0.272727 47:0.75 48:-1.61619 49:0.184324 50:-0.760368 51:-0.455323 52:-0.514975 53:1.80658 54:-1.02454 55:-1.08133 56:-0.510529 57:-0.538269 58:0.847753 59:-0.69169 60:-0.72409 61:-0.986739 62:-0.483231 63:-0.479381 64:-1.21468 65:-0.131512 66:-0.691815 67:-0.377968 68:-0.778922 69:-0.468962 70:-0.825151 71:-1.11081 73:-0.726779 74:-1.05505 75:-0.76083 76:-3 77:-0.660319 78:-0.521962 79:-1.0904 80:-0.725181 81:0.086053 82:-0.176471 83:-0.333333 84:0.818182 85:-2.12305 86:-0.0184397 87:-1 88:1.11025 89:2.67213 90:-0.65145 91:-0.973354 92:0.238739 93:-0.0783285 94:-1.67798 95:-0.108868 
-0 0 0 2.827017641006629 0 1:-1.68709 2:-1.87172 3:-1.17887 4:-3 5:-0.679455 6:0.296703 7:-1.35796 8:-0.545455 9:-1.5 10:0.362636 11:2.76 12:-1.43329 13:2.16503 14:-0.462316 15:-0.234043 16:0.177286 17:1.69219 18:0.222789 19:0.564145 20:3 21:-0.834074 22:0.0708116 23:-1.65718 24:3 25:-1.04005 26:-0.398693 27:-0.176471 28:0.725526 29:0.632419 30:1.80737 31:-1.53985 32:0.174646 33:-0.458633 34:-1.27812 35:-1.75647 36:-2.59573 37:-1.61079 38:-1.94904 39:1.50877 40:-1.57531 41:0.855655 42:-0.824592 43:-0.927596 44:-1.4799 45:-0.543734 46:-0.818182 48:-2.24023 49:0.340387 50:-1.89505 51:-1.51324 52:-1.7211 53:0.683736 54:-2.0403 55:-0.376787 56:-1.53172 57:-1.64492 58:-1.14138 59:0.56851 60:-1.91824 61:-2.06295 62:-1.73755 63:-1.62371 64:-0.595484 65:-1.31577 66:0.568456 67:-1.88979 68:-1.91993 69:-1.89719 70:-1.92646 71:-2.40274 72:-1.2 73:-2.13861 74:-2.43561 75:-1.87297 76:2.06425 77:-2.15687 78:-1.75798 79:-0.631596 80:-1.87419 81:0.628416 82:-1.58824 83:-0.333333 84:-0.818182 85:-2.4962 86:1.36033 87:0.333333 88:-1.31364 89:2.32699 90:1.18173 91:-2.017 92:-1.48992 93:-1.29745 94:-2.08216 95:-1.75345 
-0 0 0 8 0 1:-0.872599 2:-2.45557 3:-1.33125 4:-3 5:-2.82748 6:-0.200601 7:-0.761613 8:-2.18182 9:-1.19065 10:-0.401601 11:-1.08 12:0.242846 13:0.855048 14:1.82152 15:1.76596 16:2.56359 17:2.17161 18:-1.44881 19:0.215611 20:3 21:0.305174 22:-0.866398 23:-2.84921 24:3 25:0.0563204 26:0.529412 27:0.529412 28:2.33959 29:2.31013 30:-0.451257 31:1.31999 32:1.38433 33:0.920928 34:-0.360762 35:-1.44559 36:-2.82831 37:-1.50955 38:-2.56791 39:1.63527 40:-2.82565 41:1.98652 42:-0.481096 43:-2.97592 44:-0.179514 45:-1.96429 46:-0.818182 47:0.75 48:-1.99457 49:1.70132 50:-0.689138 51:-0.824399 52:-0.78172 53:0.99475 54:-0.778779 55:-2.34958 56:-0.869978 57:-1.25345 58:1.22265 59:0.0716757 60:-0.705944 61:-0.800626 62:-0.786856 63:-1.21392 64:-1.51256 65:-0.881062 66:0.0717061 67:-0.223605 68:-1.25508 69:-0.308199 70:-1.2915 71:-0.715681 72:1.2 73:-0.724084 74:-0.685652 75:-1.33602 76:-3 77:-0.682568 78:-1.24063 79:-1.36378 80:-1.31172 81:0.547063 82:1.46382 83:-1 84:0.818182 85:-2.78627 86:0.150463 87:-0.333333 88:0.795294 89:-2.99233 90:-1.01657 91:-1.99496 92:-0.452287 93:-0.844384 94:-2.79152 95:-0.794154 
-0 0 0 4.136841493712058 0 1:-1.23035 2:-1.46667 3:-0.546146 4:-3 5:-0.901476 6:-0.344447 7:-1.22868 8:-0.545455 9:-1.5 10:-0.401601 11:2.76 12:-0.786941 13:1.71829 14:-0.203046 15:-0.659574 16:0.166488 17:0.9768 18:-0.525775 19:0.374449 20:3 21:-0.947179 22:-0.857821 23:-1.8209 24:3 25:-1.13016 26:-0.529412 27:-0.529412 28:0.213678 29:0.10466 30:-1.21588 31:1.31999 32:-0.0953141 33:-0.717823 34:-1.1673 35:-1.91191 36:-2.42901 37:-1.8672 38:-2.01767 39:1.42581 40:-1.8798 41:0.966332 42:-0.856074 43:-1.72745 44:-1.1161 45:-1.33852 46:-0.818182 47:-0.75 48:-2.30709 49:-0.0172097 50:-2.26603 51:-1.39165 52:-1.94665 53:0.595769 54:-2.44897 55:-0.848452 56:-1.45437 57:-1.58469 58:-0.423762 59:0.48763 60:-2.24431 61:-2.43315 62:-1.91521 63:-1.5232 64:-0.563876 65:-1.24764 66:0.48769 67:-1.88238 68:-1.78502 69:-1.93272 70:-1.83268 71:-2.63029 72:-1.5 73:-2.25414 74:-2.62391 75:-1.78125 76:-3 77:-2.22363 78:-1.59724 79:-0.591174 80:-1.74183 81:0.086053 82:-2.64706 83:-1 84:-0.545455 85:-2.43104 86:1.06465 87:0.333333 88:-1.33602 89:2.59239 90:0.542713 91:-1.82688 92:-0.864104 93:-1.18443 94:-1.76795 95:-1.18491 
-0 0.1383098990438269 0 0 0 1:-1.79882 2:-1.53206 3:-0.819816 4:-3 5:-0.854046 6:0.857647 7:-1.14349 8:-1.36364 9:-1.5 10:-0.191854 11:2.52 12:-1.68616 13:2.32238 14:-0.500277 15:-0.553191 16:0.666298 17:2.4397 18:0.563657 19:1.24109 20:3 21:-1.56913 22:-0.914607 23:-2.14084 24:3 25:-1.71589 26:-1.3634 27:-1.23529 28:1.45215 29:1.38578 30:1.39582 31:-2.00421 32:0.182733 33:-0.579386 34:-1.89838 35:-2.22279 36:-2.90384 37:-2.14785 38:-2.55851 39:2.26352 40:-2.18203 41:1.96681 42:-1.28232 43:-1.89217 44:-1.94946 45:-0.0834495 46:-0.272727 47:-1.5 48:-2.64824 49:0.742293 50:-2.56058 51:-2.03901 52:-2.38588 53:1.18841 54:-2.6682 55:-0.941558 56:-2.03669 57:-2.20954 58:-1.18416 59:1.41863 60:-2.61758 61:-2.71878 62:-2.44314 63:-2.24227 64:-0.663641 65:-1.97942 66:1.41865 67:-2.35477 68:-2.52338 69:-2.34406 70:-2.50097 71:-2.94565 72:-1.2 73:-2.73845 74:-3 75:-2.45239 76:2.77557 77:-2.78657 78:-2.26278 79:-0.802884 80:-2.48704 81:0.103539 82:-2.29412 83:-0.333333 84:-0.545455 85:-2.857 86:0.987127 87:1 88:-0.831119 89:2.64589 90:0.128517 91:-2.63694 92:-1.83907 93:-2.02353 94:-2.44474 95:-2.05743 
-0 0 0 8 0 1:-1.65814 2:-1.87815 3:-1.34482 4:-3 5:-0.923593 6:0.463777 7:-1.60348 8:-0.818182 9:-1.5 10:0.155767 11:2.76 12:-1.42775 13:2.16148 14:-0.0526799 15:-0.0425532 16:0.235044 17:1.5594 18:0.215657 19:0.656214 20:3 21:-0.671591 22:-0.0560751 23:-2.05806 24:3 25:-1.05507 26:-0.513768 27:-0.176471 28:0.546062 29:0.447041 30:1.72974 31:-1.57575 32:0.0295792 33:-0.622079 34:-1.32884 35:-1.75647 36:-2.56314 37:-1.6075 38:-2.24474 39:1.89026 40:-1.97841 41:1.35684 42:-0.890085 43:-0.920551 44:-1.5055 45:-0.465743 46:-0.818182 48:-2.27944 49:-0.067448 50:-1.98662 51:-1.66658 52:-1.81728 53:1.10547 54:-2.1195 55:-0.835061 56:-1.66698 57:-1.72773 58:-0.822537 59:0.68229 60:-1.93978 61:-2.07282 62:-1.77429 63:-1.67784 64:-0.427987 65:-1.41025 66:0.682313 67:-1.99509 68:-2.06804 69:-2.02115 70:-2.0681 71:-2.51974 72:-1.2 73:-2.26749 74:-2.50102 75:-1.99227 76:2.13369 77:-2.24272 78:-1.8325 79:-0.535326 80:-1.98009 81:0.588503 82:-1.23529 83:-0.333333 84:-1.09091 85:-2.47751 86:1.15085 87:0.333333 88:-1.18501 89:2.3246 90:0.710899 91:-2.02337 92:-1.49612 93:-1.35885 94:-1.97837 95:-1.75894 
-0 0 0 0 0.9681569512646715 1:-1.71402 2:-2.32661 3:-2.45366 4:-3 5:-0.848319 6:0.516054 7:-0.0682357 8:-1.09091 9:-1.5 10:1.96058 11:2.52 12:-1.4381 13:2.16812 14:0.474324 15:0.446809 16:0.256047 17:1.6235 18:0.229003 19:-0.736281 20:3 21:0.325301 22:1.62809 23:-1.92623 24:3 25:-0.221527 26:0.725492 27:1.94118 28:0.619181 29:0.522527 30:2.29778 31:-1.06688 32:0.465884 33:-0.0286713 34:-0.577153 35:-0.823833 36:-2.421 37:0.511452 38:-1.81592 39:0.673181 40:-1.59271 41:0.649815 42:-0.951955 43:1.0817 44:-1.10625 45:-0.438092 46:-0.818182 47:2.25 48:-0.932477 49:0.160769 50:-0.803062 51:-0.639446 52:-0.90339 53:-0.540351 54:-0.746111 55:-0.767714 56:-0.757395 57:-1.06524 58:-1.08357 59:-0.145506 60:-0.748132 61:-0.67774 62:-0.8652 63:-1.01289 64:-0.984384 65:-0.678555 66:-0.145456 67:-1.04597 68:-0.906887 69:-1.18708 70:-1.01696 71:-1.33878 72:-2.1 73:-1.20816 74:-1.23005 75:-1.0145 76:0.753996 77:-1.09622 78:-1.31718 79:-0.855957 80:-0.935249 81:1.93009 82:-0.882353 83:-0.333333 84:0.545455 85:-2.18417 86:2.27615 87:-1.66667 88:-1.22724 89:1.5716 90:2.57608 91:-1.5179 92:-1.51061 93:-0.629214 94:-2.02143 95:-1.77174 
-0 0 3.775673002763991 0 0 1:-1.60152 2:-0.493711 3:0.226299 4:-3 5:-0.40195 6:0.784156 7:-1.31888 8:-1.09091 9:-1 10:-0.401601 11:2.76 12:-1.83248 13:2.40923 14:-0.639398 15:-0.723404 16:-0.0999125 17:1.61044 18:0.775666 19:1.40202 20:3 21:-1.205 22:-0.350871 23:-1.88297 24:3 25:-1.61827 26:-1.58824 27:-1.58824 28:0.362855 29:0.258156 30:-1.9805 31:1.31999 32:-0.306251 33:-1.05204 34:-1.79051 35:-2.37823 36:-2.60935 37:-2.44944 38:-2.31378 39:2.48255 40:-1.85761 41:1.48358 42:-0.96839 43:-2.38269 44:-1.95508 45:0.0272966 46:-1.90909 47:-1.5 48:-2.68276 49:-0.399616 50:-2.29704 51:-1.80693 52:-2.1225 53:1.50582 54:-2.44889 55:-0.423962 56:-1.84729 57:-2.05144 58:-1.23123 59:1.16209 60:-2.29989 61:-2.45071 62:-2.12635 63:-2.04124 64:-0.890405 65:-1.7888 66:1.16194 67:-1.95675 68:-2.31656 69:-1.98764 70:-2.33841 71:-2.61336 72:-0.3 73:-2.41817 74:-2.62433 75:-2.31397 76:-3 77:-2.41597 78:-2.14648 79:-0.902264 80:-2.30585 81:0.547063 82:-1.58824 83:-1 84:-0.272727 85:-2.54621 86:0.909165 87:1.66667 88:-0.526103 89:2.80372 90:-0.0154567 91:-2.28091 92:-1.83806 93:-1.78142 94:-1.86549 95:-2.05656 
-0 0 5.356241236220328 0 0 1:-1.58554 2:-1.17292 3:-0.312933 4:-3 5:-0.671635 6:0.507155 7:-0.90792 8:-1.36364 9:-1.5 10:-0.401601 11:-1.8 12:-1.47435 13:2.19123 14:-0.26059 15:-0.340426 16:0.0705877 17:1.75588 18:0.276091 19:1.19719 20:3 21:-1.31792 22:-0.802492 23:-2.13345 24:3 25:-1.43054 26:-1.23529 27:-1.23529 28:0.795851 29:0.705147 30:-1.72563 31:1.31999 32:-0.00127571 33:-0.717823 34:-1.68569 35:-2.22279 36:-2.70003 37:-2.37715 38:-2.43796 39:1.77858 40:-2.15893 41:1.72186 42:-0.99279 43:-2.9316 44:-1.72974 45:-0.398246 46:0.272727 47:-1.5 48:-2.64371 49:0.281757 50:-2.2489 51:-1.63896 52:-2.0704 53:0.856002 54:-2.4061 55:-1.07233 56:-1.65318 57:-1.99875 58:-0.960533 59:1.07984 60:-2.23783 61:-2.39651 62:-2.05792 63:-1.97165 64:-0.979022 65:-1.72612 66:1.07985 67:-1.66552 68:-2.13447 69:-1.69908 70:-2.1437 71:-2.4013 72:-0.3 73:-2.20129 74:-2.39326 75:-2.1681 76:-3 77:-2.18346 78:-2.04717 79:-0.948745 80:-2.15612 81:0.086053 82:-0.529412 83:-0.333333 84:-0.818182 85:-2.66698 86:0.828081 87:1 88:-0.360834 89:-2.97823 90:-0.206774 91:-2.30826 92:-1.50907 93:-1.69905 94:-2.12113 95:-1.77037 
-0 0.02818002648578476 0 0.7029766088662706 0 1:-0.429287 2:-1.1405 3:-0.287198 4:-3 5:-0.49384 6:-1.09491 7:-1.38376 8:-2.45455 9:-1.02 10:-0.401601 11:-1.08 12:0.032843 13:1.04801 14:0.299477 15:-0.170213 16:-0.0295725 17:0.527337 18:-1.28199 19:-0.0936952 20:3 21:-0.168945 22:-0.826602 23:-1.69637 24:3 25:-0.31164 26:0.176471 27:0.176471 28:0.0870857 29:-0.0253561 30:-0.706132 31:1.31999 32:0.158308 33:-0.32323 34:-0.505066 35:-1.60103 36:-2.22929 37:-1.80074 38:-1.59707 39:1.92823 40:-1.76025 41:0.33469 42:-0.253394 43:-2.96551 44:-0.358838 45:-2.05263 46:-0.272727 48:-1.95779 49:0.050449 50:-0.568985 51:-0.787151 52:-0.545433 53:1.66189 54:-0.752768 55:-0.916258 56:-0.835798 57:-0.937265 58:0.562228 59:-0.285919 60:-0.532084 61:-0.714769 62:-0.516389 63:-0.896907 64:-1.55997 65:-0.543081 66:-0.286051 67:-0.181472 68:-1.15328 69:-0.276111 70:-1.18553 71:-0.689102 72:0.6 73:-0.601333 74:-0.62661 75:-1.13414 76:-3 77:-0.538333 78:-0.906068 79:-1.46423 80:-1.11644 81:0.086053 82:1.23529 83:-0.333333 84:0.545455 85:-2.25045 86:0.364201 87:-0.333333 88:1.17417 89:2.9896 90:-0.405224 91:-1.29858 92:-0.0721257 93:-0.507045 94:-1.68089 95:-0.421746 
-0 0 0 0 0.2890776423651104 1:-0.806104 2:-1.15484 3:-0.364212 4:-3 5:-1.23048 6:-0.787571 7:-0.56118 8:-2.72727 9:-1 10:-0.489337 11:-0.84 12:-0.143849 13:1.20328 14:0.778911 16:0.989763 17:1.77386 18:-1.13392 19:0.0776819 20:3 21:-0.297331 22:-0.931015 23:-2.26013 24:3 25:-0.55194 26:-0.220529 27:-0.176471 28:1.6796 29:1.62233 30:1.39867 31:-1.15252 32:0.988151 33:0.483642 34:-0.698288 35:-1.75647 36:-2.71788 37:-1.79759 38:-2.1307 39:1.19899 40:-2.29366 41:1.15588 42:-0.560624 43:-2.75753 44:-0.551314 45:-1.90218 46:-0.818182 48:-2.11282 49:1.49165 50:-0.245896 51:-0.782709 52:-0.495418 53:0.331207 54:-0.282357 55:-1.61945 56:-0.754186 57:-1.23839 58:0.499723 59:0.0538547 60:-0.25811 61:-0.286843 62:-0.518828 63:-1.24485 64:-1.78744 65:-0.864714 66:0.0538624 67:0.198105 68:-1.21802 69:0.203997 70:-1.16709 71:-0.0406239 72:1.2 73:-0.25895 74:-0.0741345 75:-1.246 76:2.84729 77:-0.29516 78:-1.21689 79:-1.62101 80:-1.30106 81:0.217877 82:2.64706 83:-1.66667 84:0.818182 85:-2.6937 86:0.665202 87:0.333333 88:1.27523 89:-2.92279 90:-0.0965231 91:-1.90666 92:-0.455129 93:-0.877885 94:-2.5423 95:-0.796897 
-0 0 0 0 1.231028105814866 1:-0.606972 2:-1.52779 3:-0.892241 4:-3 5:0.104709 6:-1.09323 7:-1.21586 8:1.90909 9:-1.5 10:0.35996 11:0.12 12:-0.305324 13:1.33977 14:-0.490353 15:-0.702128 16:-0.556726 17:0.346428 18:-0.991935 19:-0.44144 20:3 21:-0.363343 22:-0.167354 23:-0.828389 24:3 25:-0.326658 26:0.641793 27:0.882353 28:-0.257094 29:-0.37752 30:-0.748227 31:1.88576 32:-0.0170489 33:-0.465958 34:-0.435458 35:-1.29015 36:-2.06053 37:-1.2811 38:-0.952908 39:0.465397 40:-0.828867 41:-0.453626 42:-0.303405 43:-0.502438 44:-0.475972 45:-1.84858 46:0.818182 47:0.75 48:-1.58647 49:-0.0396783 50:-0.430401 51:-0.712187 52:-0.419915 53:-1.06619 54:-0.575454 55:0.0634963 56:-0.725206 57:-0.764115 58:-0.329939 59:-0.46785 60:-0.448287 61:-0.590997 62:-0.43577 63:-0.734536 64:-1.5944 65:-0.362527 66:-0.467913 67:0.383015 68:-0.961715 69:0.317913 70:-0.965937 71:-0.00699277 72:0.9 73:-0.138071 74:0.0192877 75:-0.905347 76:-1.68975 77:-0.110713 78:-0.80312 79:-1.53825 80:-0.905166 81:-0.65657 82:0.529412 83:0.333333 84:-1.09091 85:-2.02701 86:1.86196 87:-1 88:1.52479 89:-2.17998 90:1.7706 91:-1.07649 92:-0.256005 93:-0.338313 94:-1.42198 95:-0.603281 
