svm_type c_svc
kernel_type rbf
gamma 0.015625
nr_class 2
total_sv 205
rho -0.0721543
label 1 2
probA -6.05918
probB -0.264039
nr_sv 105 100
SV
1.081274526864032 1:-1.11969 2:0.0521017 3:0.583152 4:-3 5:2.07657 6:-1.38057 7:0.321489 8:1.09091 9:-0.6 10:-0.368448 11:0.12 12:-1.07369 13:2.06486 14:-1.86387 15:-2.41259 16:-2.52773 17:-0.683112 18:-0.674067 19:-0.190876 20:3 21:-1.80795 22:-1.20407 23:0.247285 24:3 25:-1.36303 26:-0.9 27:-0.9 28:-1.806 29:-1.91144 30:-1.51188 31:1.08716 32:-1.75644 33:-2.11531 34:-0.136543 35:-1.84774 36:-0.466671 37:-1.7487 38:0.56088 39:-0.457943 40:0.859454 41:0.860212 42:-0.346206 43:-1.32013 44:0.00375911 45:-1.74915 46:0.882353 47:1.75862 48:-2.22977 49:1.03117 50:-0.567339 51:-0.270862 52:-0.190321 53:-0.529914 54:-0.985055 55:2.4708 56:-0.289363 57:-0.166948 58:1.70664 59:1.61285 60:-0.562904 61:-0.981209 62:-0.185584 63:-0.11588 64:-1.16176 65:1.1229 66:1.61287 67:0.258163 68:-0.180409 69:0.247412 70:-0.194128 71:-0.178577 72:1.34483 73:0.150886 74:-0.170452 75:-0.0708258 76:-3 77:0.157417 78:-0.0983714 79:-0.585308 80:-0.0616816 81:2.14459 82:1.95 83:-0.692308 84:-0.230769 85:-0.642866 86:1.13797 87:1.5 88:-0.906565 89:-0.638483 90:0.683012 91:0.279402 92:1.35777 93:1.15989 94:1.07237 95:0.165031 
0.19569013778986 1:0.191224 2:0.298594 3:0.428863 4:-0.333333 5:2.21427 6:-2.31545 7:0.332178 8:0.818182 9:0.6 10:0.0139162 11:0.6 12:0.238144 13:1.04323 14:-0.848838 15:-1.93007 16:-2.54883 17:-1.31614 18:-1.77965 19:-2.37708 20:0.529412 21:0.0256345 22:-0.58992 23:0.640363 24:0.75 25:0.30735 26:0.679488 27:3 28:-1.93662 29:-2.03237 30:-0.652446 31:1.50248 32:-1.27648 33:-1.24058 34:1.00551 35:4.44089e-016 36:0.112583 37:0.200929 38:1.36224 39:-0.3164 40:1.28811 41:0.151087 42:-1.10306 43:2.6289 44:1.03841 45:-2.50319 46:2.29412 47:3 48:0.891411 49:1.13876 50:0.668731 51:0.192606 52:0.823116 53:-0.368376 54:0.582502 55:2.39697 56:0.183597 57:0.98145 58:2.11944 59:0.891139 60:0.66677 61:0.577665 62:0.82106 63:1.03777 64:-1.18137 65:1.88761 66:0.891136 67:1.16657 68:0.66754 69:1.16077 70:0.664481 71:1.25874 72:2.37931 73:1.30492 74:1.26149 75:1.11954 76:2.246 77:1.30475 78:0.997767 79:-0.570917 80:1.11611 81:1.86633 82:1.2 83:0.692308 84:-1.61538 85:0.0132559 86:1.59173 87:-2 88:-0.644534 89:0.550159 90:1.2535 91:1.25928 92:1.95572 93:1.92205 94:1.22309 95:1.09319 
1.087598603386641 1:-0.0206544 2:0.251143 3:0.746337 4:1 5:1.33248 6:-2.18606 7:0.135147 8:-0.545455 9:-0.6 10:0.216342 11:0.12 12:0.299517 13:0.985924 14:-0.648321 15:-1.48951 16:-1.87317 17:-0.488578 18:-1.81925 19:-2.54031 20:-0.882353 21:-0.97459 22:-1.87774 23:-0.678269 24:-0.75 25:-0.461024 26:-0.3 27:3 28:-1.09416 29:-1.2217 30:1.25178 31:-1.41055 32:-0.814337 33:-1.12741 34:0.414767 35:0.75 36:-0.687916 37:0.500378 38:0.519211 39:-0.273901 40:0.098828 41:0.905923 42:-1.8729 43:2.99856 44:0.748407 45:-2.50666 46:1.23529 47:3 48:-0.088221 49:1.49899 50:0.166842 51:-0.577225 52:0.274617 53:-0.151463 54:0.111558 55:1.9294 56:-0.598631 57:0.293423 58:2.22 59:1.27832 60:0.182419 61:0.130223 62:0.285501 63:0.35279 64:-0.295061 65:1.44528 66:1.27833 67:0.148165 68:-0.0861585 69:0.126712 70:-0.105651 71:0.368332 72:0.724138 73:0.484142 74:0.392471 75:0.365559 76:-3 77:0.501029 78:0.450566 79:0.223444 80:0.380111 81:1.98382 82:1.76111 83:-0.230769 84:-0.923077 85:-0.94418 86:1.23857 87:-2 88:-1.13296 89:1.02827 90:0.910431 91:0.505272 92:1.91668 93:1.48517 94:0.383579 95:1.02896 
0.7643103509649414 1:1.97704 2:1.4394 3:1.72054 4:-1.66667 5:2.41461 6:-2.92476 7:-0.827168 8:-1.09091 9:-0.183753 10:0.216342 11:0.36 12:2.11443 13:-1.25988 14:-0.598849 15:-2.53846 16:-2.69734 17:-2.97753 18:-2.70433 19:-2.10898 20:1.94118 21:1.69834 22:-0.391914 23:2.39411 24:2.25 25:2.03786 26:2.1 27:3 28:-2.99241 29:-2.77884 30:1.25178 31:0.40597 32:-2.42154 33:-1.07642 34:2.43464 35:-0.5 36:3 37:-0.597398 38:2.77606 39:-0.167346 40:2.57297 41:-0.620222 42:1.30453 43:2.38068 44:2.41144 45:-2.91412 46:2.29412 47:3 48:2.44978 49:0.83938 50:2.33047 51:1.24398 52:2.40594 53:0.942769 54:2.30733 55:2.78708 56:1.25342 57:2.43845 58:2.59285 59:0.329362 60:2.31522 61:2.29102 62:2.39029 63:2.51073 64:-1.62361 65:2.71233 66:0.329358 67:2.41165 68:1.68815 69:2.42711 70:1.70042 71:2.64797 72:2.17241 73:2.63307 74:2.63663 75:2.26707 76:-3 77:2.61597 78:2.42683 79:-1.93562 80:2.25275 81:1.98382 82:1.56644 83:0.692308 84:-0.923077 85:2.88134 86:0.38364 87:-2 88:0.535081 89:0.416698 90:0.520879 91:2.7385 92:2.71782 93:2.75016 94:2.47362 95:2.44891 
2 1:2.10068 2:1.29832 3:1.60487 4:-1.66667 5:2.33633 6:-2.84826 7:-1.4701 8:-1.09091 9:-1.09694 10:-0.368448 11:0.12 12:1.64763 13:-0.558237 14:-0.911139 15:-2.62238 16:-2.77323 17:-2.8825 18:-2.51924 19:-2.17097 20:1.58824 21:1.28714 22:-0.296883 23:2.59128 24:1.5 25:1.63697 26:1.8 27:3 28:-2.96669 29:-2.88037 30:1.25178 31:0.178905 32:-2.4309 33:-1.35666 34:2.16506 35:-0.391304 36:2.73896 37:-0.462556 38:2.69302 39:-0.169661 40:2.74533 41:-0.585498 42:0.708765 43:2.43853 44:2.11264 45:-2.85365 46:1.58824 47:3 48:2.17162 49:0.761081 50:2.00487 51:0.582719 52:2.09458 53:0.785934 54:1.9702 55:2.87536 56:0.558095 57:2.15514 58:2.42863 59:0.419596 60:2.01633 61:1.9829 62:2.10558 63:2.25322 64:-1.60753 65:2.56155 66:0.419613 67:1.77878 68:1.12521 69:1.762 70:1.10405 71:2.1548 72:1.96552 73:2.13887 74:2.1718 75:1.79692 76:-3 77:2.15152 78:2.12892 79:-1.72537 80:1.81438 81:1.98382 82:1.57912 83:-0.230769 84:-1.84615 85:2.65889 86:0.378457 87:-2 88:0.06693 89:0.445087 90:0.463592 91:2.59337 92:2.54965 93:2.61421 94:2.70331 95:2.13311 
0.3727729429712907 1:0.639536 2:0.270936 3:0.614107 4:-1.66667 5:2.36513 6:-2.48652 7:0.0555051 8:1.09091 9:-1 10:0.0993833 11:-0.12 12:0.485787 13:0.805968 14:-0.912724 15:-2.37063 16:-2.77283 17:-2.27946 18:-1.93455 19:-2.15654 20:1.58824 21:0.821906 22:0.324367 23:1.82778 24:1.5 25:1.07572 26:1.69412 27:3 28:-2.68327 29:-2.63222 30:-0.130063 31:1.72929 32:-2.03512 33:-1.3637 34:1.67394 35:-0.391304 36:1.54337 37:-0.200724 38:2.15772 39:-0.330138 40:2.40719 41:-0.334916 42:0.0732259 43:2.22196 44:1.4545 45:-2.59716 46:2.64706 47:3 48:1.68092 49:0.86238 50:1.18636 51:0.896867 52:1.39796 53:-0.581999 54:1.07271 55:2.71588 56:0.871194 57:1.66948 58:2.08392 59:0.593038 60:1.19525 61:1.08296 62:1.40553 63:1.75365 64:-1.0349 65:2.2931 66:0.593045 67:1.95036 68:1.32656 69:1.93441 70:1.30541 71:1.92003 72:2.37931 73:1.96733 74:1.9356 75:1.75526 76:2.16475 77:1.97805 78:1.55855 79:-0.226794 80:1.77076 81:1.91951 82:1.65 83:1.61538 84:-1.84615 85:1.65296 86:1.46686 87:-2 88:-0.889271 89:0.344662 90:1.05613 91:2.06435 92:2.08292 93:2.34059 94:2.17275 95:1.30601 
2 1:0.949472 2:0.354784 3:0.831307 4:-1 5:1.5073 6:-2.63384 7:-0.184843 8:-0.818182 9:0.918236 10:0.216342 11:0.84 12:1.54165 13:-0.413368 14:-0.828533 15:-1.6993 16:-1.88615 17:-2.05277 18:-2.47383 19:-2.20588 20:1.23529 21:1.01206 22:-0.911043 23:1.51572 24:1.5 25:1.1559 26:1.5 27:3 28:-2.36396 29:-2.40329 30:1.25178 31:-0.0481597 32:-1.57813 33:-1.1925 34:1.70804 35:-0.272727 36:0.862274 37:-0.25425 38:1.9924 39:-0.242465 40:1.79548 41:-0.246654 42:-0.157871 43:2.66023 44:1.8452 45:-2.82586 46:0.882353 47:3 48:1.3946 49:0.924738 50:1.03638 51:0.619534 52:1.28375 53:0.0450652 54:0.923782 55:2.72018 56:0.625829 57:1.5683 58:2.55284 59:0.632635 60:1.01279 61:0.896616 62:1.26354 63:1.62489 64:-0.151693 65:2.23544 66:0.632631 67:0.911459 68:1.08135 69:0.936813 70:1.0922 71:1.04775 72:-0.103448 73:1.36235 74:1.01988 75:1.59321 76:-3 77:1.33734 78:1.63437 79:1.58602 80:1.57805 81:1.98382 82:1.72515 83:-0.692308 84:-1.38462 85:0.663012 86:1.6777 87:-2 88:-2.35326 89:1.43092 90:1.21135 91:1.86004 92:2.41385 93:2.26777 94:1.76391 95:1.88496 
0.01779279199553501 1:0.0879872 2:1.63484 3:1.88076 4:1 5:2.13372 6:-2.07718 7:-0.400563 8:-0.272727 9:0.6 10:-0.368448 11:-0.12 12:-0.234296 13:1.45393 14:-1.36841 15:-2.18182 16:-2.61372 17:-1.28715 18:-1.4442 19:-2.66994 20:-1.23529 21:-0.782955 22:-1.02256 23:0.595156 24:-1.5 25:-0.474388 26:-0.6 27:3 28:-2.043 29:-2.12877 30:1.25178 31:-1.63761 32:-1.65637 33:-1.74594 34:0.480549 35:1 36:0.00245988 37:0.742889 38:1.04596 39:-0.261862 40:1.14017 41:0.39741 42:-1.91192 43:2.99961 44:0.607952 45:-2.30969 46:0.882353 47:3 48:0.417113 49:1.01144 50:0.343755 51:-0.687293 52:0.410456 53:-0.112383 54:0.333398 55:2.47988 56:-0.704215 57:0.450253 58:1.99347 59:1.17998 60:0.364106 61:0.358881 62:0.425807 63:0.517597 64:-1.01952 65:1.54989 66:1.17997 67:0.1169 68:-0.128286 69:0.102114 70:-0.144721 71:0.476401 72:1.34483 73:0.538834 74:0.497358 75:0.42378 76:-3 77:0.553757 78:0.512832 79:-0.418345 80:0.438631 81:1.98382 82:1.65 83:-0.230769 84:-0.230769 85:-0.172962 86:1.16057 87:-2 88:-0.74233 89:0.985799 90:0.80018 91:0.869607 92:1.75575 93:1.59408 94:1.35149 95:0.769533 
0.7820465861708841 1:0.518867 2:0.167906 3:0.678095 4:-0.333333 5:2.19754 6:-2.31907 7:-0.759376 9:-0.977143 10:0.216342 11:-0.12 12:0.19385 13:1.08401 14:-1.27204 15:-2.30769 16:-2.63106 17:-1.93682 18:-1.75053 19:-2.2999 20:0.529412 21:-0.0205598 22:-0.314574 23:1.54346 24:0.75 25:0.327394 26:0.9 27:3 28:-2.481 29:-2.4943 30:1.25178 31:-0.502289 32:-1.9302 33:-1.61286 34:1.11471 35:4.44089e-016 36:0.849588 37:0.103832 38:1.73176 39:-0.161171 40:1.99988 41:-0.0949962 42:-0.876048 43:2.49497 44:1.07743 45:-2.49361 46:1.94118 47:3 48:0.977422 49:0.904752 50:0.874651 51:-0.132594 52:0.994226 53:0.424587 54:0.798255 55:2.68527 56:-0.148894 57:1.08769 58:2.01698 59:0.840272 60:0.881203 61:0.806069 62:0.999755 63:1.16137 64:-1.75202 65:1.95239 66:0.840249 67:0.987146 68:0.393665 69:0.977989 70:0.378772 71:1.26678 72:2.17241 73:1.26572 74:1.27724 75:0.970516 76:-3 77:1.27241 78:1.06913 79:-1.46494 80:0.982673 81:1.98382 82:1.51286 83:-0.230769 84:-1.84615 85:0.791703 86:0.654368 87:-2 88:-0.313432 89:0.474163 90:0.371284 91:1.52593 92:1.94481 93:1.99682 94:1.91846 95:1.07518 
2 1:0.696535 2:1.74099 3:1.9678 4:0.333333 5:2.27301 6:-2.52788 7:0.302884 9:0.6 10:0.216342 11:-0.6 12:0.803287 13:0.477163 14:-0.886611 15:-2.37063 16:-2.38626 17:-1.59721 18:-2.11551 19:-2.41883 20:-0.176471 21:0.105456 22:-0.962778 23:1.00136 25:0.420935 26:0.3 27:3 28:-2.06629 29:-2.14959 30:1.25178 31:-0.956418 32:-1.35819 33:-1.23354 34:1.19062 35:0.333333 36:0.304512 37:0.0878462 38:1.59481 39:-0.279201 40:1.43127 41:-0.00841292 42:-0.985631 43:2.86805 44:1.32718 45:-2.67339 46:0.529412 47:3 48:1.12521 49:1.12251 50:0.988549 51:0.309738 52:1.09185 53:-0.193336 54:0.954587 55:2.45033 56:0.317477 57:1.17369 58:2.26976 59:0.80052 60:0.946558 61:0.907823 62:1.05318 63:1.19742 64:-1.09487 65:2.00421 66:0.800467 67:1.23969 68:0.801966 69:1.26775 70:0.81907 71:1.45825 72:2.17241 73:1.50259 74:1.41971 75:1.30232 76:-3 77:1.4681 78:1.24115 79:-0.421767 80:1.27184 81:1.98382 82:1.65 83:-1.15385 84:-1.84615 85:0.123549 86:1.17624 87:-2 88:-0.960416 89:0.732805 90:0.852711 91:1.42522 92:2.17489 93:2.01842 94:1.38024 95:1.46325 
1.961531151373134 1:-1.70841 2:-1.60927 3:-0.999312 4:-3 5:1.69805 6:-0.859777 7:0.46042 8:-3 9:-0.6 10:0.0903881 11:2.76 12:-1.45379 13:2.29739 14:-0.869249 15:-1.57343 16:-2.19892 17:0.402156 18:-0.221859 19:-0.395169 20:3 21:-0.685289 22:0.145682 23:-0.804839 24:3 25:-0.828508 26:0.153674 27:0.3 28:-1.01337 29:-1.1413 30:2.20946 31:-1.63575 32:-0.922388 33:-1.32266 34:0.107805 35:-1.51852 36:-0.815196 37:-1.09674 38:0.334324 39:-0.816456 40:0.439167 41:1.1225 42:-0.135215 43:-0.03225 44:-0.00609073 45:-1.32994 46:0.882353 47:2.17241 48:-1.65511 49:1.27766 50:-0.125494 51:-0.0285654 52:0.120512 53:-1.49154 54:-0.429536 55:2.16677 56:-0.0430753 57:0.0354132 58:1.67092 59:1.45647 60:-0.114547 61:-0.418553 62:0.129735 63:0.0901288 64:-1.55898 65:1.26761 66:1.45644 67:0.0247725 68:0.066055 69:0.0170852 70:0.0565408 71:-0.292245 72:0.103448 73:0.144439 74:-0.282579 75:0.166969 76:1.01701 77:0.150655 78:-0.0207273 79:-0.875967 80:0.172719 81:2.64668 82:2.1 83:0.230769 84:1.61538 85:-0.786421 86:1.43299 87:0.5 88:-0.212151 89:2.34169 90:1.28744 91:0.281179 92:1.14244 93:1.3059 94:0.318163 95:-0.140026 
2 1:-2.21375 2:0.602198 3:1.03415 4:-3 5:1.47264 6:0.492321 7:1.08995 8:-1.36364 9:-0.6 10:-0.368448 11:3 12:-2.23604 13:2.69907 14:-2.521 15:-2.51748 16:-1.99909 17:0.436898 18:1.0339 19:1.36769 20:3 21:-2.44229 22:-0.973206 23:-0.250088 24:3 25:-2.33853 26:-2.1 27:-2.1 28:-1.49511 29:-1.61525 30:-2.36223 31:1.08716 32:-1.97413 33:-2.64472 34:-0.812813 35:-2.17696 36:-0.976538 37:-2.2067 38:-0.0550779 39:-1.46392 40:0.581682 41:1.66761 42:-0.838526 43:-2.4045 44:-0.740013 45:0.0148797 46:0.176471 47:1.34483 48:-2.72663 49:0.809739 50:-1.16093 51:-0.698088 52:-0.856918 53:-1.34143 54:-1.52447 55:2.77149 56:-0.715074 57:-0.88027 58:1.4249 59:2.33286 60:-1.15695 61:-1.52091 62:-0.852928 63:-0.84206 64:-1.28382 65:0.566284 66:2.33283 67:-0.53138 68:-0.704549 69:-0.540648 70:-0.716724 71:-0.987184 72:0.724138 73:-0.626524 74:-0.980534 75:-0.71456 76:-3 77:-0.620748 78:-0.845281 79:-0.639144 80:-0.706793 81:2.14459 82:1.35 83:-1.15385 84:0.461538 85:-1.08864 86:1.38395 87:2.5 88:-0.739439 89:2.87394 90:1.61409 91:-0.41646 92:0.712983 93:0.598283 94:0.744994 95:-0.702291 
0.2929964089344862 1:0.0192226 2:2.07877 3:2.24473 4:1 5:2.01272 6:-2.04396 7:-0.336694 8:-0.272727 9:0.6 10:-0.368448 11:1.32 12:-0.225324 13:1.44661 14:-1.2612 15:-2.22378 16:-2.47295 17:-1.29418 18:-1.45112 19:-2.66251 20:-1.23529 21:-0.378132 22:-0.74678 23:0.622042 24:-1.5 25:-0.334076 26:-0.6 27:3 28:-2.05524 29:-2.13973 30:1.25178 31:-1.63761 32:-1.61391 33:-1.66386 34:0.612695 35:1 36:0.0624571 37:0.759465 38:1.12261 39:-0.27349 40:1.23295 41:0.334239 42:-1.82815 43:2.99798 44:0.678898 45:-2.30439 46:0.529412 47:3 48:0.667636 49:0.961193 50:0.241887 51:-0.574113 52:0.378018 53:-0.153373 54:0.166144 55:2.54783 56:-0.590543 57:0.56661 58:2.03827 59:1.1112 60:0.249855 61:0.175547 62:0.384683 63:0.630901 64:-1.54417 65:1.62598 66:1.11121 67:0.0857765 68:-0.00775631 69:0.0749096 70:-0.0226457 71:0.356038 72:2.37931 73:0.496517 74:0.367839 75:0.55101 76:-3 77:0.505005 78:0.599141 79:-0.987803 80:0.562637 81:1.98382 82:1.65 83:0.230769 85:-0.064711 86:1.37918 87:-2 88:-0.417911 89:1.03339 90:1.09051 91:0.966149 92:1.74654 93:1.66748 94:1.36658 95:0.754939 
0.00369065872362697 1:-1.70509 2:-0.182837 3:-2.21253 4:-3 5:1.57219 6:-0.5655 7:0.801179 8:1.36364 9:-1.4 10:1.08183 11:-2.28 12:-1.6202 13:2.39126 14:-0.873636 15:-1.82517 16:-2.18881 17:-0.439685 18:0.00356555 19:-1.19275 20:3 21:1.17894 22:2.67451 23:0.48161 24:3 25:0.173719 26:0.733334 27:3 28:-1.85676 29:-1.95873 30:-1.29929 31:2.90368 32:-1.23267 33:-1.24762 34:0.964017 35:-0.777778 36:0.00359617 37:0.105321 38:1.23695 39:-0.656339 40:2.04146 41:0.244257 42:0.476803 43:1.30696 44:0.312103 45:-1.0409 46:1.23529 47:3 48:0.539142 49:0.852137 50:0.754985 51:0.892077 52:0.84936 53:-1.8795 54:0.711968 55:2.81024 56:0.824171 57:0.854975 58:1.55323 59:0.95451 60:0.80682 61:0.770637 62:0.891002 63:0.939914 64:-0.942897 65:1.80935 66:0.954455 67:2.2504 68:1.00834 69:2.17962 70:0.951897 71:1.97549 72:2.58621 73:1.76411 74:2.04612 75:1.07927 76:0.542007 77:1.82212 78:0.523755 79:-0.250657 80:1.1219 81:1.76517 82:1.95 83:-0.230769 84:-2.07692 85:0.508655 86:0.345422 87:-2 88:-2.36894 89:0.0197157 90:-0.0409656 91:1.15839 92:1.05691 93:1.86205 94:1.13001 95:-0.256918 
0.002154312536252777 1:-0.42063 2:-0.211104 3:0.367362 4:-3 5:1.4607 6:-2.39208 7:0.201652 9:-0.6 10:-0.368448 11:2.52 12:0.666242 13:0.622652 14:-0.524163 15:-1.40559 16:-1.8066 17:-0.583574 18:-2.03966 19:-1.33215 20:3 21:0.913035 22:-0.244795 23:0.691688 24:3 25:0.962138 26:1.5 27:1.5 28:-1.05948 29:-1.18723 30:0.188836 31:1.08716 32:-0.142619 33:-0.167684 34:1.49107 35:-1.1893 36:-0.369951 37:-1.1353 38:1.57895 39:-0.453209 40:1.41815 41:0.00195338 42:1.17398 43:0.03738 44:1.43114 45:-2.6221 46:1.23529 47:2.58621 48:-0.293011 49:1.58774 50:1.01457 51:1.11758 52:1.33487 53:-1.25885 54:0.688834 55:2.4762 56:1.06186 57:1.35076 58:2.29216 59:0.722328 60:0.998944 61:0.677819 62:1.31381 63:1.39828 64:-1.21482 65:2.10926 66:0.722341 67:1.22635 68:1.26685 69:1.18329 70:1.22859 71:0.88054 72:-0.310345 73:1.36529 74:0.899114 75:1.43948 76:-3 77:1.37718 78:1.32163 79:-0.620808 80:1.45083 81:2.14459 82:1.95 83:-0.692308 84:2.30769 85:-0.398251 86:1.72751 87:-0.5 88:-0.988354 89:2.32462 90:1.29047 91:1.28761 92:2.06163 93:2.13709 94:0.355217 95:1.27003 
0.3651493867717858 1:-2.473 2:-1.25834 3:-1.11496 4:-3 5:2.14971 6:0.505542 7:0.678854 8:-1.63636 9:-0.6 10:0.567222 11:2.76 12:-2.35999 13:2.75381 14:-2.47635 15:-2.39161 16:-2.35139 17:1.36387 18:1.28917 19:0.922552 20:3 21:-2.29212 22:-0.710892 23:-0.225416 24:3 25:-2.24499 26:-1.48889 27:-1.2 28:-0.754571 29:-0.881948 30:1.6916 31:-2.50492 32:-1.43305 33:-2.15635 34:-0.822006 35:-1.93004 36:-1.25079 37:-1.65248 38:-0.0201779 39:-1.01573 40:0.659615 41:1.61295 42:-0.955662 43:-0.976704 44:-0.787171 45:0.0670607 46:0.176471 47:1.55172 48:-2.51774 49:1.14469 50:-1.16053 51:-0.8339 52:-0.856708 53:-0.925797 54:-1.50226 55:2.79524 56:-0.830768 57:-0.839798 58:1.40002 59:2.28269 60:-1.1843 61:-1.52618 62:-0.878486 63:-0.821459 64:-1.44722 65:0.600169 66:2.28262 67:-0.831361 68:-0.790143 69:-0.808387 70:-0.779045 71:-1.17797 72:0.103448 73:-0.76675 74:-1.20621 75:-0.719154 76:1.229 77:-0.793476 78:-0.822591 79:-0.692343 80:-0.736053 81:2.49828 82:1.65 83:-0.692308 84:1.15385 85:-1.31958 86:1.36742 87:1.5 88:-0.57316 89:2.56255 90:1.50665 91:-0.513417 92:0.668237 93:0.615418 94:0.123368 95:-0.75734 
0.3637820494082173 1:-0.277361 2:0.79877 3:1.19531 4:-3 5:1.62482 6:-2.14703 7:1.24151 8:-2.72727 9:-1 10:-0.368448 11:2.76 12:0.287436 13:0.99728 14:-0.400304 15:-1.90909 16:-1.54882 17:-0.227148 18:-1.81152 19:-0.971641 20:3 21:0.536851 22:-0.277516 23:0.149312 24:3 25:0.461024 26:0.6 27:0.6 28:-0.822113 29:-0.949878 30:-0.448931 31:1.08716 32:-0.110898 33:-0.242724 34:1.2009 35:-1.43621 36:-0.579161 37:-1.38659 38:1.24359 39:-0.816919 40:1.02573 41:0.239194 42:1.27634 43:-0.624684 44:1.15327 45:-2.49966 46:0.882353 47:2.17241 48:-0.927351 49:1.64591 50:0.870805 51:1.40648 52:1.17993 53:-3 54:0.495325 55:2.27312 56:1.41828 57:1.09275 58:2.18304 59:0.837879 60:0.795539 61:0.432941 62:1.09336 63:1.07382 64:-1.67455 65:1.95545 66:0.837876 67:1.57975 68:1.3897 69:1.6239 70:1.40913 71:1.03577 72:0.931034 73:1.49579 74:0.98076 75:1.4037 76:-3 77:1.43951 78:1.06948 79:-1.34535 80:1.36445 81:1.98382 82:1.5 83:-0.230769 84:0.923077 85:-0.610065 86:1.86835 88:0.834464 89:2.48223 90:1.4833 91:0.991742 92:1.88125 93:1.94398 94:0.172142 95:0.971107 
0.1995910751902308 1:1.09886 2:-0.0857782 3:0.470111 4:-3 5:1.92819 6:-2.62457 7:-0.891402 8:-1.09091 9:-0.6 10:-0.368448 11:-0.12 12:1.11551 13:0.123912 14:-1.19192 15:-1.67832 16:-2.39993 17:-2.20139 18:-2.2767 19:-1.28073 20:3 21:0.0506533 22:-1.1937 23:1.58311 24:3 25:0.674833 26:1.2 27:1.2 28:-2.53949 29:-2.53712 30:-0.0237531 31:1.08716 32:-1.97331 33:-1.57886 34:1.26547 35:-1.2716 36:1.00727 37:-1.37774 38:1.80914 39:-0.0725721 40:1.75283 41:-0.141736 42:0.975328 43:-1.06552 44:1.47142 45:-2.75058 46:2.29412 47:2.37931 48:-0.80639 49:0.909511 50:0.614682 51:0.484202 52:1.0655 53:0.957093 54:0.165533 55:2.65058 56:0.462126 57:1.19899 58:2.33135 59:0.789019 60:0.622705 61:0.173653 62:1.07306 63:1.27468 64:-1.33067 65:2.01936 66:0.789014 67:1.17157 68:0.716321 69:1.15796 70:0.69904 71:0.841614 72:1.55172 73:1.22113 74:0.854041 75:1.04636 76:-3 77:1.23047 78:1.29916 79:-0.815204 80:1.05888 81:1.98382 82:2.1 83:0.692308 84:-0.230769 85:0.731113 86:0.864163 87:-0.5 88:0.0686941 89:-0.581811 90:0.585732 91:1.63583 92:2.30167 93:2.06439 94:1.99469 95:1.68463 
0.6136605662252506 1:-1.39169 2:-0.556655 3:-1.48843 4:-3 5:1.30378 6:-1.15462 7:1.30478 8:1.36364 9:-0.6 10:1.38056 11:-1.8 12:-1.10514 13:2.08509 14:-1.31195 15:-1.6993 16:-1.84732 17:-0.890809 18:-0.639583 19:-1.0079 20:3 21:0.00213543 22:0.726336 23:0.555625 24:3 25:-0.280624 26:0.34628 27:1.5 28:-2.03583 29:-2.12235 30:-1.20074 31:2.15394 32:-1.63529 33:-1.71898 34:0.612448 35:-1.1893 36:0.00654119 37:-0.575664 38:1.05061 39:-0.903614 40:1.58177 41:0.393503 42:0.0504194 43:0.768144 44:0.361975 45:-1.64785 46:0.529412 47:2.58621 48:-0.747568 49:0.829046 50:0.0294644 51:0.693382 52:0.346945 53:-2.34827 54:-0.242656 55:2.72399 56:0.667918 57:0.480607 58:1.71862 59:1.16168 60:0.036352 61:-0.235479 62:0.35334 63:0.543348 64:-0.312135 65:1.56986 66:1.1617 67:1.5514 68:0.765887 69:1.53521 70:0.746879 71:1.0009 72:2.17241 73:1.14973 74:1.01435 75:0.796389 76:0.115714 77:1.1597 78:0.357774 79:0.330125 80:0.808935 81:1.71095 82:1.8 83:-1.15385 84:-1.38462 85:0.153128 86:1.42858 87:-0.5 88:-1.72429 89:-0.135205 90:1.16984 91:0.888864 92:1.28532 93:1.61087 94:1.34268 95:0.06066 
0.7652122129583439 1:-1.12425 2:-0.617426 3:0.0342367 4:-3 5:0.733738 6:-0.950129 7:-1.59176 8:-2.45455 9:-0.6 10:-0.368448 11:2.28 12:-1.14916 13:2.11309 14:-1.08242 15:-1.78322 16:-1.27736 17:0.138754 18:-0.590487 19:0.0532884 20:3 21:-0.893071 22:-0.124032 23:-0.512943 24:3 25:-0.875278 26:-0.3 27:-0.3 28:-1.18223 29:-1.30898 30:-1.0867 31:1.08716 32:-1.05713 33:-1.43874 34:0.230137 35:-1.68313 36:-0.736583 37:-1.7146 38:0.444039 39:0.501934 40:0.5914 41:0.99118 42:0.296251 43:-1.36023 44:0.163368 45:-1.54715 46:0.176471 47:1.96552 48:-2.08261 49:1.25629 50:-0.562123 51:-0.557474 52:-0.0961579 53:1.7955 54:-1.02398 55:2.23689 56:-0.570945 57:0.0505902 58:1.68281 59:1.44535 60:-0.558666 61:-1.01985 62:-0.0942907 63:0.100429 64:-0.934713 65:1.27826 66:1.44536 67:-0.540303 68:-0.427385 69:-0.546489 70:-0.437858 71:-0.89591 72:0.310345 73:-0.349531 74:-0.890249 75:-0.186625 76:-3 77:-0.34553 78:0.0188965 79:-0.407034 80:-0.180115 81:2.14459 82:1.8 83:-1.15385 84:0.692308 85:-0.744187 86:0.658137 87:1 88:-0.581615 89:2.64804 90:-0.194884 91:0.323398 92:1.21816 93:1.31307 94:0.457584 95:-0.0345212 
2 1:-1.83604 2:-1.12337 3:-2.4487 4:-3 5:1.85632 6:-0.0824134 7:0.70211 8:1.90909 9:-0.6 10:-0.0760525 11:-2.28 12:-1.99479 13:2.58572 14:-0.803746 15:-1.06993 16:-2.33752 17:0.800703 18:0.587915 19:-0.504413 20:3 21:-0.379677 22:1.29187 23:-0.89033 24:3 25:-0.674833 26:-0.1 27:1.5 28:-0.983462 29:-1.11147 30:-1.48166 31:2.18157 32:-0.901378 33:-1.30566 34:0.0858798 35:-1.1893 36:-0.829502 37:-0.362739 38:0.301362 39:-0.76058 40:0.611278 41:1.16367 42:-0.241554 43:0.700782 44:-0.219959 45:-0.547085 46:1.23529 47:2.58621 48:-1.14268 49:1.204 50:-0.303041 51:0.0226217 52:-0.0386311 53:-1.3482 54:-0.548729 55:2.22833 56:0.00147161 57:0.0303541 58:1.45681 59:1.46017 60:-0.296687 61:-0.542025 62:-0.0328676 63:0.0849785 64:-0.538335 65:1.26405 66:1.46016 67:0.92572 68:0.114069 69:0.911244 70:0.0980406 71:0.538998 72:2.17241 73:0.607448 74:0.551411 75:0.199231 77:0.616502 78:-0.123731 79:-0.115505 80:0.210018 81:2.0642 82:1.8 83:-0.230769 84:-1.15385 85:-0.648449 86:1.39965 87:-0.5 88:-1.06786 89:-0.15347 90:1.22432 91:0.271225 92:0.870631 93:1.30231 94:0.29453 95:-0.503035 
1.597079127044574 1:-1.8048 2:-1.89387 3:-1.64549 4:-3 5:0.75448 6:-0.15825 7:-1.25169 8:-2.45455 9:-0.6 10:-0.926106 11:2.76 12:-1.75007 13:2.46128 14:-1.34301 15:-0.902098 16:-1.38902 17:0.557836 18:0.193149 19:0.164673 20:3 21:-1.0336 22:0.332821 23:-0.618098 24:3 25:-0.942094 26:-0.132876 27:0.3 28:-1.1326 29:-1.25984 30:1.9376 31:-1.68531 32:-1.19242 33:-1.66094 34:-0.0505849 35:-1.51852 36:-0.854478 37:-1.23902 38:0.25761 39:0.391468 40:0.615128 41:1.21959 42:-0.164216 43:-0.363048 44:-0.190479 45:-0.771572 46:1.23529 47:2.17241 48:-1.9506 49:1.13993 50:-0.716994 51:-0.723285 52:-0.333088 53:1.18471 54:-1.0935 55:2.36954 56:-0.746474 57:-0.212479 58:1.51171 59:1.65044 60:-0.706549 61:-1.08368 62:-0.322629 63:-0.157082 64:-0.728692 65:1.08964 66:1.65038 67:-0.828285 68:-0.587358 69:-0.845881 70:-0.608459 71:-1.12507 72:-0.517241 73:-0.606029 74:-1.11051 75:-0.376562 76:1.5975 77:-0.591168 78:-0.27939 79:-0.325101 80:-0.359104 81:1.74598 82:1.8 83:-0.230769 84:1.15385 85:-0.801614 86:0.819225 87:0.5 88:-0.678423 89:2.42111 90:-0.0876599 91:0.104637 92:0.928818 93:1.13007 94:0.415533 95:-0.427399 
0.3383744345804317 1:0.0656384 2:-0.641112 3:-0.430234 4:-2.33333 5:1.47663 6:-2.10176 7:-1.35588 8:-1.63636 9:-0.895652 10:-3 11:1.8 12:0.16206 13:1.11299 14:-0.262037 15:-1.32168 16:-1.86267 17:-1.27375 18:-1.72936 19:-1.65517 20:2.64706 21:1.61855 22:1.10849 23:0.782864 24:3 25:1.44989 26:2.31111 27:3 28:-1.96288 29:-2.05636 30:2.42674 31:-0.387372 32:-0.974345 33:-0.728172 34:1.84873 35:-0.692307 36:0.405988 37:-0.516262 38:1.79376 39:0.053175 40:1.85858 41:-0.132569 42:1.18207 43:1.32203 44:1.41396 45:-2.44476 46:0.882353 47:3 48:1.20745 49:1.06556 50:0.989453 51:0.566952 52:1.33403 53:2.24088 54:0.787367 55:2.53227 56:0.531894 57:1.69983 58:2.08978 59:0.581459 60:0.952041 61:0.739863 62:1.30571 63:1.7588 64:-0.170038 65:2.31027 66:0.58144 67:0.268543 68:0.90102 69:0.251715 70:0.873412 71:0.225716 72:-0.517241 73:0.80826 74:0.220257 75:1.37859 77:0.809189 78:1.48418 79:1.70715 80:1.39231 81:1.5819 82:1.76087 83:0.230769 84:-0.692308 85:0.651821 86:-0.0179511 87:-2 88:-1.91484 89:1.97638 90:0.092632 91:1.82674 92:1.85773 93:2.34348 94:1.25432 95:0.932915 
2 1:0.615349 2:0.328471 3:0.809735 4:-1 5:2.19877 6:-2.42593 7:-0.927375 9:0.2 10:0.216342 11:0.12 12:0.428818 13:0.861988 14:-0.949821 15:-2.28671 16:-2.60411 17:-2.10481 18:-1.90005 19:-2.16236 20:1.23529 21:0.808344 22:0.248752 23:1.72058 24:1.5 25:0.955457 26:1.5 27:3 28:-2.56881 29:-2.55779 30:1.25178 31:-0.0481597 32:-1.88658 33:-1.35666 34:1.58812 35:-0.272727 36:1.23143 37:-0.146812 38:2.0587 39:-0.149183 40:2.30445 41:-0.282746 42:-0.0831923 43:2.25189 44:1.39259 45:-2.57657 46:1.58824 47:3 48:1.54633 49:0.869968 50:1.42824 51:0.296411 52:1.50903 53:0.681849 54:1.3863 55:2.73833 56:0.284922 57:1.55818 58:2.10284 59:0.636649 60:1.43474 61:1.39507 62:1.51302 63:1.63519 64:-1.86886 65:2.22963 66:0.636659 67:1.58748 68:0.797133 69:1.58113 70:0.787875 71:1.90249 72:2.17241 73:1.81002 74:1.91314 75:1.38522 76:-3 77:1.81393 78:1.45999 79:-1.9714 80:1.39167 81:1.98382 82:1.5 83:0.230769 84:-2.07692 85:1.31389 86:0.784782 87:-2 88:0.125033 89:0.357677 90:0.589191 91:1.93533 92:2.042 93:2.27363 94:2.03233 95:1.23696 
2 1:2.3914 2:1.95138 3:2.14029 4:-2.33333 5:2.16833 6:-2.96143 7:0.00420505 9:-1 10:-0.368448 11:1.08 12:2.81982 13:-2.58596 14:0.106849 15:-2.24476 16:-2.49722 17:-2.48562 18:-2.9449 19:-2.0123 20:2.29412 21:2.51584 22:-0.392529 23:1.73753 24:2.25 25:2.72606 26:2.4 27:3 28:-2.53852 29:-2.53643 30:1.25178 31:0.633034 32:-1.38568 33:-0.498927 34:2.93347 35:-0.6 36:1.73318 37:-0.743864 38:2.75651 39:-0.30539 40:2.11187 41:-0.612126 42:2.37034 43:2.21821 44:2.90837 45:-2.96623 46:1.23529 47:3 48:3 49:0.99614 50:2.30178 51:2.36713 52:2.5506 53:-0.611003 54:2.18337 55:2.57635 56:2.32384 57:2.8887 58:2.85541 59:0.199532 60:2.28145 61:2.15862 62:2.53396 63:2.9691 64:-1.03081 65:2.94409 66:0.19954 67:3 68:2.63471 69:2.98477 70:2.60539 71:2.82409 72:1.96552 73:3 74:2.82389 75:2.96229 76:-3 77:3 78:2.87623 79:0.0966601 80:2.9731 81:1.98382 82:1.65 83:-0.692308 84:-1.84615 85:1.6394 86:1.36148 87:-2 88:-1.86763 89:0.343045 90:0.949775 91:2.95462 92:2.95109 93:2.98453 94:1.99344 95:2.90259 
2 1:1.43594 2:0.769611 3:1.17141 4:-1.66667 5:2.30078 6:-2.76007 7:-1.05084 8:0.545455 9:-0.2 10:-0.368448 11:0.36 12:1.42485 13:-0.259181 14:-0.255535 15:-1.76224 16:-2.64117 17:-1.91617 18:-2.42219 19:-2.13718 20:1.58824 21:1.15614 22:-0.373255 23:1.09963 24:1.5 25:1.63029 26:1.8 27:3 28:-2.22041 29:-2.28417 30:1.25178 31:0.178905 32:-1.21604 33:-0.796171 34:1.95808 35:-0.391304 36:0.808213 37:-0.435716 38:2.03759 39:-0.191991 40:1.6697 41:-0.271364 42:0.48902 43:2.30654 44:1.93117 45:-2.81132 46:3 47:3 48:1.80437 49:1.13506 50:1.56331 51:0.601023 52:1.75436 53:0.506804 54:1.43673 55:2.38069 56:0.575374 57:1.94266 58:2.41254 59:0.492384 60:1.55262 61:1.42364 62:1.74609 63:2.01631 64:-1.51566 65:2.44573 66:0.492339 67:1.68239 68:1.10495 69:1.67357 70:1.08452 71:1.88174 72:2.17241 73:1.94214 74:1.88246 75:1.70666 76:-3 77:1.94232 78:1.92923 79:-1.38224 80:1.71739 81:1.98382 82:1.5 83:0.692308 84:-1.15385 85:0.737254 86:1.03994 87:-2 88:0.173334 89:0.382086 90:0.792182 91:2.11359 92:2.44893 93:2.48615 94:1.57572 95:1.94848 
0.5878372066288452 1:1.76188 2:1.7389 3:1.96608 4:-3 5:1.68045 6:-2.84009 7:-0.371875 8:-2.45455 9:-1.20215 10:-0.368448 11:1.56 12:2.45702 13:-1.85516 14:-0.338225 15:-2.16084 16:-2.08568 17:-2.40523 18:-2.82645 19:-1.57946 20:3 21:2.01146 22:-0.696916 23:1.76472 24:3 25:2.01782 26:1.8 27:1.8 28:-2.53049 29:-2.53067 30:0.401425 31:1.08716 32:-1.55574 33:-0.83017 34:2.46267 35:-1.107 36:1.48826 37:-1.17911 38:2.48797 39:-0.235827 40:2.0333 41:-0.495291 42:2.59089 43:-1.55954 44:2.5451 45:-2.94211 46:0.882353 47:2.58621 48:0.970515 49:0.915798 50:2.1041 51:1.8866 52:2.36017 53:0.197463 54:1.83771 55:2.70874 56:1.87682 57:2.33221 58:2.80401 59:0.362399 60:2.08392 61:1.81384 62:2.34412 63:2.40773 64:-1.5611 65:2.65626 66:0.362368 67:2.48044 68:2.03407 69:2.49898 70:2.03165 71:2.1605 72:1.96552 73:2.48467 74:2.13443 75:2.30007 76:-3 77:2.46416 78:2.37229 79:-1.68105 80:2.29519 81:1.98382 82:2.14355 83:-1.15385 84:1.61538 85:1.3156 86:0.740452 87:-1 88:2.17642 89:2.69181 90:0.670041 91:2.5266 92:2.77424 93:2.69617 94:1.98305 95:2.55697 
0.04932609282501122 1:1.4752 2:1.8522 3:2.05897 4:-1.66667 5:1.73415 6:-2.8764 7:-0.969524 8:-2.45455 9:-1.72251 10:-0.368448 11:0.84 12:2.78446 13:-2.50917 14:-0.347137 15:-2.45455 16:-2.10956 17:-2.51869 18:-2.93381 19:-2.09208 20:1.58824 21:2.03887 22:-0.956385 23:1.84277 24:1.5 25:1.98441 26:1.8 27:3 28:-2.58849 29:-2.57133 30:1.25178 31:0.178905 32:-1.64191 33:-0.854211 34:2.49919 35:-0.391304 36:1.63204 37:-0.580694 38:2.5407 39:-0.209124 40:2.00291 41:-0.519126 42:1.25614 43:2.88814 44:2.67603 45:-2.96324 46:0.882353 47:3 48:2.36589 49:0.895706 50:2.34607 51:1.10783 52:2.39324 53:0.480949 54:2.34453 55:2.72362 56:1.10937 57:2.37774 58:2.91072 59:0.348119 60:2.34392 61:2.34413 62:2.38724 63:2.44893 64:-1.65875 65:2.68036 66:0.348106 67:2.00973 68:1.56987 69:2.01546 70:1.57563 71:2.25044 72:2.37931 73:2.3516 74:2.25045 75:2.16088 76:-3 77:2.34318 78:2.46353 79:-2.00869 80:2.14953 81:1.98382 82:2.02277 83:-1.15385 84:-0.461538 85:1.3802 86:0.312254 87:-2 88:1.66615 89:1.24661 90:0.476995 91:2.57874 92:2.89366 93:2.71783 94:2.05731 95:2.78921 
0.6315379136995729 1:-0.000608536 2:-0.641237 3:-0.128961 4:-0.333333 5:1.73297 6:-2.14371 7:-0.713958 8:-1.09091 9:-1 10:-1.84416 11:1.08 12:0.0517107 13:1.21161 14:-1.3238 15:-1.8042 16:-2.22963 17:-1.60647 18:-1.65402 19:-2.23916 20:0.529412 21:-0.343522 22:-0.68888 23:1.03762 24:0.75 25:0.0334076 26:0.803431 27:3 28:-2.26401 29:-2.32108 30:1.69455 31:-0.895367 32:-1.78224 33:-1.69494 34:0.828375 35:4.44089e-016 36:0.372898 37:0.165031 38:1.3637 39:-0.12639 40:1.53493 41:0.150029 42:-1.13634 43:2.4055 44:0.884151 45:-2.41765 46:2.29412 47:3 48:0.40193 49:0.9313 50:0.3444 51:-0.379758 52:0.554482 53:0.459449 54:0.22507 55:2.60714 56:-0.398302 57:0.743676 58:2.031 59:1.01286 60:0.3512 61:0.232385 62:0.560853 63:0.811159 64:-0.142944 65:1.73942 66:1.01281 67:-0.110509 68:0.111313 69:-0.1207 70:0.0952711 71:0.0555758 72:-0.310345 73:0.405691 74:0.0653383 75:0.645123 76:-0.667199 77:0.413693 78:0.770849 79:0.733133 80:0.657384 81:1.82844 82:1.65 83:1.15385 84:2.30769 85:0.244808 86:0.486856 87:-2 88:-0.939654 89:1.57198 90:0.0491803 91:1.17415 92:1.845 93:1.78194 94:1.63242 95:0.912333 
2 1:0.640478 2:0.185354 3:-0.44941 4:-0.333333 5:1.80194 6:-2.56448 7:0.09587 8:-0.272727 9:-0.172151 10:1.03505 11:0.6 12:1.00941 13:0.247508 14:-1.24025 15:-1.72028 16:-2.32593 17:-1.53412 18:-2.22364 19:-2.35693 20:0.529412 21:-0.696424 22:-2.16139 23:0.65732 24:0.75 25:-0.120267 26:0.186667 27:3 28:-1.95747 29:-2.05143 30:1.31131 31:-1.08327 32:-1.4791 33:-1.54486 34:0.679999 35:4.44089e-016 36:-0.0108848 37:-0.0160759 38:1.15778 39:-0.292424 40:0.872096 41:0.306031 42:-1.41773 43:2.81276 44:1.1201 45:-2.72075 46:1.94118 47:3 48:-0.0225112 49:1.12729 50:0.738211 51:-0.235558 52:0.766429 53:-0.225987 54:0.699222 55:2.41767 56:-0.25837 57:0.607083 58:2.42446 59:1.08812 60:0.744162 61:0.702788 62:0.774993 63:0.677253 64:-1.87183 65:1.65215 66:1.08808 67:0.570095 68:0.238216 69:0.556517 70:0.21824 71:0.845618 72:0.103448 73:0.931881 74:0.854634 75:0.682619 76:-1.229 77:0.94197 78:0.816685 79:-1.37519 80:0.698969 81:2.17674 82:1.73734 83:1.15385 84:1.15385 85:-0.394149 86:1.17299 87:-2 88:-0.259195 89:1.3193 90:0.826554 91:0.976567 92:2.25177 93:1.69718 94:1.24787 95:1.59685 
0.551688671514699 1:1.25048 2:1.18793 3:1.51436 4:-3 5:1.91879 6:-2.85175 7:-1.935 8:-1.09091 9:-0.2 10:-0.368448 11:-0.12 12:2.226 13:-1.44523 14:0.193964 15:-2.07692 16:-2.34703 17:-2.24692 18:-2.74528 19:-1.75782 20:3 21:2.55499 22:0.117987 23:1.46155 24:3 25:2.63252 26:2.7 27:2.7 28:-2.40769 29:-2.43803 30:1.03919 31:1.08716 32:-1.19192 33:-0.433845 34:2.87076 35:-0.860082 36:1.43041 37:-0.970158 38:2.59276 39:-0.0152553 40:2.07512 41:-0.542214 42:2.98896 43:0.62169 44:2.6651 45:-2.91623 46:1.58824 47:3 48:2.19609 49:1.02456 50:3 51:1.33042 52:3 53:3 54:3 55:2.53394 56:1.31285 57:2.7774 58:2.68647 59:0.230253 60:3 61:3 62:3 63:2.87124 64:-1.66849 65:2.88765 66:0.23022 67:2.68996 68:1.66503 69:2.68929 70:1.65152 71:3 72:2.37931 73:2.88326 74:3 75:2.21622 76:-3 77:2.8819 78:2.6753 79:-2.3181 80:2.22488 81:2.14459 82:1.65 83:0.692308 84:-1.38462 85:1.48124 86:-0.655063 87:-1.5 88:1.10247 89:-0.174658 90:0.17305 91:2.83004 92:2.71954 93:2.93527 94:1.82174 95:2.4522 
2 1:0.574243 2:0.841717 3:1.23052 4:-1 5:1.85186 6:-2.76937 7:0.899793 8:0.545455 9:-0.2 10:0.216342 11:2.28 12:1.76731 13:-0.727808 14:-0.597139 15:-1.76224 16:-2.33355 17:-2.08581 18:-2.56894 19:-2.10898 20:1.23529 21:1.21733 22:-0.933697 23:1.39424 24:1.5 25:1.38307 26:1.5 27:3 28:-2.33307 29:-2.37827 30:1.25178 31:-0.0481597 32:-1.44865 33:-1.01837 34:1.84335 35:-0.272727 36:0.903291 37:-0.477362 38:2.04964 39:-0.389564 40:1.70607 41:-0.277866 42:0.291267 43:2.34968 44:1.99177 45:-2.85997 46:0.529412 47:3 48:1.37516 49:0.983929 50:1.23448 51:1.50951 52:1.50084 53:-1.05469 54:1.03712 55:2.62617 56:1.4806 57:1.75548 58:2.62916 59:0.560464 60:1.22819 61:1.02765 62:1.49976 63:1.8412 64:-1.41322 65:2.34162 66:0.560406 67:1.68986 68:1.81749 69:1.68009 70:1.79493 71:1.48485 72:1.34483 73:1.84472 74:1.48682 75:2.07638 76:-3 77:1.84812 78:1.82779 79:-1.07699 80:2.09208 81:1.98382 82:1.35 83:-1.15385 85:0.696494 86:2.15122 87:-2 88:-0.436441 89:1.5987 90:1.47941 91:2.01874 92:2.54713 93:2.38955 94:1.72311 95:2.12844 
0.6049226398852118 1:-2.20133 2:-1.24429 3:-1.84988 4:-3 5:1.62283 6:0.36802 7:1.01365 8:1.63636 9:-0.6 10:0.0993845 11:-2.28 12:-2.1826 13:2.67474 14:-1.88616 15:-1.72028 16:-2.13264 17:0.84759 18:0.929618 19:0.464415 20:3 21:-1.71661 22:-0.130718 23:-0.58954 24:3 25:-1.70379 26:-1.08 27:-0.3 28:-1.0999 29:-1.2274 30:-1.92116 31:1.76003 32:-1.45386 33:-2.05727 34:-0.528101 35:-1.68313 36:-1.02069 37:-1.19881 38:0.0365602 39:-1.33864 40:0.535274 41:1.52676 42:-0.715924 43:-0.317664 44:-0.578201 45:-0.107487 46:0.882353 47:1.96552 48:-2.19896 49:1.04792 50:-0.959924 51:-0.478004 52:-0.643187 53:-1.62037 54:-1.29206 55:2.52455 56:-0.493528 57:-0.591906 58:1.4247 59:2.00334 60:-0.954927 61:-1.28723 62:-0.638474 63:-0.548498 64:-0.799812 65:0.801127 66:2.00335 67:0.0765724 68:-0.438928 69:0.0666873 70:-0.451085 71:-0.395503 72:1.75862 73:-0.16475 74:-0.38668 75:-0.414486 76:-1.229 77:-0.157729 78:-0.616434 79:-0.444489 80:-0.405513 81:2.04812 82:1.8 83:-0.692308 84:-0.692308 85:-1.02815 86:1.23389 87:1 88:-1.15595 89:-0.409664 90:0.903081 91:-0.227362 92:0.752381 93:0.835233 94:0.388321 95:-0.653274 
2 1:1.3407 2:2.2718 3:2.40298 4:0.333333 5:2.15821 6:-2.62002 7:-0.0631238 8:-0.272727 9:-0.2 10:0.216342 11:0.84 12:0.934065 13:0.33302 14:-1.00085 15:-2.47552 16:-2.59758 17:-2.04281 18:-2.18491 19:-2.45928 20:-0.176471 21:0.301131 22:-0.78629 23:1.46515 25:0.608018 26:0.3 27:3 28:-2.42972 29:-2.45522 30:1.25178 31:-0.956418 32:-1.75467 33:-1.39066 34:1.37514 35:0.333333 36:0.879427 37:0.0661124 38:1.84896 39:-0.251314 40:1.79952 41:-0.165205 42:-0.894809 43:2.99789 44:1.4666 45:-2.7179 46:1.23529 47:3 48:1.43041 49:0.970384 50:1.11581 51:0.313504 52:1.2216 53:-0.030445 54:1.07465 55:2.59892 56:0.291876 57:1.34064 58:2.27453 59:0.726651 60:1.12456 61:1.08585 62:1.22799 63:1.41888 64:-1.46162 65:2.10332 66:0.726674 67:1.14098 68:0.856354 69:1.12808 70:0.837301 71:1.3676 72:2.37931 73:1.46933 74:1.38171 75:1.39013 76:-3 77:1.47852 78:1.38578 79:-1.0716 80:1.40485 81:1.98382 82:1.65 83:-0.230769 84:-0.923077 85:0.708941 86:1.10783 87:-2 88:-0.11854 89:0.966573 90:0.803423 91:1.71805 92:2.24958 93:2.14911 94:1.85088 95:1.59302 
0.3614484783626934 1:0.176822 2:-0.402875 3:0.210137 4:-3 5:0.921681 6:-2.20922 7:-2.29256 8:-1.63636 9:-0.6 10:-0.368448 11:0.84 12:0.514958 13:0.776945 14:-1.01673 15:-1.51049 16:-1.5298 17:-1.69679 18:-1.95196 19:-1.06845 20:3 21:0.540122 22:-0.407149 23:1.07554 24:3 25:0.57461 26:1.2 27:1.2 28:-2.27038 29:-2.32642 30:-0.0237531 31:1.08716 32:-1.63723 33:-1.43874 34:1.2943 35:-1.2716 36:0.532863 37:-1.31631 38:1.57008 39:0.180877 40:1.64292 41:0.00777825 42:1.09952 43:-0.65367 44:1.28005 45:-2.56692 46:1.94118 47:2.37931 48:-0.847765 49:0.881361 50:0.275924 51:-0.109266 52:0.799181 53:2.19899 54:-0.181539 55:2.69404 56:-0.127961 57:1.08263 58:2.22614 59:0.842665 60:0.294058 61:-0.161361 62:0.814434 63:1.16137 64:-0.652775 65:1.94932 66:0.842622 67:-0.11325 68:0.168087 69:-0.123039 70:0.152837 71:-0.28553 72:-0.517241 73:0.30809 74:-0.273138 75:0.605598 76:-3 77:0.317822 78:1.07585 79:0.260789 80:0.618263 81:1.98382 82:1.2 83:0.230769 84:-1.15385 85:0.459696 86:0.902638 87:-0.5 88:-2.60158 89:2.48892 90:0.598054 91:1.46064 92:1.97345 93:1.99682 94:1.64074 95:1.12254 
1.389955759270687 1:1.00723 2:-0.0154702 3:0.365555 4:-1.66667 5:2.0725 6:-2.61321 7:-1.3961 8:-1.63636 9:-0.2 10:-1.3029 11:0.6 12:1.17073 13:0.0580692 14:-0.434907 15:-1.72028 16:-2.14037 17:-0.885011 18:-2.30365 19:-2.11505 20:1.94118 21:1.14864 22:-0.341184 23:1.11224 24:2.25 25:1.38307 26:1.97629 27:3 28:-1.20057 29:-1.3271 30:1.92267 31:-0.248158 32:-0.0873051 33:-0.00352074 34:1.79695 35:-0.5 36:-0.185172 37:-0.349319 38:1.9407 39:-0.12495 40:1.68793 41:-0.217854 42:0.264114 43:2.23271 44:1.76137 45:-2.74338 46:1.58824 47:3 48:1.57767 49:1.62474 50:1.42301 51:0.234576 52:1.59427 53:0.9516 54:1.34391 55:2.49418 56:0.280948 57:1.74536 58:2.39932 59:0.564246 60:1.41596 61:1.34108 62:1.57086 63:1.7588 64:-0.876576 65:2.33593 66:0.564216 67:0.629939 68:0.740752 69:0.640795 70:0.795852 71:0.916074 72:-0.517241 73:1.2489 74:0.922867 75:1.44354 76:-1.4025 77:1.2315 78:1.72773 79:0.150839 80:1.38138 81:2.11972 82:1.95 83:-0.692308 84:0.230769 85:-0.232088 86:0.399487 87:-2 88:-1.10235 89:1.65139 90:0.375608 91:1.5881 92:2.29662 93:2.34348 94:0.473351 95:1.6757 
2 1:-0.0671418 2:0.307568 3:0.792597 4:0.333333 5:1.6637 6:-2.04489 7:-0.129733 8:0.272727 9:-0.2 10:-0.368448 11:-0.6 12:-0.106271 13:1.34778 14:-1.52654 15:-2.01399 16:-2.20565 17:-1.55631 18:-1.54084 19:-2.49349 20:-0.529412 21:-0.740443 22:-0.936686 23:0.988747 24:-0.75 25:-0.334076 27:3 28:-2.26194 29:-2.31934 30:1.25178 31:-1.18348 32:-1.88279 33:-1.86907 34:0.604119 35:0.529411 36:0.268568 37:0.552186 38:1.21322 39:-0.312644 40:1.43021 41:0.262535 42:-1.65953 43:2.79371 44:0.715279 45:-2.34149 46:1.94118 47:3 48:0.367822 49:0.914731 50:0.242055 51:-0.465567 52:0.384527 53:-0.29267 54:0.18388 55:2.61561 56:-0.49088 57:0.51602 58:1.97983 59:1.14069 60:0.25021 61:0.192416 62:0.393202 63:0.584549 64:-0.0735183 65:1.59305 66:1.14069 67:0.403362 68:0.050494 69:0.387566 70:0.0273285 71:0.605234 72:0.931034 73:0.682376 74:0.618488 75:0.540754 76:-3 77:0.694429 78:0.56983 79:0.61198 80:0.559529 81:1.98382 82:1.65 83:0.692308 84:-1.84615 85:0.0947995 86:1.01369 87:-2 88:-1.22596 89:0.665475 90:0.608431 91:0.986002 92:1.77412 93:1.6376 94:1.62972 95:0.798697 
0.003030952561520512 1:-1.67215 2:-0.0971913 3:-1.21196 4:1 5:1.98492 6:-0.436416 7:0.267551 8:1.09091 9:0.2 10:0.45026 11:-0.6 12:-1.80116 13:2.48807 14:-1.99113 15:-1.93007 16:-2.44897 17:-0.118191 18:0.271331 19:-2.42823 20:-0.882353 21:-1.65135 22:-0.394979 23:0.026968 24:-0.75 25:-1.4833 26:-1.15667 27:3 28:-1.66319 29:-1.77664 30:-1.86629 31:1.49059 32:-1.75584 33:-2.21439 34:-0.337932 35:0.75 36:-0.652553 37:1.71493 38:0.362218 39:-0.32633 40:0.910502 41:1.0883 42:-2.20906 43:2.56496 44:-0.348786 45:-0.883408 46:2.64706 47:3 48:-0.507176 49:0.913222 50:-0.745574 51:-1.06687 52:-0.576947 53:-0.235087 54:-0.845977 55:2.63635 56:-1.07936 57:-0.374368 58:1.51877 59:1.79162 60:-0.741023 61:-0.841387 62:-0.572528 63:-0.327039 64:0.147883 65:0.969105 66:1.79161 67:-0.340923 68:-0.66019 69:-0.348901 70:-0.671187 71:-0.299166 72:2.58621 73:-0.221555 74:-0.291663 75:-0.293452 76:1.771 77:-0.215926 78:-0.379726 79:0.0899983 80:-0.285043 81:1.8552 82:1.5 83:2.07692 84:-2.07692 85:-0.699418 86:1.55079 87:-2 88:-0.58862 89:0.512469 90:1.78227 91:0.0675621 92:0.982953 93:1.00472 94:0.916548 95:-0.356012 
2 1:2.07739 2:1.6083 3:1.85901 4:-1.66667 5:1.9518 6:-2.93725 7:-0.309021 8:-1.63636 9:-0.78909 10:0.216342 11:1.32 12:2.99922 13:-2.99814 14:0.14967 15:-1.93007 16:-2.32652 17:-2.22945 18:-2.99977 19:-2.05721 20:1.94118 21:1.99879 22:-1.02306 23:1.20298 24:2.25 25:2.32517 26:2.1 27:3 28:-2.27192 29:-2.32771 30:1.25178 31:0.40597 32:-1.07415 33:-0.474886 34:2.59202 35:-0.5 36:1.09625 37:-0.670349 38:2.35971 39:-0.217871 40:1.5499 41:-0.435349 42:1.56907 43:2.83422 44:2.7969 45:-2.97676 46:1.58824 47:3 48:2.42288 49:1.12677 50:2.31322 51:1.68315 52:2.43313 53:0.423263 54:2.2473 55:2.39228 56:1.69764 57:2.50927 58:2.92299 59:0.307904 60:2.3037 61:2.23722 62:2.42342 63:2.58798 64:-1.59116 65:2.7494 66:0.307889 67:2.41472 68:2.04366 69:2.44053 70:2.05855 71:2.44495 72:1.96552 73:2.6151 74:2.42645 75:2.50572 76:-3 77:2.5949 78:2.60929 79:-1.87129 80:2.49176 81:1.98382 82:1.77727 83:0.692308 84:-0.230769 85:0.856798 86:0.583345 87:-2 88:1.39394 89:1.30038 90:0.619888 91:2.56491 92:2.99429 93:2.79033 94:1.64276 95:2.98859 
2 1:1.00308 2:0.731854 3:1.14045 4:-1.66667 5:1.78245 6:-2.82531 7:0.35758 8:-1.63636 9:0.2 10:-0.368448 11:1.56 12:2.05153 13:-1.15863 14:-0.477795 15:-1.38462 16:-2.27302 17:-2.17388 18:-2.68071 19:-2.12039 20:1.58824 21:1.49317 22:-0.934749 23:1.4395 24:1.5 25:1.73051 26:1.8 27:3 28:-2.37057 29:-2.40859 30:1.25178 31:0.178905 32:-1.43811 33:-0.936293 34:2.03045 35:-0.391304 36:1.03313 37:-0.506639 38:2.15689 39:-0.384419 40:1.73645 41:-0.334479 42:0.506951 43:2.5242 44:2.18495 45:-2.90243 46:1.23529 47:3 48:1.64285 49:0.969631 50:1.66596 51:1.3702 52:1.827 53:-1.09694 54:1.5625 55:2.63536 56:1.33689 57:1.92749 58:2.72118 59:0.49771 60:1.67316 61:1.57505 62:1.83128 63:2.01631 64:-1.40771 65:2.43736 66:0.497717 67:1.86204 68:1.74644 69:1.84453 70:1.71886 71:1.84758 72:1.55172 73:2.07839 74:1.86253 75:2.10095 76:-3 77:2.089 78:2.00258 79:-1.10563 80:2.12092 81:1.98382 82:1.95 83:-0.230769 84:-0.230769 85:0.819198 86:1.97195 87:-2 88:-0.217457 89:1.51087 90:1.32744 91:2.16774 92:2.64694 93:2.48615 94:1.77263 95:2.31466 
0.2580912560645723 1:-1.14513 2:-0.642769 3:0.0134588 4:1 5:1.96589 6:-1.21767 7:-0.827538 8:-0.545455 9:-1.8 10:-0.368448 11:0.84 12:-1.14466 13:2.11025 14:-1.55826 15:-1.6993 16:-2.25083 17:0.259695 18:-0.595543 19:-2.5473 20:-1.23529 21:-1.35036 22:-0.999238 23:-0.19593 24:-1.5 25:-1.10913 26:-0.6 27:3 28:-0.963165 29:-1.0912 30:1.25178 31:-1.63761 32:-1.02756 33:-1.49678 34:-0.105246 35:1 36:-0.909427 37:1.25696 38:0.434127 39:-0.218128 40:0.612209 41:1.0027 42:-2.1595 43:2.71115 44:-0.00383361 45:-1.62896 46:0.882353 47:3 48:-0.342086 49:1.34972 50:-0.410004 51:-1.24638 52:-0.271573 53:-0.0285539 54:-0.487955 55:2.41083 56:-1.23514 57:-0.146712 58:1.79663 59:1.59649 60:-0.406199 61:-0.482453 62:-0.27288 63:-0.11588 64:-0.175682 65:1.1376 66:1.59647 67:-0.868091 68:-0.764327 69:-0.866917 70:-0.750122 71:-0.602086 72:-0.103448 73:-0.378238 74:-0.59662 75:-0.234483 76:-3 77:-0.380416 78:-0.0971621 79:0.0463804 80:-0.25096 81:1.98382 82:1.5 83:1.15385 84:0.461538 85:-1.02858 86:1.02763 87:-2 88:-0.7269 89:1.39707 90:0.438083 91:0.106398 92:1.29976 93:1.15989 94:0.278666 95:0.0813238 
1.518050244497562 1:1.60938 2:0.233054 3:0.731507 4:-1.66667 5:1.58094 6:-2.77953 7:0.288576 8:-1.09091 9:0.6 10:0.216342 11:0.6 12:2.00428 13:-1.08408 14:0.168951 15:-1.02797 16:-2.17455 17:-1.65203 18:-2.66271 19:-2.08954 20:1.94118 21:1.5019 22:-0.824949 23:0.47056 24:2.25 25:1.85078 26:2.1 27:3 28:-1.85234 29:-1.95463 30:1.25178 31:0.40597 32:-0.708831 33:-0.423887 34:2.07054 35:-0.5 36:0.391818 37:-0.508975 38:1.78828 39:-0.247713 40:1.10833 41:-0.129283 42:0.586594 43:2.38576 44:2.1894 45:-2.8972 46:1.23529 47:3 48:1.64802 49:1.27651 50:1.69894 51:1.40175 52:1.84925 53:0.0392978 54:1.60358 55:2.22983 56:1.35123 57:1.93255 58:2.68369 59:0.495935 60:1.71685 61:1.62276 62:1.86809 63:2.03691 64:-1.42648 65:2.44015 66:0.495932 67:2.40521 68:1.74868 69:2.36372 70:1.70631 71:2.31041 72:2.37931 73:2.371 74:2.34658 75:2.08835 76:-3 77:2.40116 78:1.99002 79:-1.15427 80:2.12209 81:1.98382 82:1.86667 83:0.230769 84:-0.230769 85:0.234725 86:1.23068 87:-2 88:0.566877 89:0.419139 90:0.901135 91:1.99805 92:2.6186 93:2.4974 94:1.12494 95:2.26145 
0.0035562448029224 1:0.387721 2:-0.13412 3:0.165377 4:-2.33333 5:2.47835 6:-2.46021 7:0.0186074 8:1.36364 9:0.6 10:-0.00407774 11:-0.36 12:0.453834 13:0.837496 14:-0.597468 15:-1.99301 16:-2.73627 17:-1.88536 18:-1.91527 19:-1.98584 20:2.29412 21:1.2018 22:0.6333 23:1.51292 24:2.25 25:1.41648 26:2.18718 27:3 28:-2.38275 29:-2.41831 30:0.0799731 31:1.8868 32:-1.50114 33:-1.02542 34:1.82275 35:-0.6 36:1.00504 37:-0.389041 38:2.1358 39:-0.316452 40:2.27195 41:-0.323534 42:0.68225 43:1.82596 44:1.51289 45:-2.58384 46:3 47:3 48:1.68381 49:0.983263 50:1.42813 51:1.16965 52:1.63059 53:-0.514083 54:1.30939 55:2.62125 56:1.17401 57:1.83642 58:2.1062 59:0.530515 60:1.41452 61:1.2893 62:1.62009 63:1.89785 64:-1.17192 65:2.38689 66:0.530488 67:2.33389 68:1.51956 69:2.348 70:1.53016 71:2.27063 72:2.37931 73:2.27182 74:2.25519 75:1.92127 76:1.98299 77:2.2546 78:1.67848 79:-0.518831 80:1.90516 81:1.86881 82:1.2 83:0.692308 84:-1.61538 85:1.17747 86:1.20811 87:-2 88:-0.858311 89:0.190176 90:0.8873 91:2.08022 92:2.06578 93:2.42099 94:1.78875 95:1.27703 
0.5910510296442813 1:1.81788 2:1.85819 3:2.06388 4:-3 5:1.73052 6:-2.71532 7:-0.02848 8:0.818182 9:-0.782178 10:-0.368448 11:2.28 12:1.56575 13:-0.445904 14:-0.60143 15:-1.72028 16:-2.22755 17:-2.1957 18:-2.48428 19:-1.29958 20:3 21:1.4806 22:-0.427451 23:1.63061 24:3 25:1.60356 26:1.2 27:1.2 28:-2.47037 29:-2.48631 30:-0.0237531 31:1.08716 32:-1.59882 33:-1.03537 34:2.02387 35:-1.2716 36:1.20025 37:-1.42477 38:2.21892 39:-0.412408 40:2.02582 41:-0.36617 42:2.3968 43:-2.97533 44:2.01357 45:-2.83693 46:0.882353 47:2.37931 48:-0.0848479 49:0.912727 50:1.07116 51:1.79062 52:1.62093 53:-1.32057 54:0.573173 55:2.71658 56:1.7569 57:1.91231 58:2.53527 59:0.503113 60:1.07437 61:0.573427 62:1.62682 63:2.00086 64:-1.17404 65:2.42898 66:0.503117 67:1.99465 68:1.85366 69:1.98055 70:1.83113 71:1.32166 72:1.34483 73:1.88889 74:1.32789 75:1.98195 76:-3 77:1.8942 78:1.90727 79:-0.52036 80:1.99487 81:1.98382 82:1.69455 83:-0.692308 84:-0.923077 85:1.10803 86:1.57768 87:-0.5 88:-0.571331 89:2.99529 90:1.10218 91:2.19105 92:2.45901 93:2.4777 94:1.90449 95:1.9668 
0.9195913876083182 1:-1.44044 2:0.408441 3:0.875299 4:1.66667 5:1.96843 6:-0.891666 7:-0.785907 8:0.272727 9:-1.8 10:-0.368448 11:0.12 12:-1.47849 13:2.31162 14:-1.79934 15:-2.11888 16:-2.4347 17:-0.209926 18:-0.189555 19:-2.74168 20:-1.94118 21:-1.5294 22:-0.785843 23:-0.103256 24:-2.25 25:-1.42984 26:-1.2 27:3 28:-1.57932 29:-1.69644 30:-1.72447 31:1.08716 32:-1.62519 33:-2.07416 34:-3 35:-3 36:-3 37:-3 38:-3 39:-0.268756 40:-3 41:-3 42:-3 43:-3 44:-3 45:-3 46:-3 47:-3 48:-3 49:-3 50:-3 51:-3 52:-3 53:-0.135896 54:-3 55:-3 56:-3 57:-3 58:-3 59:-3 60:-3 61:-3 62:-3 63:-3 64:-1.21312 65:-3 66:-3 67:-3 68:-3 69:-3 70:-3 71:-3 72:-3 73:-3 74:-3 75:-3 76:-3 77:-3 78:-3 79:-0.617607 80:-3 81:-3 82:-3 83:-3 84:-3 85:-3 86:1.23383 87:-3 88:-0.604267 89:-3 90:0.902864 91:-3 92:-3 93:-3 94:-3 95:-3 
0.6685676381020128 1:-1.75637 2:-0.864731 3:-0.53588 4:1.66667 5:1.71979 6:-0.52803 7:-0.0583186 8:-0.272727 9:-1 10:0.488098 11:1.08 12:-1.69129 13:2.42994 14:-2.05269 15:-2.0979 16:-2.21804 17:0.0247036 18:0.105767 19:-2.56506 20:-1.58824 21:-1.95088 22:-0.938129 23:-0.143628 24:-1.5 25:-1.70379 26:-1.07647 27:3 28:-1.50213 29:-1.62204 30:1.38162 31:-2.06561 32:-1.70329 33:-2.23139 34:-0.443147 35:1.28571 36:-0.79923 37:1.81136 38:0.229633 39:-0.228676 40:0.662016 41:1.25613 42:-2.3659 43:2.69587 44:-0.364041 45:-1.00972 46:1.23529 47:3 48:-0.695347 49:0.985473 50:-0.757476 51:-1.28789 52:-0.624291 53:-0.0748502 54:-0.836798 55:2.56706 56:-1.30047 57:-0.500843 58:1.57812 59:1.91134 60:-0.753777 61:-0.833043 62:-0.620383 63:-0.455794 64:0.0515052 65:0.87233 66:1.91135 67:-1.00358 68:-0.867972 69:-1.01081 70:-0.879317 71:-0.83675 72:-0.310345 73:-0.621435 74:-0.830786 75:-0.471851 76:-2.70675 77:-0.616029 78:-0.462477 79:-0.0364438 80:-0.463175 81:1.9772 82:1.5 83:-0.230769 84:2.53846 85:-0.916425 86:1.13473 87:-2 88:-0.726319 89:1.40751 90:0.591785 91:-0.0755102 92:1.02247 93:0.907075 94:0.751904 95:-0.303295 
2 1:0.647936 2:0.736967 3:0.0858033 4:-1 5:2.20987 6:-2.42636 7:-0.420675 8:0.818182 9:-0.35873 10:-0.719321 11:0.36 12:0.424951 13:0.865746 14:-1.22896 15:-2.11888 16:-2.67327 17:-1.85651 18:-1.89768 19:-2.31025 20:0.882353 21:-0.121946 22:-0.748443 23:1.35855 24:0.75 25:0.30735 26:0.536666 27:3 28:-2.36765 29:-2.40625 30:-0.65621 31:1.34699 32:-1.79284 33:-1.56186 34:1.05192 35:-0.142858 36:0.644009 37:0.0335758 38:1.63482 39:-0.282648 40:1.73799 41:-0.034237 42:-0.954846 43:2.53752 44:1.12661 45:-2.56903 46:2.64706 47:3 48:0.772796 49:0.964061 50:0.562937 51:-0.0502922 52:0.789733 53:-0.20561 54:0.40911 55:2.61627 56:-0.0697864 57:1.02698 58:2.12289 59:0.869063 60:0.575175 61:0.420786 62:0.801918 63:1.10472 64:-1.16162 65:1.91547 66:0.869078 67:0.877219 68:0.464701 69:0.864114 70:0.447135 71:0.98588 72:2.17241 73:1.10829 74:1.00022 75:0.992629 76:1.771 77:1.11954 78:1.06393 79:-0.53964 80:1.00786 81:1.8552 82:1.38095 83:1.61538 84:-1.61538 85:0.49232 86:1.32109 87:-2 88:-0.636982 89:0.497124 90:0.985876 91:1.44516 92:2.04728 93:1.96269 94:1.76877 95:1.24585 
2 1:1.60961 2:-0.0035881 3:0.537495 4:-2.33333 5:2.02274 6:-2.86055 7:-1.02885 8:-0.545455 9:-0.2 10:0.216342 11:0.12 12:2.16115 13:-1.33656 14:-0.0782578 15:-1.53147 16:-2.38309 17:-2.02211 18:-2.72162 19:-1.9437 20:2.64706 21:1.76193 22:-0.636224 23:1.20955 24:3 25:2.09131 26:2.7 27:3 28:-2.19871 29:-2.26559 30:1.25178 31:0.860099 32:-1.0692 33:-0.581009 34:2.30194 35:-0.692307 36:0.887713 37:-0.749792 38:2.22768 39:-0.124126 40:1.66899 41:-0.370571 42:1.42748 43:1.66173 44:2.3612 45:-2.91534 46:2.29412 47:3 48:1.73134 49:1.11963 50:1.52947 51:1.08118 52:1.87917 53:1.26314 54:1.2977 55:2.45991 56:1.04823 57:2.23609 58:2.70032 59:0.39312 60:1.53018 61:1.2978 62:1.87766 63:2.30987 64:-0.859501 65:2.60504 66:0.393092 67:1.22463 68:1.47177 69:1.2077 70:1.45106 71:1.1966 72:-0.517241 73:1.66431 74:1.20577 75:1.99327 76:-3 77:1.67219 78:2.26527 79:0.414956 80:2.00013 81:1.98382 82:1.35 83:0.692308 84:0.230769 85:0.752617 86:0.53798 87:-2 88:-1.90601 89:1.86748 90:0.559142 91:2.32824 92:2.69971 93:2.6444 94:1.54771 95:2.41445 
0.9192931482538169 1:-0.723609 2:-0.270843 3:0.318385 4:-3 5:1.7854 6:-2.17387 7:0.686989 8:-2.72727 9:-0.6 10:-0.368448 11:3 12:0.0702495 13:1.19524 14:0.327138 15:-1.55245 16:-2.30086 17:-1.17486 18:-1.66688 19:-1.64176 20:3 21:2.47142 22:1.91502 23:0.477395 24:3 25:1.92428 26:2.7 27:2.7 28:-1.86845 29:-1.96957 30:1.03919 31:1.08716 32:-0.652495 33:-0.317764 34:2.22101 35:-0.860082 36:0.466236 37:-0.588366 38:1.87865 39:-0.525087 40:1.8372 41:-0.182468 42:1.98666 43:-3 44:-3 45:-3 46:-3 47:-3 48:-3 49:-3 50:-3 51:-3 52:-3 53:-0.135896 54:-3 55:-3 56:-3 57:-3 58:-3 59:-3 60:-3 61:-3 62:-3 63:-3 64:-1.21312 65:-3 66:-3 67:-3 68:-3 69:-3 70:-3 71:-3 72:-3 73:-3 74:-3 75:-3 76:-3 77:-3 78:-3 79:-0.617607 80:-3 81:-3 82:-3 83:-3 84:-3 85:-3 86:1.23383 87:-3 88:-0.604267 89:-3 90:0.902864 91:-3 92:-3 93:-3 94:-3 95:-3 
0.01576954631065789 1:0.711152 2:0.761779 3:-0.603699 4:-1.66667 5:2.25311 6:-2.42935 7:-0.820494 8:0.818182 9:-0.6 10:-1.13317 11:-0.36 12:0.405664 13:0.884502 14:-1.02477 15:-1.99301 16:-2.67822 17:-1.73203 18:-1.88583 19:-2.10073 20:1.58824 21:-0.0593997 22:-0.646355 23:1.07288 24:1.5 25:0.407572 26:0.588889 27:3 28:-2.2654 29:-2.32225 30:-0.714581 31:1.50596 32:-1.63723 33:-1.44578 34:1.09177 35:-0.391304 36:0.519747 37:-0.224818 38:1.5635 39:-0.233924 40:1.57158 41:0.0121081 42:-0.572984 43:2.11648 44:1.14017 45:-2.56835 46:2.64706 47:3 48:0.529937 49:1.02519 50:0.759346 51:-0.0740668 52:0.960109 53:0.0438729 54:0.600537 55:2.48993 56:-0.0899034 57:1.07251 58:2.11006 59:0.847373 60:0.765593 61:0.608052 62:0.965677 63:1.14592 64:-1.41646 65:1.94318 66:0.847391 67:1.01737 68:0.407319 69:1.00854 70:0.393064 71:1.18783 72:1.75862 73:1.24042 74:1.19803 75:0.941887 76:0.753995 77:1.24671 78:1.09653 79:-0.934449 80:0.953413 81:2.07038 82:1.65 83:2.53846 84:-0.923077 85:0.395252 86:1.17086 87:-2 88:-0.439439 89:0.300548 90:0.844496 91:1.44666 92:2.03965 93:1.98754 94:1.63424 95:1.23302 
0.02642266288198818 1:-1.24001 2:-0.246344 3:0.108414 4:1 5:2.09971 6:-1.12359 7:-0.569303 8:-0.818182 9:0.2 10:-0.889053 11:0.84 12:-1.29864 13:2.20558 14:-1.94349 15:-2.22378 16:-2.54764 17:-0.653093 18:-0.416183 19:-2.57961 20:-1.23529 21:-1.48927 22:-0.676523 23:0.489218 24:-1.5 25:-1.23608 26:-0.711923 27:3 28:-1.86987 29:-1.97088 30:1.45144 31:-1.83397 32:-1.78802 33:-2.11531 34:-0.0876906 35:1 36:-0.397548 37:1.36909 38:0.666799 39:-0.311975 40:1.16038 41:0.748708 42:-2.16746 43:2.72171 44:-0.0475854 45:-1.52242 46:1.23529 47:3 48:-0.213722 49:0.940957 50:-0.237651 51:-1.14809 52:-0.162503 53:-0.230002 54:-0.280248 55:2.66139 56:-1.16115 57:-0.116358 58:1.65271 59:1.57225 60:-0.232868 61:-0.27631 62:-0.157081 63:-0.0643777 64:-1.8223 65:1.15955 66:1.57221 67:-0.713182 68:-0.659563 69:-0.721952 70:-0.6715 71:-0.388904 72:-1.34483 73:-0.23449 74:-0.381215 75:-0.167931 76:-2.57732 77:-0.227525 78:-0.0965701 79:-1.01796 80:-0.158572 81:1.98578 82:1.8 83:1.15385 84:0.461538 85:-0.494409 86:1.54539 87:-2 88:-0.644629 89:1.38969 90:1.58685 91:0.337963 92:1.24887 93:1.19687 94:1.14509 95:0.00881474 
1.455103788853044 1:-2.10236 2:-0.165045 3:0.405124 4:-3 5:1.95445 6:-0.23495 7:0.327697 8:1.09091 9:-0.6 10:-0.368448 11:-0.12 12:-1.92726 13:2.55234 14:-2.30353 15:-2.51748 16:-2.42262 17:-0.000749899 18:0.473667 19:0.645696 20:3 21:-2.07537 22:-0.882492 23:0.0128145 24:3 25:-1.99109 26:-1.5 27:-1.5 28:-1.63529 29:-1.75004 30:1.25178 31:-2.31881 32:-1.89541 33:-2.44655 34:-0.581632 35:-2.01235 36:-0.779628 37:-1.88613 38:0.198898 39:-0.556832 40:0.781656 41:1.29704 42:-0.664337 43:-1.44865 44:-0.515758 45:-0.690379 46:0.529412 47:1.55172 48:-2.51498 49:0.858123 50:-0.988354 51:-0.66684 52:-0.641822 53:-0.525194 54:-1.37422 55:2.73109 56:-0.683336 57:-0.617201 58:1.52048 59:2.0299 60:-0.984274 61:-1.37073 62:-0.637527 63:-0.574249 64:-1.17121 65:0.78111 66:2.02985 67:-0.236896 68:-0.610699 69:-0.246458 70:-0.622652 71:-0.653719 72:1.34483 73:-0.347942 74:-0.646712 75:-0.53552 76:3 77:-0.342237 78:-0.584966 79:-0.600537 80:-0.527804 81:2.14459 82:1.65 83:-1.61538 84:-0.692308 85:-0.890296 86:1.13576 87:2 88:-0.943303 89:-0.666806 90:0.556116 91:-0.153135 92:0.913615 93:0.815037 94:0.887202 95:-0.44727 
0.2422359313418827 1:0.744741 2:1.90847 3:2.1051 4:0.333333 5:2.2506 6:-2.41128 7:-0.140465 9:-0.2 10:-0.368448 11:-0.6 12:0.478744 13:0.812945 14:-1.31372 15:-2.45455 16:-2.51555 17:-1.3563 18:-1.93032 19:-2.51007 20:-0.529412 21:-0.202965 22:-0.897437 23:1.45449 24:-0.75 25:0.153675 27:3 28:-1.90931 29:-2.00729 30:1.25178 31:-1.18348 32:-1.24451 33:-1.21654 34:1.01078 35:0.529411 36:0.0874158 37:0.289429 38:1.64635 39:-0.283111 40:1.75807 41:-0.0415992 42:-1.2979 43:2.94205 44:1.12401 45:-2.57209 46:0.529412 47:3 48:1.01936 49:1.21578 50:0.724617 51:-0.0908516 52:0.850094 53:-0.20637 54:0.677087 55:2.65071 56:-0.115175 57:0.991568 58:2.14533 59:0.886199 60:0.743451 61:0.702946 62:0.857872 63:1.03777 64:-0.958984 65:1.89381 66:0.886215 67:0.782568 68:0.458416 69:0.764577 70:0.442118 71:1.03498 72:2.37931 73:1.11171 74:1.05817 75:1.00545 76:-3 77:1.1251 78:1.04752 79:-0.241062 80:1.00711 81:1.98382 82:1.65 83:-0.692308 84:-1.84615 85:-0.0692952 86:1.29648 87:-2 88:-0.91399 89:0.823236 90:0.963826 91:1.25115 92:2.05411 93:1.92205 94:1.19093 95:1.25733 
0.4551200394289088 1:-0.379249 2:0.206507 3:0.709742 4:-3 5:1.4807 6:-1.6568 7:-2.12166 8:-1.63636 9:-0.6 10:-0.368448 11:-0.84 12:-0.618322 13:1.75103 14:-2.06468 15:-2.45455 16:-1.66146 17:-0.569179 18:-1.12431 19:-0.275806 20:3 21:-1.36669 22:-1.15839 23:1.12659 24:3 25:-1.05568 26:-0.6 27:-0.6 28:-1.58192 29:-1.69893 30:-1.29929 31:1.08716 32:-1.42032 33:-1.75298 34:0.172886 35:-1.76543 36:-0.52722 37:-1.85829 38:0.982051 39:0.637405 40:1.45876 41:0.451935 42:0.0506879 43:-2.70184 44:0.318366 45:-2.10001 46:1.94118 47:1.75862 48:-2.1716 49:1.16937 50:-0.560193 51:-0.79593 52:-0.073798 53:2.18242 54:-1.04862 55:2.81348 56:-0.802086 57:0.0758853 58:1.84125 59:1.42706 60:-0.617263 61:-1.10841 62:-0.12353 63:0.0901288 64:-1.1801 65:1.29596 66:1.42702 67:-0.491324 68:-0.606054 69:-0.474731 70:-0.601141 71:-0.719007 72:0.517241 73:-0.262563 74:-0.75913 75:-0.262579 76:-3 77:-0.298031 78:0.145611 79:-0.592134 80:-0.283007 81:1.98382 82:1.2 83:0.692308 84:-0.461538 85:-0.692281 86:0.602359 87:1 88:-0.819404 89:-0.936521 90:-0.276599 91:0.401437 92:1.49719 93:1.3059 94:0.832027 95:0.370789 
0.9582678994066546 1:-2.51745 2:-0.331942 3:0.250834 4:-3 5:1.36074 6:1.22235 7:1.30906 8:-1.90909 9:-0.6 10:-0.115568 11:2.76 12:-2.53072 13:2.82538 14:-2.75369 15:-2.55944 16:-1.89873 17:0.727974 18:1.67493 19:1.77706 20:3 21:-2.74526 22:-0.860525 23:-0.281847 24:3 25:-2.57238 26:-2.10571 27:-2.1 28:-1.4712 29:-1.59209 30:1.41833 31:-2.84116 32:-2.08621 33:-2.82588 34:-0.977254 35:-2.17696 36:-1.06876 37:-2.14307 38:-0.181917 39:-2.00246 40:0.586222 41:1.8777 42:-1.01494 43:-1.9704 44:-0.925096 45:0.833265 46:1.58824 47:1.34483 48:-2.74939 49:0.753699 50:-1.23832 51:-0.828674 52:-0.985723 53:-1.56039 54:-1.56161 55:2.85838 56:-0.843335 57:-1.04722 58:1.29263 59:2.55617 60:-1.23417 61:-1.55774 62:-0.981769 63:-1.01202 64:-1.44708 65:0.422966 66:2.55611 67:-0.673397 68:-0.843692 69:-0.681474 70:-0.854266 71:-1.09443 72:0.517241 73:-0.768636 74:-1.08801 75:-0.869352 76:2.36918 77:-0.763354 78:-1.0222 79:-0.675645 80:-0.862525 81:2.40095 82:1.65 83:0.230769 84:0.923077 85:-1.16242 86:1.35313 87:2.5 88:-0.440552 89:2.78093 90:1.59679 91:-0.574424 92:0.537905 93:0.453679 94:0.721601 95:-0.913869 
1.754665485830573 1:-1.9165 2:1.78926 3:2.00737 4:-3 5:1.62206 6:-0.273781 7:0.525477 8:-0.818182 9:-0.6 10:-0.368448 11:1.32 12:-1.84256 13:2.50944 14:-2.34281 15:-2.62238 16:-2.13195 17:-0.0567108 18:0.336234 19:0.824311 20:3 21:-2.24004 22:-1.15372 23:-0.0503347 24:3 25:-2.098 26:-2.1 27:-2.1 28:-1.65824 29:-1.77192 30:-2.36223 31:1.08716 32:-1.95327 33:-2.52159 34:-0.611126 35:-2.17696 36:-0.79282 37:-2.13442 38:0.143312 39:-0.544741 40:0.673283 41:1.37303 42:-0.678805 43:-2.42344 44:-0.502361 45:-0.770485 46:0.529412 47:1.34483 48:-2.64049 49:0.847435 50:-1.06155 51:-0.649136 52:-0.701659 53:-0.487421 54:-1.46236 55:2.69664 56:-0.665344 57:-0.67285 58:1.54548 59:2.08964 60:-1.05714 61:-1.45836 62:-0.697267 63:-0.630901 64:-1.13946 65:0.736696 66:2.08962 67:-0.364695 68:-0.616753 69:-0.374069 70:-0.628783 71:-0.820748 72:1.13793 73:-0.453857 74:-0.813422 75:-0.56682 76:-3 77:-0.447739 78:-0.620462 79:-0.589295 80:-0.558779 81:2.14459 82:1.8 83:-0.230769 84:-0.230769 85:-0.939518 86:1.19062 87:2.5 88:-0.900816 89:-0.877275 90:0.740731 91:-0.198821 92:0.936509 93:0.770224 94:0.911311 95:-0.417315 
1.800567306697946 1:0.861437 2:2.40237 3:2.51003 4:0.333333 5:2.06748 6:-2.464 7:-0.685301 8:-0.545455 9:-1.4 10:-0.368448 11:1.08 12:0.593009 13:0.698142 14:-1.3309 15:-2.66434 16:-2.48899 17:-2.20798 18:-1.99775 19:-2.51167 20:-0.529412 21:0.05337 22:-0.714035 23:1.74536 24:-0.75 25:0.280624 27:3 28:-2.62439 29:-2.59527 30:1.25178 31:-1.18348 32:-2.12873 33:-1.6879 34:1.18398 35:0.529411 36:1.14424 37:0.250658 38:1.82828 39:-0.256562 40:2.01449 41:-0.153076 42:-1.1731 43:2.98627 44:1.25175 45:-2.62121 46:1.23529 47:3 48:1.26934 49:0.837076 50:0.893448 51:-0.183037 52:1.00126 53:-0.0704421 54:0.846435 55:2.75728 56:-0.195875 57:1.13828 58:2.16907 59:0.816729 60:0.890143 61:0.841246 62:0.999755 63:1.20773 64:-1.58608 65:1.98294 66:0.816689 67:0.56275 68:0.40911 69:0.563229 70:0.398665 71:0.909211 72:2.17241 73:1.04097 74:0.905659 75:1.03792 76:-3 77:1.03853 78:1.17166 79:-1.2224 80:1.04484 81:1.98382 82:1.5 83:-1.15385 84:-0.692308 85:0.98047 86:1.00859 87:-2 88:-0.0848982 89:1.08651 90:0.702468 91:1.6057 92:2.099 93:2.02457 94:2.10209 95:1.3333 
2 1:1.58853 2:1.57592 3:1.83247 4:-0.333333 5:1.86783 6:-2.67463 7:-1.14216 8:-1.09091 9:-1.63774 10:-0.368448 11:0.36 12:1.29863 13:-0.0986006 14:-0.858575 15:-2.30769 16:-2.3178 17:-1.90468 18:-2.36441 19:-2.37757 20:0.176471 21:0.223976 22:-1.11363 23:1.23074 25:0.674833 26:0.6 27:3 28:-2.25197 29:-2.31095 30:1.25178 31:-0.729354 32:-1.50136 33:-1.23354 34:1.42874 35:0.157896 36:0.617801 37:-0.0759658 38:1.77274 39:-0.189418 40:1.54168 41:-0.119946 42:-0.73571 43:2.98733 44:1.61823 45:-2.79189 46:1.23529 47:3 48:1.24486 49:1.09189 50:1.12676 51:-0.12319 52:1.25184 53:0.347054 54:1.05192 55:2.47164 56:-0.126307 57:1.35076 58:2.36165 59:0.722328 60:1.14856 61:1.08309 62:1.26396 63:1.42403 64:-1.60964 65:2.10926 66:0.722341 67:0.776731 68:0.461113 69:0.769403 70:0.45878 71:1.12076 72:2.17241 73:1.24416 74:1.14193 75:1.13524 76:-3 77:1.25285 78:1.44286 79:-1.3463 80:1.13733 81:1.98382 82:1.7434 83:-0.692308 84:-0.923077 85:0.386236 86:0.528692 87:-2 88:0.149254 89:0.917602 90:0.349234 91:1.66413 92:2.36522 93:2.15211 94:1.61672 95:1.7976 
0.4680950252809661 1:-2.15853 2:0.775912 3:1.17657 4:3 5:1.87617 6:0.304906 7:0.44406 8:0.545455 9:1 10:0.216342 11:-0.36 12:-2.20403 13:2.68455 14:-2.37453 15:-2.47552 16:-2.35475 17:0.529173 18:0.971043 19:-2.95309 20:-3 21:-2.48028 22:-1.04395 23:-0.417832 24:-3 25:-2.28508 26:-2.1 27:3 28:-1.36855 29:-1.49215 30:1.25178 31:-2.77294 32:-1.85517 33:-2.52863 34:-0.812 35:3 36:-1.0206 37:2.92903 38:-0.0814295 39:-0.30647 40:0.452288 41:1.70976 42:-2.70377 43:2.95685 44:-0.728747 45:-0.136839 46:0.529412 47:3 48:-0.897948 49:0.911674 50:-0.98313 51:-1.4972 52:-0.913185 53:-0.175292 54:-1.00651 55:2.62298 56:-1.50721 57:-0.849916 58:1.43259 59:2.29504 60:-0.978572 61:-1.00133 62:-0.909303 63:-0.811159 64:0.497695 65:0.591728 66:2.29506 67:-0.905497 68:-1.10247 69:-0.912803 70:-1.11171 71:-0.728296 72:3 73:-0.687189 74:-0.720692 75:-0.761884 76:-3 77:-0.681775 78:-0.809393 79:-0.0778254 80:-0.754702 81:1.98382 82:1.65 83:-0.230769 84:-2.07692 85:-1.13884 86:1.37213 87:-2 88:-0.658415 89:0.847556 90:1.53518 91:-0.410128 92:0.756718 93:0.623955 94:0.623921 95:-0.647844 
2 1:-2.45098 2:-2.21672 3:-1.8075 4:-3 5:1.39687 6:0.935048 7:0.792548 8:2.18182 9:-0.6 10:-0.404103 11:-2.28 12:-2.42515 13:2.78164 14:-1.95876 15:-0.545455 16:-1.93123 17:1.52493 18:1.43143 19:1.12575 20:3 21:-2.01043 22:-0.494822 23:-1.08927 24:3 25:-1.71047 26:-1.19187 27:-0.9 28:-0.712715 29:-0.839772 30:-1.8118 31:1.30042 32:-1.42349 33:-2.15635 34:-0.807072 35:-1.84774 36:-1.27173 37:-1.56903 38:-0.298526 39:-1.29104 40:0.107532 41:2.08825 42:-0.943433 43:-0.87717 44:-0.802292 45:0.504756 46:0.882353 47:1.75862 48:-2.50689 49:1.05959 50:-1.24869 51:-0.817131 52:-0.931766 53:-1.16703 54:-1.5862 55:2.46645 56:-0.83232 57:-0.88027 58:1.43118 59:2.33286 60:-1.24544 61:-1.58337 62:-0.928235 63:-0.84206 64:-0.947977 65:0.566284 66:2.33283 67:-0.3976 68:-0.782672 69:-0.406316 70:-0.793693 71:-0.835242 72:1.34483 73:-0.571771 74:-0.828946 75:-0.750454 76:-2.57732 77:-0.566744 78:-0.877961 79:-0.536872 80:-0.743449 81:2.23281 82:1.8 83:-0.692308 84:-0.461538 85:-1.3168 86:1.2322 87:1.5 88:-0.93691 89:-0.539335 90:0.895082 91:-0.536931 92:0.601212 93:0.598283 94:0.0938293 95:-0.838545 
2 1:0.0372639 2:0.818485 3:1.21147 4:0.333333 5:2.2724 6:-2.19038 7:-0.359802 8:0.272727 9:0.2 10:-0.368448 11:0.6 12:-0.0706237 13:1.31756 14:-1.2654 15:-2.28671 16:-2.69457 17:-1.45744 18:-1.56694 19:-2.52586 20:-0.529412 21:-0.474142 22:-0.819829 23:0.804094 24:-0.75 25:-0.22049 27:3 28:-2.142 29:-2.21644 30:1.25178 31:-1.18348 32:-1.66662 33:-1.6539 34:0.682745 35:0.529411 36:0.196334 37:0.479337 38:1.24194 39:-0.296077 40:1.33755 41:0.240449 42:-1.58332 43:2.8196 44:0.767831 45:-2.38776 46:1.94118 47:3 48:0.589687 49:0.992902 50:0.29367 51:-0.444943 52:0.466933 53:-0.244448 54:0.191819 55:2.51623 56:-0.462719 57:0.667791 58:2.03026 59:1.05416 60:0.302363 61:0.201709 62:0.474188 63:0.733906 64:-1.04633 65:1.69113 66:1.05412 67:0.412096 68:0.102096 69:0.399454 70:0.0861651 71:0.620407 72:2.58621 73:0.720114 74:0.633629 75:0.646405 76:-3 77:0.729794 78:0.709919 79:-0.41758 80:0.658777 81:1.98382 82:1.35 83:2.07692 84:-1.84615 85:0.0492971 86:1.42732 87:-2 88:-0.688578 89:0.68731 90:1.13569 91:1.0752 92:1.83598 93:1.73323 94:1.47521 95:0.89779 
0.196773380905776 1:-1.92553 2:0.552184 3:0.993147 4:-3 5:0.972541 6:0.380145 7:-1.81902 8:-2.45455 9:-0.6 10:-0.368448 11:-0.84 12:-2.10657 13:2.63937 14:-2.13745 15:-1.99301 16:-1.54426 17:0.540703 18:0.786806 19:1.30277 20:3 21:-1.9186 22:-0.420705 23:-0.397018 24:3 25:-1.90423 26:-1.8 27:-1.8 28:-1.36489 29:-1.48858 30:-2.14964 31:1.08716 32:-1.7212 33:-2.33047 34:-0.561883 35:-2.09465 36:-0.944622 37:-2.21402 38:0.039218 39:1.08832 40:0.607114 41:1.5228 42:-0.439921 43:-2.85049 44:-0.567912 45:-0.174005 46:0.529412 47:1.34483 48:-2.67497 49:0.901637 50:-1.16204 51:-1.16976 52:-0.76286 53:1.58339 54:-1.5823 55:2.65152 56:-1.18431 57:-0.677909 58:1.44013 59:2.0952 60:-1.15793 61:-1.57875 62:-0.758585 63:-0.636052 64:-1.2326 65:0.732633 66:2.09517 67:-0.982594 68:-1.07384 69:-0.990831 70:-1.08465 71:-1.2773 72:0.517241 73:-0.887595 74:-1.27132 75:-0.888046 76:-3 77:-0.88213 78:-0.680782 79:-0.625038 80:-0.880638 81:1.98382 82:1.5 83:-1.15385 84:0.230769 85:-0.988898 86:1.01988 87:2 88:-0.512364 89:2.96879 90:0.0958746 91:-0.256883 92:0.751692 93:0.766124 94:0.620522 95:-0.654134 
0.4356616423928179 1:0.349049 2:0.117907 3:0.424902 4:-1.66667 5:2.39466 6:-2.40467 7:-0.380073 9:0.6 10:-0.251488 11:-0.36 12:0.370861 13:0.918079 14:-0.762225 15:-1.88811 16:-2.61036 17:-1.8387 18:-1.86427 19:-1.98918 20:1.94118 21:1.24784 22:0.667807 23:1.71441 24:2.25 25:1.36971 26:1.94 27:3 28:-2.36711 29:-2.40581 30:-0.304924 31:2.26776 32:-1.50505 33:-1.05942 34:1.77556 35:-0.5 36:0.950254 37:-0.342058 38:2.1758 39:-0.186846 40:2.43346 41:-0.344225 42:0.583051 43:1.86599 44:1.45969 45:-2.55714 46:1.23529 47:3 48:1.64914 49:0.951659 50:1.56906 51:0.883519 52:1.69232 53:0.4935 54:1.505 55:2.75265 56:0.898839 57:1.77572 58:2.10973 59:0.5529 60:1.51954 61:1.44375 62:1.65437 63:1.82575 64:-1.43424 65:2.35297 66:0.552872 67:2.17491 68:1.26774 69:2.21532 70:1.2872 71:2.31037 72:2.37931 73:2.22288 74:2.25873 75:1.74768 76:1.229 77:2.17854 78:1.61508 79:-1.13049 80:1.72307 81:2.20889 82:1.65 83:-0.692308 84:-1.61538 85:1.12868 86:0.762641 87:-2 88:-0.218382 89:0.204581 90:0.609944 91:2.01859 92:2.01818 93:2.38094 94:1.76806 95:1.19703 
2 1:-2.0125 2:-0.454578 3:0.167748 4:-3 5:1.73937 6:-0.02395 7:0.925965 8:-1.63636 9:-0.6 10:-0.368448 11:2.76 12:-2.0027 13:2.58958 14:-1.73361 15:-1.84615 16:-2.23528 17:0.923129 18:0.601574 19:0.842766 20:3 21:-1.83861 22:-0.863145 23:-0.971722 24:3 25:-1.85746 26:-1.5 27:-1.5 28:-0.884876 29:-1.01286 30:-1.93705 31:1.08716 32:-1.3668 33:-2.01623 34:-0.625893 35:-2.01235 36:-1.13475 37:-1.96399 38:-0.135457 39:-1.06888 40:0.115599 41:1.7986 42:-0.679281 43:-1.63912 44:-0.564263 45:-0.502038 46:1.23529 47:1.55172 48:-2.57158 49:1.11416 50:-0.935256 51:-0.543375 52:-0.634894 53:-1.14958 54:-1.30198 55:2.35756 56:-0.560566 57:-0.677909 58:1.59313 59:2.0952 60:-0.93105 61:-1.29808 62:-0.63069 63:-0.636052 64:-1.40447 65:0.732633 66:2.09517 67:-0.405898 68:-0.531253 69:-0.415553 70:-0.544196 71:-0.847908 72:1.34483 73:-0.455406 74:-0.840429 75:-0.518855 76:-3 77:-0.448822 78:-0.647963 79:-0.69078 80:-0.510012 81:2.14459 82:1.65 83:0.230769 84:1.15385 85:-1.22551 86:1.35074 87:2 88:-0.37028 89:2.70918 90:1.34387 91:-0.336375 92:0.858624 93:0.766124 94:0.218742 95:-0.518504 
2 1:1.88956 2:1.23916 3:1.55637 4:-0.333333 5:2.21003 6:-2.78448 7:-0.0415094 8:-0.272727 9:-0.449711 10:0.216342 11:-0.36 12:1.54887 13:-0.423086 14:-0.672854 15:-1.84615 16:-2.5844 17:-1.94489 18:-2.47696 19:-2.35208 20:0.529412 21:0.494508 22:-1.28186 23:1.08858 24:0.75 25:0.96882 26:0.9 27:3 28:-2.22672 29:-2.28955 30:1.25178 31:-0.502289 32:-1.4217 33:-1.13446 34:1.48967 35:4.44089e-016 36:0.628067 37:-0.191922 38:1.78243 39:-0.245346 40:1.3974 41:-0.125771 42:-0.569442 43:2.9962 44:1.7339 45:-2.83415 46:1.94118 47:3 48:1.28774 49:1.0871 50:1.19626 51:0.501519 52:1.34485 53:0.0158654 54:1.12375 55:2.43664 56:0.485291 57:1.46206 58:2.51329 59:0.675629 60:1.20472 61:1.13494 62:1.34915 63:1.53219 64:-1.02008 65:2.1742 66:0.675613 67:1.28583 68:1.0056 69:1.28182 70:0.994004 71:1.46467 72:0.517241 73:1.61024 74:1.47078 75:1.518 76:-3 77:1.61313 78:1.58182 79:-0.239818 80:1.52339 81:1.98382 82:1.67775 83:0.230769 85:0.358437 86:1.03658 87:-2 88:-1.11777 89:0.955048 90:0.757593 91:1.74092 92:2.49089 93:2.2147 94:1.58391 95:2.02498 
2 1:0.222581 2:1.19316 3:1.51866 4:0.333333 5:2.31496 6:-2.24267 7:-0.523144 8:-0.545455 9:0.2 10:-0.368448 11:0.36 12:0.00160247 13:1.25543 14:-1.47773 15:-2.16084 16:-2.73053 17:-1.77807 18:-1.61881 19:-2.56935 20:-0.529412 21:-0.310863 22:-0.69951 23:1.38375 24:-0.75 25:-0.0334076 27:3 28:-2.3906 29:-2.42455 30:1.25178 31:-1.18348 32:-1.93209 33:-1.76998 34:0.789075 35:0.529411 36:0.561027 37:0.492116 38:1.49809 39:-0.255842 40:1.77017 41:0.0559145 42:-1.55598 43:2.89897 44:0.846883 45:-2.42057 46:0.529412 47:3 48:0.824825 49:0.872416 50:0.602634 51:-0.43436 52:0.690636 53:-0.0805831 54:0.571139 55:2.73782 56:-0.4512 57:0.779089 58:2.0451 59:0.993954 60:0.610076 61:0.579711 62:0.697057 63:0.84721 64:-1.43692 65:1.76178 66:0.993954 67:0.516501 68:0.137844 69:0.505167 70:0.122755 71:0.859653 72:2.17241 73:0.890031 74:0.871586 75:0.722145 76:-3 77:0.898324 78:0.807808 79:-0.906773 80:0.73391 81:1.98382 82:1.65 83:-0.692308 84:-0.230769 85:0.423472 86:1.08516 87:-2 88:-0.4795 89:0.766338 90:0.73684 91:1.24105 92:1.87116 93:1.8045 94:1.79914 95:0.954697 
0.2958202562454781 1:-0.196915 2:0.558766 3:0.998543 4:-0.333333 5:2.44703 6:-2.37006 7:0.617183 8:0.818182 9:0.2 10:0.216342 11:0.12 12:0.277754 13:1.00635 14:-0.752804 15:-2.11888 16:-2.62997 17:-1.44138 18:-1.8053 19:-2.34376 20:0.529412 21:0.42487 22:-0.233793 23:0.861134 24:0.75 25:0.567929 26:0.9 27:3 28:-2.0383 29:-2.12456 30:1.25178 31:-0.502289 32:-1.29265 33:-1.1585 34:1.21675 35:4.44089e-016 36:0.30088 37:0.118048 38:1.57279 39:-0.330138 40:1.54129 41:0.00598707 42:-0.807258 43:2.57953 44:1.15765 45:-2.52786 46:1.94118 47:3 48:1.26714 49:1.08926 50:0.831631 51:0.567232 52:1.00367 53:-0.48294 54:0.748875 55:2.46736 56:0.55478 57:1.22428 58:2.13343 59:0.777672 60:0.815483 61:0.732835 62:0.98482 63:1.26438 64:-0.956021 65:2.03445 66:0.777648 67:1.52238 68:1.01261 69:1.51948 70:1.00965 71:1.53018 72:2.37931 73:1.58643 74:1.52568 75:1.42773 76:-3 77:1.57764 78:1.19458 79:-0.178674 80:1.41653 81:1.98382 82:1.65 83:2.07692 84:-1.84615 85:0.267587 86:1.50704 87:-2 88:-0.878076 89:0.520811 90:1.13374 91:1.4692 92:1.9806 93:2.05829 94:1.34571 95:1.13439 
0.9846677695989506 1:-0.0826297 2:1.68068 3:1.91835 4:1 5:1.96324 6:-1.94141 7:0.630239 8:-0.545455 9:0.6 10:0.216342 11:1.56 12:-0.359212 13:1.55401 14:-1.64204 15:-2.6014 16:-2.43025 17:-1.816 18:-1.34533 19:-2.59047 20:-0.882353 21:-0.361811 22:-0.254961 23:1.54227 24:-0.75 25:-0.287305 26:-0.3 27:3 28:-2.51063 29:-2.51624 30:1.25178 31:-1.41055 32:-2.13312 33:-1.92711 34:0.747093 35:0.75 36:0.708245 37:0.750638 38:1.4972 39:-0.313467 40:2.01759 41:0.056521 42:-1.64876 43:2.86885 44:0.699422 45:-2.22985 46:0.882353 47:3 48:0.923137 49:0.77905 50:0.622326 51:-0.043084 52:0.650745 53:-0.316502 54:0.633993 55:2.85088 56:-0.0632628 57:0.693086 58:1.88986 59:1.04019 60:0.629976 61:0.642452 62:0.657616 63:0.759657 64:-2.15151 65:1.70728 66:1.0402 67:0.544114 68:0.456705 69:0.531782 70:0.439509 71:0.788587 72:1.96552 73:0.887048 74:0.800515 75:0.883987 76:-3 77:0.896085 78:0.669519 79:-1.76241 80:0.896608 81:1.98382 82:1.65 83:-0.230769 84:1.15385 85:0.666033 86:1.38081 87:-2 88:-0.130149 89:1.26708 90:1.07667 91:1.20236 92:1.68271 93:1.74952 94:1.95723 95:0.654624 
2 1:0.464409 2:0.136074 3:-0.485018 4:-0.333333 5:1.86353 6:-2.53864 7:0.131836 8:-0.272727 9:-0.6 10:1.03505 11:0.6 12:0.938287 13:0.328267 14:-1.51361 15:-1.95105 16:-2.19911 17:-1.33306 18:-2.18711 19:-2.36512 20:0.529412 21:-0.883448 22:-2.12891 23:1.10596 24:0.75 25:-0.213808 26:0.186667 27:3 28:-1.77852 29:-1.88569 30:1.31131 31:-1.08327 32:-1.30436 33:-1.42878 34:0.656823 35:4.44089e-016 36:-0.177017 37:0.0138948 38:1.29647 39:-0.297723 40:1.16167 41:0.199322 42:-1.4412 43:2.79757 44:1.08483 45:-2.69439 46:1.94118 47:3 48:-0.0178766 49:1.2605 50:0.654798 51:-0.257841 52:0.709637 53:-0.245022 54:0.592327 55:2.5521 56:-0.265865 57:0.591906 58:2.34478 59:1.09669 60:0.625977 61:0.557205 62:0.688012 63:0.636052 64:-1.96552 65:1.64235 66:1.09671 67:0.489789 68:0.2118 69:0.49495 70:0.210563 71:0.750483 72:0.103448 73:0.869191 74:0.732378 75:0.672364 76:-1.229 77:0.853314 78:0.796295 79:-1.47387 80:0.664993 81:2.17674 82:1.65 83:1.15385 84:1.15385 85:-0.533362 86:1.17824 87:-2 88:-0.229037 89:1.33206 90:0.832391 91:0.894352 92:2.21037 93:1.67079 94:1.04165 95:1.52466 
2 1:1.16996 2:0.989603 3:1.35177 4:-1 5:2.44507 6:-2.70709 7:-0.748054 8:-0.818182 9:0.2 10:-0.368448 11:0.12 12:1.21697 13:0.00211906 14:-0.862826 15:-2.07692 16:-2.7013 17:-2.10888 18:-2.32588 19:-2.3151 20:0.882353 21:0.635009 22:-0.752043 23:1.6166 24:0.75 25:1.06904 26:1.2 27:3 28:-2.43148 29:-2.45658 30:1.25178 31:-0.275224 32:-1.66817 33:-1.23354 34:1.5857 35:-0.142858 36:0.982839 37:-0.177348 38:2.04184 39:-0.223222 40:1.91398 41:-0.273663 42:-0.34874 43:2.72395 44:1.6713 45:-2.76383 46:1.58824 47:3 48:1.56787 49:0.989112 50:1.46478 51:0.291781 52:1.54671 53:0.181742 54:1.43953 55:2.61564 56:0.298567 57:1.59359 58:2.37258 59:0.622601 60:1.42694 61:1.38881 62:1.52153 63:1.65064 64:-1.4777 65:2.24991 66:0.622615 67:1.38825 68:0.83858 69:1.42702 70:0.849535 71:1.76964 72:1.96552 73:1.76397 74:1.71723 75:1.4695 76:-3 77:1.72734 78:1.63627 79:-1.1744 80:1.45394 81:1.98382 82:1.65 83:0.230769 84:-0.230769 85:0.816168 86:0.854263 87:-2 88:-0.198101 89:0.61259 90:0.642803 91:1.90303 92:2.37369 93:2.28241 94:1.8532 95:1.81276 
2 1:-1.7651 2:-0.549229 3:0.0901486 4:-3 5:0.503685 6:-0.0964645 7:-1.81085 8:-2.45455 9:-1 10:-0.368448 11:2.76 12:-1.74986 13:2.46116 14:-1.58009 15:-1.32168 16:-1.21128 17:0.727311 18:0.192827 19:0.849443 20:3 21:-1.57223 22:-0.501301 23:-0.840783 24:3 25:-1.46325 26:-1.2 27:-1.2 28:-0.991574 29:-1.11957 30:-1.72447 31:1.08716 32:-1.29819 33:-1.87611 34:-0.33739 35:-1.93004 36:-1.02384 37:-2.02816 38:0.0109444 39:0.895897 40:0.279515 41:1.56526 42:-0.31873 43:-2.12303 44:-0.330498 45:-0.724963 46:0.529412 47:1.55172 48:-2.53637 49:1.13956 50:-1.05184 51:-1.04913 52:-0.625131 53:1.62818 54:-1.48594 55:2.34354 56:-1.06871 57:-0.505902 58:1.57458 59:1.91635 60:-1.04007 61:-1.47613 62:-0.611548 63:-0.450644 64:-1.11872 65:0.868409 66:1.91634 67:-0.947118 68:-0.932817 69:-0.963353 70:-0.950519 71:-1.26322 72:0.310345 73:-0.812004 74:-1.24872 75:-0.729623 76:-3 77:-0.797174 78:-0.502676 79:-0.574427 80:-0.713224 81:1.98382 82:1.5 83:-0.230769 84:0.230769 85:-1.07617 86:0.944377 87:1.5 88:-0.60507 89:2.81374 90:-0.0102684 91:-0.16336 92:0.915806 93:0.911028 94:0.300909 95:-0.444409 
1.45214817570315 1:-2.77532 2:1.2102 3:1.53263 4:-3 5:1.44193 6:1.39159 7:0.694865 8:-1.90909 9:-0.6 10:-0.368448 11:2.76 12:-2.60501 13:2.85517 14:-2.64826 15:-2.53846 16:-1.97165 17:1.42169 18:1.85669 19:2.01194 20:3 21:-2.93654 22:-1.39616 23:-0.909549 24:3 25:-2.79287 26:-2.7 27:-2.7 28:-0.96244 29:-1.09048 30:-2.78741 31:1.08716 32:-1.89112 33:-2.7438 34:-1.1606 35:-2.34156 36:-1.34277 37:-2.29939 38:-0.474471 39:-0.349175 40:0.0495199 41:2.44273 42:-1.27736 43:-2.51098 44:-1.04575 45:1.04647 46:0.529412 47:1.13793 48:-2.82961 49:0.876471 50:-1.51211 51:-1.1768 52:-1.22822 53:-0.188374 54:-1.83728 55:2.67252 56:-1.19005 57:-1.21922 58:1.38052 59:2.8183 60:-1.50893 61:-1.83453 62:-1.22494 63:-1.18712 64:-1.24163 65:0.268739 66:2.81825 67:-1.03176 68:-1.15534 69:-1.03919 70:-1.16511 71:-1.40217 72:0.724138 73:-1.07427 74:-1.39683 75:-1.12082 76:-3 77:-1.06953 78:-1.16447 79:-0.62321 80:-1.1144 81:2.14459 82:1.8 83:-1.15385 84:0.923077 85:-1.47754 86:1.20994 87:3 88:-0.467256 89:2.89663 90:0.727977 91:-0.807173 92:0.499222 93:0.298068 94:0.278095 95:-0.959239 
2 1:1.80497 2:1.40321 3:1.69087 4:-1 5:2.15263 6:-2.81086 7:-1.11501 8:-0.818182 9:-0.899354 10:-0.368448 11:0.36 12:1.72111 13:-0.661567 14:-0.579231 15:-2.13986 16:-2.56587 17:-2.12636 18:-2.54995 19:-2.26051 20:0.882353 21:0.83284 22:-0.980089 23:1.3492 24:0.75 25:1.24944 26:1.2 27:3 28:-2.36711 29:-2.40581 30:1.25178 31:-0.275224 32:-1.50505 33:-1.05942 34:1.78398 35:-0.142858 36:0.950254 37:-0.324224 38:2.02787 39:-0.179437 40:1.66148 41:-0.26609 42:-0.0520135 43:2.80136 44:1.94542 45:-2.85684 46:1.58824 47:3 48:1.62102 49:1.05067 50:1.37497 51:0.309218 52:1.55984 53:0.539644 54:1.25744 55:2.4865 56:0.277992 57:1.74536 58:2.51802 59:0.564246 60:1.37866 61:1.25997 62:1.56392 63:1.82575 64:-1.44243 65:2.33593 66:0.564216 67:1.23959 68:0.861967 69:1.22239 70:0.836274 71:1.48343 72:2.17241 73:1.62214 74:1.49321 75:1.50347 76:-3 77:1.63212 78:1.82477 79:-1.1412 80:1.5205 81:1.98382 82:1.57645 83:0.692308 84:-1.61538 85:0.729738 86:0.428746 87:-2 88:-0.126063 89:0.671786 90:0.394199 91:2.01859 92:2.55495 93:2.38094 94:1.76806 95:2.14291 
0.2895043342874532 1:-0.963301 2:-1.65053 3:-1.161 4:-3 5:0.979296 6:-1.36127 7:-1.47529 8:-2.18182 9:-0.6 10:-2.28759 11:2.28 12:-0.818266 13:1.89376 14:-0.333142 15:-1.00699 16:-1.51543 17:-0.190337 18:-0.937264 19:-0.853055 20:3 21:0.485271 22:1.04236 23:-0.34283 24:3 25:0.360802 26:1.50331 27:1.8 28:-1.31462 29:-1.43936 30:2.33818 31:-0.841064 32:-0.704096 33:-0.844253 34:0.988216 35:-1.107 36:-0.401653 37:-0.924535 38:0.907953 39:0.180671 40:0.979117 41:0.517377 42:0.850344 43:0.301242 44:0.644386 45:-1.8741 46:0.882353 47:2.58621 48:-0.702386 49:1.27534 50:0.141202 51:0.0085213 52:0.564665 53:1.81372 54:-0.220356 55:2.2145 56:0.00122487 57:0.799325 58:1.77534 59:0.983302 60:0.139719 61:-0.221864 62:0.563798 63:0.862661 64:-0.523236 65:1.77451 66:0.983306 67:-0.261535 68:0.205459 69:-0.254248 70:0.202597 71:-0.509471 72:-0.310345 73:0.117817 74:-0.515894 75:0.538724 76:0.200852 77:0.110506 78:0.631862 79:0.285791 80:0.538844 81:1.55836 82:1.8 83:-0.692308 84:1.38462 85:-0.224643 86:0.35495 87:-1 88:-1.01628 89:2.25866 90:-0.0653936 91:0.951731 92:1.39311 93:1.81414 94:0.574355 95:0.216575 
0.0007039932076689761 1:1.88479 2:1.77719 3:1.99747 4:-1.66667 5:2.14844 6:-2.9519 7:0.298229 9:-0.539568 10:0.216342 11:-0.84 12:2.75361 13:-2.44326 14:0.0384416 15:-1.95105 16:-2.45105 17:-2.32209 18:-2.92406 19:-2.02483 20:1.94118 21:2.19164 22:-0.750151 23:1.46362 24:2.25 25:2.41203 26:2.1 27:3 28:-2.39538 29:-2.42834 30:1.25178 31:0.40597 32:-1.24805 33:-0.556968 34:2.6263 35:-0.5 36:1.32389 37:-0.721181 38:2.49724 39:-0.280899 40:1.80959 41:-0.499522 42:1.78453 43:2.34204 44:2.73064 45:-2.96623 46:1.58824 47:3 48:2.44179 49:1.03479 50:2.24216 51:2.17302 52:2.42211 53:-0.27376 54:2.1624 55:2.51984 56:2.1588 57:2.5801 58:2.88291 59:0.286832 60:2.23397 61:2.15911 62:2.40786 63:2.64979 64:-1.05762 65:2.78624 66:0.286833 67:2.96054 68:2.43589 69:2.94884 70:2.42901 71:2.82866 72:1.75862 73:2.94757 74:2.84083 75:2.75163 76:-3 77:2.94892 78:2.6316 79:-0.0852774 80:2.74845 81:1.98382 82:1.70612 83:-0.230769 84:-1.84615 85:1.14345 86:1.13628 87:-2 88:-1.75711 89:0.398432 90:0.861791 91:2.65953 92:2.92215 93:2.82226 94:1.80546 95:2.84531 
0.1923956402484313 1:-1.56846 2:-0.807806 3:-2.00633 4:-1 5:1.83853 6:-0.909171 7:0.0879748 8:-1.09091 9:1 10:-0.0683298 11:2.28 12:-1.37537 13:2.2515 14:-1.35373 15:-1.67832 16:-2.16137 17:0.159832 18:-0.32188 19:-1.64335 20:1.23529 21:-0.386671 22:0.486661 23:0.194228 24:1.5 25:-0.594655 26:0.0849891 27:3 28:-1.20706 29:-1.33351 30:2.18515 31:-1.66805 32:-0.963664 33:-1.28866 34:0.299102 35:-0.272727 36:-0.661532 37:0.390529 38:0.789268 39:-0.157827 40:1.24997 41:0.627556 42:-1.00324 43:1.74683 44:0.113969 45:-1.36928 46:1.58824 47:3 48:-0.274094 49:1.21742 50:-0.304798 51:-0.346145 52:-0.0308629 53:0.186754 54:-0.498232 55:2.61402 56:-0.312418 57:0.237774 58:1.66737 59:1.31498 60:-0.300163 61:-0.492043 62:-0.0313952 63:0.275536 64:-0.265992 65:1.40757 66:1.31493 67:-0.539043 68:-0.0335399 69:-0.532975 70:-0.00482724 71:-0.617906 72:-0.724138 73:-0.146316 74:-0.61277 75:0.316206 76:-0.16597 77:-0.150472 78:0.145616 79:0.213896 80:0.293403 81:1.46997 82:1.65 83:1.15385 84:2.07692 85:-0.581867 86:0.713384 87:-2 88:-0.599644 89:1.83838 90:0.0476671 91:0.468545 92:1.17872 93:1.4332 94:0.478967 95:-0.089719 
2 1:-2.3219 2:-0.32314 3:-0.524574 4:-3 5:1.8173 6:0.0108954 7:0.168589 8:-1.36364 9:-0.6 10:-0.415863 11:2.52 12:-2.0057 13:2.59105 14:-2.29914 15:-2.01399 16:-2.06002 17:1.22352 18:0.606767 19:0.846756 20:3 21:-2.40039 22:-1.48031 23:-0.548549 24:3 25:-2.14477 26:-1.81351 27:-1.5 28:-0.61561 29:-0.741718 30:1.48823 31:-2.65451 32:-1.35608 33:-2.09127 34:-0.81276 35:-2.01235 36:-1.298 37:-1.94194 38:-0.122269 39:-0.148669 40:0.26858 41:1.77659 42:-1.01794 43:-1.54926 44:-0.663071 45:-0.469289 46:1.58824 47:1.55172 48:-2.62664 49:1.22907 50:-1.18469 51:-1.0022 52:-0.868255 53:-0.0111003 54:-1.54223 55:2.59088 56:-0.964123 57:-0.854975 58:1.58986 59:2.30129 60:-1.19725 61:-1.55104 62:-0.884376 63:-0.83691 64:-1.14398 65:0.587499 66:2.30128 67:-0.883745 68:-0.923853 69:-0.843847 70:-0.890909 71:-1.18339 72:0.517241 73:-0.789842 74:-1.20602 75:-0.789018 76:2.36918 77:-0.819261 78:-0.782789 79:-0.5959 80:-0.815152 81:2.22714 82:1.95 83:0.692308 84:1.38462 85:-1.44519 86:1.17437 87:2 88:-0.601607 89:2.68956 90:0.6294 91:-0.545903 92:0.843881 93:0.602574 94:0.0272709 95:-0.537431 
0.5660014438583062 1:0.534032 2:-0.213308 3:0.365555 4:-1.66667 5:1.66473 6:-2.46543 7:-1.23478 8:-1.90909 9:-0.2 10:0.216342 11:1.08 12:0.797616 13:0.483297 14:-0.469228 15:-1.8042 16:-2.14215 17:-1.83957 18:-2.11244 19:-1.89621 20:1.94118 21:1.34272 22:0.237816 23:1.16747 24:2.25 25:1.35635 26:2.1 27:3 28:-2.30299 29:-2.35356 30:1.25178 31:0.40597 32:-1.41064 33:-1.00137 34:1.86409 35:-0.5 36:0.851788 37:-0.502611 38:1.96116 39:-0.084406 40:1.8974 41:-0.229321 42:0.739662 43:1.69917 44:1.65986 45:-2.67047 46:1.23529 47:3 48:1.31296 49:0.965013 50:1.34505 51:0.513677 52:1.57222 53:1.25828 54:1.22652 55:2.58036 56:0.504237 57:1.74536 58:2.27119 59:0.564246 60:1.35344 61:1.23864 62:1.57707 63:1.82575 64:-0.440122 65:2.33593 66:0.564216 67:0.623 68:0.933861 69:0.621949 70:0.926032 71:0.774422 72:-0.310345 73:1.1955 74:0.782411 75:1.48157 76:-3 77:1.19767 78:1.64467 79:1.14729 80:1.48749 81:1.98382 82:1.95 83:-1.15385 84:-0.923077 85:0.924267 86:0.681354 87:-2 88:-1.9527 89:1.85478 90:0.553738 91:1.99619 92:2.14798 93:2.38094 94:1.6835 95:1.41696 
0.289722389077526 1:0.494298 2:-0.0665635 3:-0.69413 4:-1 5:1.78119 6:-2.62032 7:-0.461627 8:-0.545455 9:-1 10:0.202078 11:0.6 12:1.17773 13:0.0496515 14:-1.158 15:-1.61538 16:-2.27193 17:-1.58719 18:-2.30704 19:-2.27315 20:0.882353 21:-0.665466 22:-2.19783 23:0.642992 24:0.75 25:0.00668151 26:0.408944 27:3 28:-1.97295 29:-2.06552 30:1.08962 31:-0.752735 32:-1.46306 33:-1.50382 34:0.754921 35:-0.142858 36:0.030467 37:-0.161592 38:1.19355 39:-0.292835 40:0.853256 41:0.277838 42:-1.24561 43:2.67635 44:1.21478 45:-2.76342 46:1.58824 47:3 48:-0.0554055 49:1.14711 50:0.647406 51:-0.365848 52:0.752992 53:-0.23223 54:0.54028 55:2.37009 56:-0.380424 57:0.677909 58:2.44959 59:1.04853 60:0.661916 61:0.557868 62:0.763318 63:0.744206 64:-1.6936 65:1.6976 66:1.04852 67:0.341942 68:0.128539 69:0.330601 70:0.115332 71:0.600131 72:0.103448 73:0.773374 74:0.61717 75:0.636684 76:-0.422679 77:0.783582 78:0.896622 79:-1.19771 80:0.647095 81:2.27006 82:1.65 83:0.230769 84:1.15385 85:-0.364869 86:1.22805 87:-2 88:-0.303962 89:1.4205 90:0.895947 91:1.03513 92:2.31298 93:1.73975 94:1.26638 95:1.70462 
2 1:0.209802 2:1.11973 3:1.45845 4:1 5:2.21867 6:-2.10255 7:-0.310166 8:0.545455 9:0.2 10:0.216342 11:0.6 12:-0.201508 13:1.4271 14:-1.57748 15:-2.32867 16:-2.64909 17:-1.63866 18:-1.46939 19:-2.59179 20:-0.882353 21:-0.860064 22:-0.902082 23:1.11988 24:-0.75 25:-0.407572 26:-0.3 27:3 28:-2.32919 29:-2.37509 30:1.25178 31:-1.41055 32:-1.95988 33:-1.91011 34:0.5571 35:0.75 36:0.360803 37:0.627779 38:1.26751 39:-0.232174 40:1.52924 41:0.221028 42:-1.76267 43:2.89247 44:0.658616 45:-2.32552 46:1.94118 47:3 48:0.47918 49:0.917552 50:0.274446 51:-0.556687 52:0.403317 53:-0.00330362 54:0.193091 55:2.61029 56:-0.573143 57:0.536256 58:1.92905 59:1.1288 60:0.282465 61:0.202482 62:0.41003 63:0.6 64:-1.70108 65:1.60625 66:1.12882 67:0.310907 68:-0.0129039 69:0.299189 70:-0.0277352 71:0.55948 72:2.17241 73:0.635681 74:0.57207 75:0.526226 76:-3 77:0.644553 78:0.586362 79:-1.15173 80:0.537772 81:1.98382 82:1.5 83:0.230769 84:-1.38462 85:0.189259 86:1.15015 87:-2 88:-0.353897 89:0.758918 90:0.792614 91:1.0178 92:1.7737 93:1.64758 94:1.71798 95:0.79804 
1.053673390597452 1:-1.68173 2:1.26285 3:1.57579 4:-3 5:1.84788 6:-0.0629145 7:0.870683 8:-1.90909 9:-0.6 10:-0.368448 11:3 12:-1.93201 13:2.55472 14:-2.39375 15:-2.72727 16:-2.11827 17:0.441852 18:0.481567 19:0.955159 20:3 21:-1.97512 22:-0.598634 23:0.353474 24:3 25:-1.95768 26:-1.8 27:-1.8 28:-1.28728 29:-1.41252 30:-2.14964 31:1.08716 32:-1.57397 33:-2.14931 34:-0.495543 35:-2.09465 36:-0.929315 37:-2.13144 38:0.347547 39:-1.23748 40:1.08694 41:1.10623 42:-0.332668 43:-2.27274 44:-0.47358 45:-0.551637 46:0.882353 47:1.34483 48:-2.59732 49:1.05449 50:-0.932373 51:-0.384204 52:-0.562041 53:-1.55172 54:-1.35071 55:2.85498 56:-0.401814 57:-0.541315 58:1.4718 59:1.95163 60:-0.951059 61:-1.3674 62:-0.581258 63:-0.517597 64:-1.34704 65:0.840847 66:1.95161 67:-0.2716 68:-0.394773 69:-0.279797 70:-0.406617 71:-0.80071 72:0.724138 73:-0.363355 74:-0.799547 75:-0.396325 76:-3 77:-0.363444 78:-0.530558 79:-0.676711 80:-0.39308 81:1.98382 82:1.2 83:-0.230769 84:0.461538 85:-0.996499 86:1.4428 87:2 88:-0.527 89:2.8458 90:1.5862 91:-0.168448 92:0.887867 93:0.859329 94:0.549682 95:-0.480747 
0.8984067950564642 1:-1.18418 2:-0.0377336 3:0.266652 4:-3 5:1.83054 6:-1.49563 7:0.0110892 8:-1.09091 9:-0.6 10:-0.327889 11:2.52 12:-0.888745 13:1.94222 14:-1.79934 15:-1.88811 16:-2.31503 17:-0.820189 18:-0.867508 19:-0.242065 20:3 21:-1.36432 22:-1.18062 23:0.34342 24:3 25:-1.06236 26:-0.715992 27:-0.6 28:-1.86869 29:-1.96979 30:1.54062 31:-1.88438 32:-1.75707 33:-2.06723 34:-0.00937341 35:-1.76543 36:-0.375713 37:-1.77505 38:0.653862 39:-0.227081 40:0.929578 41:0.761979 42:-0.195798 43:-1.52659 44:0.132322 45:-1.87736 46:0.882353 47:1.75862 48:-2.19117 49:0.941449 50:-0.68348 51:-0.258718 52:-0.217405 53:-0.0411843 54:-1.14713 55:2.5928 56:-0.277813 57:-0.0657673 58:1.84913 59:1.53265 60:-0.67804 61:-1.14212 62:-0.211983 63:-0.0128755 64:-1.12662 65:1.19588 66:1.53263 67:-0.236974 68:-0.157404 69:-0.247374 70:-0.171934 71:-0.710189 72:0.517241 73:-0.157549 74:-0.701968 75:-0.019656 76:2.41692 77:-0.150365 78:0.00293976 79:-0.558187 80:-0.00969972 81:2.0563 82:1.65 83:-0.230769 84:1.15385 85:-0.554461 86:1.22517 87:1 88:-0.858219 89:2.6846 90:0.884705 91:0.38151 92:1.42807 93:1.23353 94:1.14372 95:0.267963 
0.06491634375629093 1:-0.876579 2:0.033997 3:0.568309 4:1 5:1.96525 6:-1.55712 7:0.0766024 8:-0.818182 9:-0.2 10:0.216342 11:1.32 12:-0.853222 13:1.91791 14:-1.71378 15:-2.24476 16:-2.43193 17:-1.17598 18:-0.902931 19:-2.50961 20:-0.882353 21:-0.981037 22:-0.522694 23:0.785803 24:-0.75 25:-0.781737 26:-0.3 27:3 28:-2.14656 29:-2.22042 30:1.25178 31:-1.41055 32:-1.88784 33:-2.01623 34:0.279766 35:0.75 36:0.00545945 37:0.94868 38:0.976668 39:-0.32916 40:1.40761 41:0.456604 42:-1.8831 43:2.69267 44:0.29269 45:-1.91446 46:1.58824 47:3 48:0.164721 49:0.874941 50:0.162576 51:-0.640538 52:0.21709 53:-0.310907 54:0.140934 55:2.6723 56:-0.656865 57:0.232715 58:1.77203 59:1.3183 60:0.169299 61:0.1484 62:0.223027 63:0.290987 64:-1.84812 65:1.40412 66:1.3183 67:-0.176175 68:-0.155374 69:-0.186301 70:-0.169828 71:0.118039 72:-1.13793 73:0.261934 74:0.12841 75:0.295802 76:-3 77:0.269796 78:0.239078 79:-1.17292 80:0.306801 81:1.98382 82:1.65 83:1.15385 84:0.230769 85:-0.0780673 86:1.72312 87:-2 88:-0.663932 89:1.40967 90:1.71007 91:0.708183 92:1.45507 93:1.44364 94:1.481 95:0.30794 
2 1:-2.02968 2:-0.937118 3:-0.227864 4:-3 5:0.34667 6:0.877648 7:-1.821 8:-2.45455 9:-0.6 10:-0.368448 11:2.52 12:-2.24311 13:2.70225 14:-1.73645 15:-1.57343 16:-0.952116 17:1.48782 18:1.04794 19:1.47723 20:3 21:-2.13473 22:-0.276383 23:-1.16744 24:3 25:-1.90423 26:-1.5 27:-1.5 28:-0.690687 29:-0.817556 30:-1.93705 31:1.08716 32:-1.31977 33:-2.01623 34:-0.615651 35:-2.01235 36:-1.23766 37:-2.04289 38:-0.259167 39:1.14291 40:0.0949796 41:2.01517 42:-0.57512 43:-1.89548 44:-0.642855 45:0.29345 46:0.529412 47:1.55172 48:-2.63795 49:1.20377 50:-1.23511 51:-1.2599 52:-0.861117 53:1.46403 54:-1.62543 55:2.24547 56:-1.27138 57:-0.779089 58:1.33149 59:2.20998 60:-1.23149 61:-1.62217 62:-0.857346 63:-0.739056 64:-0.978175 65:0.650406 66:2.20994 67:-1.18414 68:-1.16259 69:-1.18989 70:-1.1717 71:-1.45648 72:0.310345 73:-1.0494 74:-1.45175 75:-0.980024 76:-3 77:-1.04505 78:-0.791795 79:-0.537235 80:-0.973241 81:2.14459 82:1.95 83:-0.692308 84:0.230769 85:-1.26003 86:1.01329 87:2 88:-0.610051 89:2.76477 90:-0.0271302 91:-0.452437 92:0.636174 93:0.68316 94:0.0784956 95:-0.79637 
0.1601573749768894 1:-2.30475 2:1.88577 3:2.08649 4:-3 5:1.43739 6:0.579584 7:0.858514 8:-0.272727 9:-0.6 10:-0.368448 11:2.28 12:-2.27188 13:2.71513 14:-2.6701 15:-2.87413 16:-1.96749 17:0.260367 18:1.10572 19:1.43047 20:3 21:-2.47416 22:-0.91715 23:-0.014197 24:3 25:-2.46548 26:-2.4 27:-2.4 28:-1.65816 29:-1.77185 30:1.25178 31:-3 32:-2.10858 33:-2.7608 34:-0.820599 35:-2.25926 36:-0.898552 37:-2.21602 38:0.0026183 39:-1.1548 40:0.754864 41:1.57793 42:-0.832149 43:-2.42198 44:-0.756219 45:0.106332 46:0.529412 47:1.13793 48:-2.73241 49:0.727932 50:-1.39247 51:-0.763307 52:-1.00409 53:-1.01899 54:-1.78528 55:2.8986 56:-0.779843 57:-0.890388 58:1.39829 59:2.3456 60:-1.38869 61:-1.78201 62:-1.00018 63:-0.852361 64:-1.10179 65:0.557762 66:2.34559 67:-0.625137 68:-0.761103 69:-0.634343 70:-0.772992 71:-1.15231 72:0.931034 73:-0.744933 74:-1.14576 75:-0.753766 76:3 77:-0.739156 78:-0.859455 79:-0.584091 80:-0.746128 81:1.98382 82:1.5 83:-1.61538 84:-0.461538 85:-1.00776 86:1.25867 87:2.5 88:-0.974778 89:-0.876964 90:1.02198 91:-0.39761 92:0.690689 93:0.589685 94:0.911235 95:-0.729802 
2 1:1.62945 2:0.479499 3:0.933556 4:-1 5:1.81252 6:-2.74462 7:-0.844941 8:-0.818182 9:-1.4 10:-0.368448 11:0.6 12:1.6742 13:-0.595326 14:-0.933772 15:-1.61538 16:-2.26995 17:-2.22999 18:-2.53042 19:-2.28781 20:0.882353 21:0.506923 22:-1.40623 23:1.44989 24:0.75 25:0.96882 26:1.2 27:3 28:-2.4812 29:-2.49445 30:1.25178 31:-0.275224 32:-1.80744 33:-1.39066 34:1.49386 35:-0.142858 36:0.99491 37:-0.239726 38:1.88023 39:-0.209844 40:1.59876 41:-0.183385 42:-0.509234 43:2.92283 44:1.77766 45:-2.85229 46:0.882353 47:3 48:1.11029 49:0.920058 50:0.972557 51:0.109432 52:1.19578 53:0.234441 54:0.858319 55:2.62219 56:0.0998663 57:1.40641 58:2.56332 59:0.698786 60:0.976615 61:0.864427 62:1.19822 63:1.48069 64:-0.357432 65:2.14183 66:0.69876 67:0.684604 68:0.651603 69:0.684056 70:0.643561 71:0.906298 72:0.517241 73:1.17618 74:0.910878 75:1.26066 76:-3 77:1.17666 78:1.54342 79:1.0057 80:1.26638 81:1.98382 82:1.65 83:0.230769 84:-1.38462 85:0.667568 86:0.691527 87:-2 88:-1.57316 89:1.2048 90:0.490398 91:1.78404 92:2.50493 93:2.18499 94:1.91872 95:2.05071 
0.05729532808720867 1:0.660345 2:0.200363 3:0.602135 4:-2.33333 5:2.43791 6:-2.55335 7:-1.48039 8:0.272727 9:-0.6 10:-2.42691 11:-0.36 12:0.603007 13:0.687921 14:-0.837577 15:-2.39161 16:-2.78383 17:-2.55448 18:-2.00353 19:-1.91968 20:2.29412 21:1.4492 22:0.837539 23:2.30768 24:2.25 25:1.59688 26:2.32 27:3 28:-2.85785 29:-2.71846 30:-0.0237527 31:2.17707 32:-2.23386 33:-1.21654 34:2.06164 35:-0.6 36:2.25243 37:-0.54187 38:2.54606 39:-0.138224 40:2.93602 41:-0.521524 42:1.2092 43:1.65605 44:1.68027 45:-2.6473 46:1.58824 47:3 48:1.84423 49:0.810333 50:1.85343 51:0.687349 52:1.99181 53:1.02871 54:1.75974 55:2.87624 56:0.65425 57:2.06914 58:2.11938 59:0.448541 60:1.86622 61:1.7791 62:1.99777 63:2.15021 64:-1.64097 65:2.51497 66:0.448507 67:2.05433 68:1.12681 69:2.01457 70:1.10161 71:2.28806 72:2.17241 73:2.20139 74:2.3284 75:1.7026 76:0.542007 77:2.22562 78:1.87443 79:-1.76979 80:1.71696 81:2.08671 82:1.35 83:-0.230769 84:-2.07692 85:2.54431 86:0.603201 87:-2 88:0.0304799 89:0.131307 90:0.564979 91:2.42239 92:2.13305 93:2.55889 94:2.34557 95:1.39137 
0.35077970390686 1:-1.56032 2:1.36813 3:1.6621 4:2.33333 5:2.14603 6:-0.437744 7:-0.653446 8:0.545455 9:-2.2 10:-0.368448 11:0.36 12:-1.82898 13:2.50247 14:-2.21377 15:-2.43357 16:-2.58717 17:-0.185044 18:0.314792 19:-2.9212 20:-2.64706 21:-1.99379 22:-0.832887 23:0.0795408 24:-3 25:-1.83742 26:-1.8 27:3 28:-1.72178 29:-1.83223 30:-2.14964 31:1.08716 32:-1.90423 33:-2.40551 34:-0.500352 35:2.45454 36:-0.683875 37:2.31637 38:0.28231 39:-0.259289 40:0.839304 41:1.18783 42:-2.58732 43:2.97356 44:-0.440453 45:-0.867034 46:0.882353 47:3 48:-0.494529 49:0.866242 50:-0.733255 51:-1.52805 52:-0.639093 53:-0.121786 54:-0.789233 55:2.68629 56:-1.53793 57:-0.521079 58:1.53299 59:1.93141 60:-0.728405 61:-0.78408 62:-0.634687 63:-0.476395 64:-1.95 65:0.856621 66:1.93136 67:-0.90289 68:-1.05408 69:-0.90973 70:-1.06361 71:-0.623191 72:2.17241 73:-0.5504 74:-0.616037 75:-0.577289 76:3 77:-0.544998 78:-0.491554 79:-0.94941 80:-0.569497 81:1.98382 82:1.65 83:-0.230769 84:-2.53846 85:-0.792274 86:1.10651 87:-2 88:-0.580404 89:0.880754 90:0.494938 91:-0.050205 92:0.979038 93:0.891225 94:0.979342 95:-0.361207 
0.08658305628980749 1:-0.231256 2:0.703525 3:1.11722 4:-3 5:2.13964 6:-2.06545 7:0.281076 8:1.36364 9:-0.6 10:-0.368448 11:0.12 12:-0.213474 13:1.43691 14:-1.54176 15:-2.24476 16:-2.54428 17:-1.39165 18:-1.46024 19:-0.652247 20:3 21:-1.09885 22:-1.12162 23:0.836955 24:3 25:-0.534521 26:-0.3 27:-0.3 28:-2.13246 29:-2.20809 30:-1.0867 31:1.08716 32:-1.77947 33:-1.85207 34:0.449239 35:-1.68313 36:0.0741416 37:-1.71393 38:1.10667 39:-0.432063 40:1.27547 41:0.347186 42:0.346358 43:-1.70891 44:0.5987 45:-2.312 46:1.58824 47:1.96552 48:-1.84644 49:1.0227 50:-0.117714 51:0.318597 52:0.336238 53:-0.68051 54:-0.59278 55:2.49288 56:0.292692 57:0.419899 58:1.91966 59:1.1985 60:-0.11321 61:-0.588236 62:0.339457 63:0.476395 64:-1.11167 65:1.52983 66:1.19848 67:0.802763 68:0.406636 69:0.787637 70:0.388127 71:0.266617 72:1.34483 73:0.688617 74:0.276961 75:0.523021 76:-3 77:0.696918 78:0.493208 79:-0.515516 80:0.533699 81:2.14459 82:1.8 83:0.692308 84:-0.461538 85:-0.124132 86:1.20446 87:1 88:-0.990083 89:-0.723664 90:0.86071 91:0.859931 92:1.7585 93:1.5671 94:1.46312 95:0.77389 
1.065558597412936 1:-0.723561 2:1.27224 3:1.58349 4:1.66667 5:1.98445 6:-1.6293 7:0.539652 8:0.272727 9:0.6 10:0.216342 11:-0.6 12:-0.777839 13:1.86554 14:-1.96103 15:-2.43357 16:-2.44857 17:-1.41024 18:-0.976342 19:-2.68999 20:-1.58824 21:-1.20618 22:-0.901428 23:1.04179 24:-1.5 25:-0.975501 26:-0.9 27:3 28:-2.30701 29:-2.35688 30:1.25178 31:-1.86468 32:-2.12444 33:-2.22435 34:0.175041 35:1.28571 36:0.135509 37:1.11336 38:0.992293 39:-0.321082 40:1.47636 41:0.443078 42:-2.12263 43:2.91578 44:0.265515 45:-1.97194 46:1.23529 47:3 48:0.0935845 49:0.786154 50:-0.120586 51:-0.621172 52:-0.000209952 53:-0.275858 54:-0.164069 55:2.78884 56:-0.637573 57:0.131535 58:1.81412 59:1.38754 60:-0.11404 61:-0.156687 62:0.00552176 63:0.187983 64:0.019191 65:1.33465 66:1.38752 67:0.13548 68:-0.138167 69:0.124327 70:-0.152612 71:0.284728 72:2.58621 73:0.356746 74:0.29577 75:0.276787 76:-3 77:0.364811 78:0.175838 79:0.377751 80:0.287615 81:1.98382 82:1.65 83:0.692308 84:-1.84615 85:-0.0244097 86:1.49327 87:-2 88:-0.854574 89:0.786753 90:1.36635 91:0.662054 92:1.49204 93:1.37355 94:1.68878 95:0.363072 
0.5920784846036735 1:0.211222 2:0.132525 3:0.649088 4:-3 5:0.808914 6:-2.11448 7:-2.47386 8:-1.63636 9:-1.22 10:-0.368448 11:-2.76 12:0.371292 13:0.917669 14:-1.36924 15:-2.05594 16:-1.46481 17:-1.59856 18:-1.86454 19:-0.735203 20:3 21:-0.172543 22:-1.02796 23:0.983739 24:3 25:-0.146993 26:0.3 27:0.3 28:-2.22196 29:-2.28549 30:1.25178 31:-0.956418 32:-1.75971 33:-1.71194 34:0.873339 35:-1.51852 36:0.291936 37:-1.6504 38:1.30154 39:0.4139 40:1.40066 41:0.195542 42:0.74136 43:-2.66029 44:1.01653 45:-2.5072 46:0.882353 47:2.17241 48:-1.60759 49:0.876742 50:0.0952932 51:-0.436609 52:0.565085 53:2.576 54:-0.383029 55:2.70432 56:-0.457351 57:0.667791 58:2.19922 59:1.05416 60:0.119781 61:-0.357195 62:0.586516 63:0.744206 64:-0.946707 65:1.69113 66:1.05412 67:-0.0760964 68:-0.194811 69:-0.0936773 70:-0.213423 71:-0.248137 72:0.517241 73:0.220552 74:-0.226937 75:0.199658 76:3 77:0.238207 78:0.734972 79:-0.298142 80:0.21677 81:2.14459 82:1.1055 83:-1.15385 84:-1.38462 85:0.0985112 86:0.26094 87:0.5 88:-1.56831 89:2.92839 90:-0.267519 91:1.10682 92:1.90827 93:1.73975 94:1.57773 95:1.01519 
2 1:1.33985 2:0.369199 3:0.843126 4:-1 5:1.62468 6:-2.66045 7:-1.28472 8:-1.09091 9:-0.283721 10:-0.368448 11:0.12 12:1.45252 13:-0.295205 14:-0.74096 15:-1.78322 16:-2.07448 17:-1.86303 18:-2.43458 19:-2.23295 20:0.882353 21:0.505836 22:-1.19263 23:1.05639 24:0.75 25:0.861915 26:1.2 27:3 28:-2.19518 29:-2.26256 30:1.25178 31:-0.275224 32:-1.42019 33:-1.1755 34:1.48133 35:-0.142858 36:0.548321 37:-0.241728 38:1.71915 39:-0.159062 40:1.40192 41:-0.0872391 42:-0.453875 43:2.69884 44:1.69737 45:-2.81893 46:1.23529 47:3 48:1.0322 49:1.05799 50:0.971452 51:-0.090728 52:1.18371 53:0.537806 54:0.865908 55:2.48664 56:-0.0927179 57:1.36594 58:2.48474 59:0.715844 60:0.973862 61:0.872642 62:1.18203 63:1.43433 64:-0.281656 65:2.11817 66:0.715852 67:0.402413 68:0.456692 69:0.411081 70:0.455064 71:0.70483 72:-0.103448 73:0.992495 74:0.705379 75:1.11078 76:-3 77:0.986372 78:1.46993 79:1.10912 80:1.11086 81:1.98382 82:1.89419 83:-0.230769 84:-1.38462 85:0.304023 86:0.761265 87:-2 88:-1.80556 89:1.40551 90:0.535147 91:1.65354 92:2.39939 93:2.1581 94:1.54316 95:1.85891 
0.4229536678274606 1:-1.56493 2:-0.874159 3:-1.85301 4:-0.333333 5:1.66379 6:-0.736671 7:-0.505306 8:-0.818182 9:0.2 10:-0.832841 11:1.56 12:-1.52214 13:2.33651 14:-1.70067 15:-1.67832 16:-2.12323 17:-0.0535359 18:-0.131511 19:-2.00722 20:0.176471 21:-1.20759 22:-0.199135 23:0.0319178 25:-1.09577 26:-0.494118 27:3 28:-1.48847 29:-1.60883 30:1.85569 31:-1.88934 32:-1.45178 33:-1.85911 34:-0.070042 35:0.157896 36:-0.656065 37:0.968464 38:0.509615 39:-0.154483 40:0.961915 41:0.916599 42:-1.73069 43:2.16373 44:-0.117294 45:-1.22014 46:1.23529 47:3 48:-0.513428 49:1.04778 50:-0.465628 51:-0.995561 52:-0.286899 53:0.107502 54:-0.587317 55:2.57479 56:-1.01118 57:-0.141653 58:1.60481 59:1.59239 60:-0.474996 61:-0.600832 62:-0.292548 63:-0.095279 64:-0.263876 65:1.14127 66:1.5924 67:-0.900151 68:-0.599024 69:-0.904405 70:-0.611794 71:-0.770027 72:-0.724138 73:-0.447501 74:-0.771878 75:-0.18545 76:-0.93575 77:-0.448038 78:-0.164795 79:-0.00735385 80:-0.177864 81:1.71429 82:1.65 83:0.230769 84:2.53846 85:-0.674727 86:1.00729 87:-2 88:-0.76297 89:1.68071 90:0.394632 91:0.227192 92:1.1018 93:1.17472 94:0.738477 95:-0.19587 
